-0.035136578315662,0.0485324948940054,-0.0578737326178027,-0.0231178547855219,-0.0121822854474087,0.0300918294624129,-0.0319797026774425,-0.0215031864035736,-0.013456698684348,0.0266500690798279,0.0320418856700283,-0.00691810374548866,0.0117485094919513,-0.0393858977780848,-0.0052194653705567,-0.0305027519302697,0.010767057749512,0.0171300813776998,0.0213608304162474,-0.00240333639874074,-0.0214280362209733,0.00545300855286643,0.033022546962258,-0.0117775992271185,0.00540541572299004,0.049740873793267,-0.00873070445162917,0.0103306303408455,-0.0105207146695435,0.0258587268470043,-0.0300921537214756,-0.027430775606818,0.0276751732246924,-0.000980399588870832,0.041658454427129,0.0379948957775404,-0.0305931928798482,0.0329559371426569,0.0278485487819074,0.0113613570814409,0.0181426760863662,0.00572665891865652,0.0641321890209551,0.0344439570587183,-0.0427032288824758,-0.0333564975410251,0.00270637699081874,-0.0181341503626222,-0.0499732429248788,-0.0494521937523569,0.015067619894413,0.0260321489237105,0.00304465778899663,-0.0194667664875413,0.0225284786227705,0.0088897381117764,0.0101592736799403,-0.036558446943077,-0.0217694659416652,-0.0348156949636784,-0.0359992675338648,0.0158269239388738,-0.0341001850397487,0.0270820139865308,0.120837070506087,-0.161695995385225,-0.0480686069674907,-0.0331394074121442,-0.146969056616147,0.0910840038088625,0.0298945091235902,0.0259595615839781,-0.092244446765994,-0.152408401178118,-0.0272871332578615,0.0647109819011668,-0.0994141632503976,0.0215765069700886,-0.212594606322763,-0.114758368729964,-0.227655836266394,-0.153356988262846,0.0119515909293329,-0.151986507828334,-0.0974397085411785,0.208879596151356,0.185587168596278,0.0938354269352068,0.0873943703812357,-0.0568841335412268,-0.160577062559367,-0.0375460098642289,0.206968207280504,0.00614183041530304,0.00766900068615565,0.103363808710983,0.129514436019552,-0.0834760154933296,-0.088046237704065,-0.103080989331375,0.130127292726197,0.0508803095387711,-0.105947503546737,0.0921312148697905,0.0635931313487954,0.0266434210568797,0.11724590496896,-0.127475776464212,0.0188589538585358,0.102330223517746,0.0414968282166602,0.292737880083957,-0.0647943648450915,-0.107604626937761,0.00477912731581765,-0.151903787151188,0.0658120914204923,0.0198673540419047,0.0155008210903913,0.157055665750472,-0.0750110937334467,0.090536427872214,-0.0719257280021086,-0.160711394995225,-0.0539862096637485,0.0384689827719704,0.105897244626246,-0.125198633810988,0.0191208458112115,-0.0289718718152668,-0.0280841223348056,-0.00568735238027409,-0.0273249354248168,-0.00185894986264677,0.00803481500639834,-0.0042382050547216,0.0205075966165667,0.00256745086881865,-0.00939919158481875,-0.0336142154129277,-0.00173273601423282,-0.0286291941020189,-0.00736234834693871,-0.00455483748171359,0.0264227764141758,0.0287705876892107,-0.030886513861443,-0.0145040687775611,-0.013531863811032,-0.0228091164394626,-0.0155300660483217,-0.0123949287918639,-0.0335193682964966,-0.0117775951940997,0.0337459104682013,-0.0144065910584385,0.0199108586293587,0.0304311466425978,0.0175111534309931,-0.0207696841565702,0.0151618611823034,-0.0360777554661755,0.024147410605822,0.0321849140996116,0.00318249270492059,-0.0193279057680818,0.0183872371393779,0.0193118396567504,0.017333421347484,0.00285093204210508,-0.00899261570985411,-0.00780384873810368,0.00270370450244234,-0.00999427189346359,0.00770173222240855,-0.0135438372750085,-0.00407133006150043,0.0151932906990933,-0.0329208482070676,-0.030305224565057,0.0276944548560881,0.0264513967362481,0.0228129478019304,0.0133278791937842,0.00615003162506588,-0.00357526893950757,-0.0321660097826802,-0.0348345177567101,0.00497043928481894,-0.0121726500443718,-0.019309570827612,-0.0132597373909333,0.0168161169174591,-0.0192853556752136,-0.0174623025233929,-0.0316578948919212,-0.00880887338045864,-0.00795766574436609,0.011525328072671,0.0104797130391267,-0.0302495304812865,0.0287392546434751,-0.0407502442749848,-0.0170875770167977,-0.0256832422635197,0.00987514954071323,-0.00618815139265693,0.0252618403967269,0.0400592243073121,0.00452107131707732,0.021509610705383,0.0291823704278657,0.00809426594001379,-0.00149326168580529,-0.0195824941682121,-0.00455812869547784,-0.00253902867549829,-0.00672903789838415,0.027835118708297,0.00994361811822933,-0.00487171961287877,0.0316001487421572,0.0163060024418112,0.0131477522416717,-0.0112816314007283,-0.00996427434726227,0.0241420388342739,0.0224167883366593,0.0263170902150792,-0.0180321088113333,0.00645113557075233,0.0242864958086315,-0.00677337191001772,-0.00541150082479241,0.0372176974597169,0.0108146808369198,0.0075824231564229,-0.0188649143580306,0.00517179752454669,0.0318129745629558,-0.0211324150116288,0.0224570940142608,-0.0334383001716528,0.0190624980383052,0.00554718775266219,0.00674817145867774,0.00828527824410587,-0.00592008942334993,-0.0298572511176746,-0.0221180829121322,-0.00349889084595736,-0.0368605766638202,0.0231953373228035,-0.0239086938936544,-0.00870127717294505,0.0027908834141073,-0.0379897141825099,-0.00307427543999026,0.0709751942698106,-0.0230916215459133,-0.0143916597915491,0.0106899984375936,0.0184813202077198,0.0556081598371138,0.0256144465913818,-0.0414331903883058,0.00191749244296108,-0.00802704024781373,-0.0536700389499151,0.00885310780537647,0.012258512190284,-0.00246462979696373,0.0118499219216323,-0.0261294858858512,-0.0183270055589435,-0.0102330338445224,-0.0126730783055002,0.00438298577219802,0.00659951592909334,-0.00549086401211749,-0.0276513254563403,0.0129892078172946,-0.00593329297866349,-0.0324689121131138,0.0193381215412482,0.0188087068502092,-0.030181561370215,0.0421930307060123,-0.0336375490416776,0.0281772242729118,-0.0488198156433441,-0.0142856316310612,0.00960669600562456,0.0244301961859672,-0.00092594656855456,0.0448887494808399,-0.0148382889328041,-0.0169660921167445,-0.015478098821742,0.0192802659265495,-0.0253769592189473,-0.0259080859653632,-0.023629480602096,-0.0385962442784195,0.0301035140330098,0.0380026516455007,0.00448780966680491,0.0415935255601566,-0.0444649063423645,0.0271335657200004,-0.0171250510397883,0.0122165273273214,0.018800166086527,0.0115008265917066,0.0465138867200982,0.0138664832736471,-0.00639013425086387,0.0373696147234168,0.0251527798539747,-0.0345842939385131,0.00371146481241727,0.0120786324973481,-0.0175627553976708,0.0340898485798582,0.00947020755750766,-0.0333332223567605,-0.0139365118311359,-0.0410200658522844,-0.0167364604703439,-0.00507755278878317,0.0226402387571755,-0.034178164341331,0.0416904480359768,0.0158133384982372,0.016853875432928,-0.0216616134387837,-0.0110701753078366,0.0203676367177357,0.0274532058909439,-0.0293917305316181,0.0377701890713795,0.0391114409895011,0.00943588863101735,0.0415191787486689,-0.0294244891200242,0.0218002299827252,0.00225618623976587,0.0388052484333401,0.019074415816765,-0.00367926223759136,0.0402308161657758,0.0165984353036963,-0.0378013482314472,-0.0196217658044032,-0.0273177982054174,0.0422730697974228,0.0370152710248789,0.0247670019821441,0.0170697656312529,-0.0132772662997569,-0.016412253142836,0.0294211196194328,-0.0303200123974547,0.0217055072935202,-0.0295395804628571,-0.00435363642977848,-0.037748447651132,-0.00119396258179794,-0.0368166232690138,-0.0121780590058923,-0.0267642581139422,-0.0191450552705887,-0.00559161014751868,0.0108371551300569,-0.0236717800207648,0.0136692651776925,0.0118671618778542,-0.0418724689780521,0.03153101165866,0.00693634737067486,-0.0104024778819954,-0.0183927400860534,-0.0295026774535509,-0.0241397135270223,0.096573248372785,-0.141298969896398,-0.0423587749414517,-0.0495832433739222,-0.028480352741864,-0.0762011555932367,0.160409728649736,0.134997069616585,-0.0835965879860331,-0.039911516084291,-0.0578508927624861,0.0772540319819595,-0.0821556502511969,-0.059924424842221,0.0725880628471691,-0.110074107361666,0.129140101691056,0.0706402967446834,-0.0338225305666303,0.0724270182603699,-0.0166318005757593,0.0544003137814318,-0.00155444529205373,0.108910010401317,0.0326866700583128,-0.123591018682064,0.0016186235456879,-0.00151949787668644,-0.0160061024020851,0.0954269290348287,-0.0342337436414332,0.066804608050858,-0.146229273589094,-0.00804016973740808,-0.156264644835023,-0.0907045235376894,-0.0417715705411057,0.0565643302544879,0.103716730771264,-0.0952174811540663,-0.101336920665508,-0.0644877065172648,-0.0723386734020553,0.0889475593248603,-0.0122521241889405,-0.0733427327280626,-0.00793866552937754,0.0234399344326657,-0.124172065236145,0.00328292263967211,-0.119833067097235,-0.017806218186847,0.157135513946601,0.137521650215522,0.0543066347913386,0.0768803178914571,-0.081697762040586,0.0213837235682809,-0.0630793467799553,-0.0576637354984463,-0.0579352091451311,-0.0652176638173967,0.251747129856125,-0.0224414249298165,0.0478013215669831,-0.0135174467253053,0.0115454629818157,-0.0452520184583273,-0.0362035798797505,-0.0255317400443049,0.0425460758344721,0.0365659876806246,-0.0363638737740379,0.0311544713713597,0.0136186100349247,0.0219940340866971,0.0125035782059325,0.0163269618923061,0.0017941404729574,0.0312386524403113,0.0612865726097034,0.0474598399845272,-0.0211941736106344,0.0512845959020735,-0.0136908249125819,-0.0439584455850477,0.0100902939787081,-0.016344523085944,-0.053225537823331,0.0122270426192322,0.0379512165652079,-0.00149806369286491,-0.0647338389865774,0.0176102786138227,-0.0207695608401342,0.00427720591787542,-0.0190788106345768,0.0141692304477091,0.013823167174795,-0.0570722343968678,-0.0377552737437154,-0.0134459115869536,0.0274252672229028,0.0519523269672162,0.0361533046803795,-0.0209447281236343,-0.00390078897291283,-0.0212386358169253,-0.0303858201609911,-0.043165851854889,-0.0460790257340052,-1.78146724008022E-05,-0.0513756740158893,-0.00444221777669673,0.0384801218337298,-0.041546055136589,0.0388676816534161,-0.043333202168403,0.0028184089751633,-0.0204511779987831,-0.0331443546860895,-0.0318806333974014,0.0191737960271075,-0.0584428693298137,-0.00850616491783334,-0.0101091011016292,-0.0183226184957568,0.0401117689452732,0.0268694522696854,-0.00937996220667313,0.0114385805176451,-0.0131049773265399,0.0267791575420689,0.0243606417793369,0.0350782153528325,-0.00113243394076347,0.0315381610437089,-0.0118742573458797,-0.004635778037264,0.0160387046160946,0.0291968295244332,0.0125497741186758,-0.0273162270164863,0.0199862537064779,0.0330841551791034,-0.0346090878663014,0.0263887630792444,0.0142113742671493,-0.0205939955417018,-0.0180760418173053,-0.0349822537263533,0.0195295340290255,-0.0285735537623125,-0.0260229128202842,0.0344600985273212,-0.0272417100627229,0.0138349095328026,0.0177016395790319,0.0271042812584847,-0.00164343192386932,0.0223881127050377,-0.02513890794302,0.0222701219628084,-0.0355059973332685,-0.0197463978424266,0.028660212085512,-0.0290623366941833,0.017033919081755,-0.0101585508125668,-0.0128885636754016,0.0245626013779718,0.0123543037768393,0.0058261570457648,-0.0360996852283105,-0.0105417075714868,-0.0200405049843237,0.0229421781286205,-0.012484520123021,0.0140868326390448,0.0376661842346991,-0.0380987891626803,-0.0327149220218878,-0.0136659264427418,0.00516309735938365,-0.00145471386748083,-0.0305972566374269,0.0228020235040357,0.0276959694350286,-0.00996176341057297,-0.0175404557095306,-0.000255030767865749,-0.0352127992214078,0.0371902741961494,-0.0789560067735816,-0.054992050464779,-0.0301457685679455,-0.0310818857364602,0.0151421117961882,0.034951664312341,0.0516351755034892,0.00298471575170762,0.0896924224207221,-0.0495458906849975,0.0295303285644452,-0.0281655549871976,0.147459497977821,-0.0548908365753757,0.0516321555748533,-0.069056516119683,0.0673870490207692,0.0595003232508198,-0.021533399663752,0.00120304926226301,0.0471781339273195,-0.0747377949617631,-0.0296614513920059,0.0595346265277085,0.0343958264349091,-0.126706901749729,-0.0455394969442484,-0.0399100070295987,-0.0221695038549707,-0.0735255067616351,0.0550118001418152,0.0951827426956769,0.0234902931349158,0.0440840586712088,0.00216598110247556,0.0428294936875129,-0.116735271581118,-0.0728936082527265,-0.0115553588576448,-0.012723409057109,-0.0368869839949165,-0.0742275795140145,0.0119870244763054,-0.0563655416408944,-0.0374509088160711,0.0481044841606018,-0.00964615475432845,-0.0417059024459988,0.0247964806827399,0.237189789767881,0.0218296318247292,-0.0215343211702625,-0.11724826514439,0.0555158739260912,-0.0277297150316797,0.114121546174873,0.0744607129573175,-0.0438651701944907,-0.13443796340279,0.0997275743273593,0.0753710562535221,-0.10444740181706,-0.0454250996403418,-0.0426002862914634,0.055768502986337,0.0084125351109096,-0.0268717744162245,0.0644076427251541,-0.00867281970585594,0.0644842449868,0.0543030023912703,-0.0127409074089429,0.0611815877295628,0.0580552094740075,-0.0351007632049895,-0.000770535290565873,-0.00442833567276159,0.0453300975449978,0.02096433509565,0.138808177811192,0.01158717028225,0.0509869265791502,0.0463751358382471,-0.00631148918542642,-0.008297709861724,0.0214580545002314,-0.0313052956416661,0.0189761440679399,-0.00548212623223442,-0.0566140297684549,0.0238612761604778,-0.0509857964268741,-0.0536746923145333,-0.0156848776234271,-0.0150116853841136,0.00956668845077385,0.0480166602639538,-0.0599613511248732,-0.0576645419997081,0.0564708165446232,0.00318697173734419,-0.0945473561786748,-0.0231233807013136,0.0410209689003832,-0.0135718210743187,0.00754896613441586,-0.000388810411184,-0.0377813593286993,0.00916539186027787,-0.0305659736875491,0.0222889124156422,-0.0701492392025765,0.0160422703180691,-0.0619217910112068,0.00671910351663,-0.00905445555675168,-0.0153660603379895,0.00426613580807905,-0.011706390199655,-0.0457053134067045,-0.00111053647147759,-0.00725193450270446,-0.00607752135530603,-0.00831471382995666,-0.0101504831320777,0.00199775063100078,-0.0108695525151488,-0.068949806457441,0.225164477899129,-0.0930076048010097,0.0639431480253687,0.279652204779203,0.0344600059402863,-0.189542310791416,-0.220673811063199,-0.0880868311226591,-0.124321114945958,0.140791916482225,-0.0838920710282452,0.0663738351634253,-0.115492561660319,0.0595194303165344,0.0371615587654152,-0.174110971890951,0.0824319813180214,0.0931161547459225,-0.232237651450577,0.0989389062853588,-0.0718878336805021,-0.273510672171166,-0.0654261893180341,0.0709714684010588,0.0482370218113132,0.0011590167653969,-0.00289311802475373,0.0783952301506767,0.0311570559624449,-0.0581765002282989,0.000408731637822001,-0.0574355873950639,0.192729357720359,0.10024795029111,-0.11897116537082,0.0554487490028335,-0.111217208511818,-0.08367583475624,0.0232794413837795,0.0344808251508711,0.115550027131672,-0.0662358872893643,0.321863619804944,0.0118860207805159,-0.13432425906967,-0.284381513529461,-0.074604023475421,0.0551554979835891,-0.0859911053600724,-0.0431807800766168,0.138066063617217,-0.111382262021087,-0.00468722228770726,0.162763001806351,0.017145196289811,0.0310532174836161,-0.224189181314673,-0.0406215849823528,0.0673025597670968,-0.114493126414016,0.0166744030080377,0.0338234979664955,-0.0256561167850063,0.0732136501965928,0.00350764887997611,-0.00638828582287695,0.00135668871192668,0.00435853109180672,0.0124611156608418,-0.0416204498157032,0.0153829322046551,-0.049413241175391,-0.0538513396381971,-0.0276194965419736,-0.0324104660650483,-0.0447919094672859,-0.0680090011173036,-0.0443406845431236,0.0339764642156822,-0.0717991150701501,-0.00724248220628351,-0.0235778058261053,0.0222877415562205,0.0367401909109428,-0.0242128963186158,0.00525688336089554,0.0625883672368192,0.0692262402410489,0.000311360178926989,0.0138634737820263,-0.0112952908135909,0.0469121568926869,0.0130907810274423,-0.00922950493987325,-0.0161067586649688,-0.0185490333419476,0.0237754477062676,0.00518764937978261,0.00726757779271446,-0.0288462002583488,0.0092310269580784,0.0194486340243133,0.0623778764273045,0.00799213103732229,0.0279949173102161,0.00879476882350323,-0.00943411047913296,-0.0179596202669368,-0.011489993383639,-0.0761832313724885,-0.0284626826956929,0.0421546548505796,0.0273630047966006,-0.0218568711136764,0.000603472729246626,-0.0171703909487056,-0.00927381069363039,-0.0085019947201506,-0.00563041085045721,-0.0169096760028239,-0.0225126685526429,-0.0104857989492154,0.012706511094927,-0.0367514916355303,-0.00126268881149693,-0.000523136368645607,0.0159603998833928,0.0326181118798425,-0.00535740367978004,-0.0280731170757479,0.0352246731526127,-0.0344648996883013,0.0165586782023564,-0.0218604727595386,-0.00286518422671514,0.0258148582502675,0.00774751284992775,0.0097024818585027,0.0240618946658125,-0.00063312531923662,-0.00732813432476533,-0.0314781121990478,-0.0101598831961843,-0.00772066677724614,0.00355388312524502,-0.0310513990986757,0.0175150826483968,0.0358659939234477,0.00247425869916582,-0.0280015240691649,-0.017452252372506,-0.00307527213733513,0.0089986979676802,0.00209168959199442,0.0374554844025689,-0.0230583387065758,0.00830321892429159,-0.0116953819354061,-0.0127809392089487,-0.0216013240688046,-0.0119008599222209,0.0119955655421699,0.0174646869447303,-0.0204221499919665,0.0145578459105766,0.0253774712278919,0.0127046750355941,-0.022316383222938,-0.023778049758489,-0.0303684999654983,0.0243558645561649,0.027093115569759,0.00788132981228322,-0.0290484667167623,-0.00134362724837793,-0.0377540861690587,0.0221228864954522,0.0105113715802532,-0.0119492222426364,0.0179782710934508,-0.0140987054613815,-0.0374207043581734,-0.0305766870447142,-0.028809833330122,-0.0360845205888712,0.0301388912279701,0.0277625969459995,-0.0346660448143433,0.0360766956430876,-0.0358395130471694,0.0355272864409265,-0.0449115192525987,-0.0116765788517563,-0.041197931397591,-0.0580818295832834,0.0658415525517024,0.0204678111532639,0.0677594578427117,0.026493452422559,-0.0317803329922707,0.0190732035790203,-0.0309105997221315,0.0539671802589302,-0.0945948723474056,-0.045105072494292,0.0626672002115033,0.0359786059840454,0.0881528148256495,-0.00431922868064881,0.0102044853000376,0.0588584836033281,0.0116025806493718,-0.0647777178441083,0.0436235396667437,0.00913526562780951,-0.0166114413314338,0.0017077857637699,-0.0705734839147483,-0.0143449844031796,-0.0435364853097395,0.0592007680517797,-0.0287310126781222,0.012154088072907,-0.020706069146292,0.0397224511850544,0.0607078634993337,-0.0435501240436859,-0.0589435137298565,-0.0163285804764614,-0.0747931127207329,-0.0296535096772399,0.0456888129354986,0.0701740703186244,0.0210069249951252,0.0407154592397752,0.0415221504644237,-0.0345916606469852,-0.00139942399806056,-0.0198348210098042,-0.0541775089473507,-0.0214985938385997,-0.0327800720816615,-0.0212715424331611,0.0373594287911611,-0.0347771987242079,0.0628368929347488,0.0287359236614455,-0.0127092090964519,-0.0120806182334162,-0.0353896794515124,-0.0429926908908762,-0.0553198331382383,-0.0658256374725791,0.00861842757767114,0.0750257225289339,-0.0377205192045451,-0.0278701080673234,0.00998167606295251,0.0590457425255411,0.0481350341458852,0.022090518735351,-0.050340071843641,0.103642839992286,-0.0450295684822374,-0.0677527233555157,-0.0290667265045594,0.0214477295775467,0.00228198207428582,-0.0335333739188209,-0.0190476572986417,0.0088605422697017,-0.0303168091083455,-0.060941529235738,-0.0527100404592975,0.0553291841115715,-0.0117441893318452,-0.0769326855092138,0.0282852187851421,-0.0439615087057948,-0.0150745981577052,0.0190795922140274,-0.0635824459925025,-0.000523789242029595,0.0845416410353188,0.0175246082312753,0.0333643065570294,0.0228547505184016,-0.0393880392223873,-0.0248159140683097,0.0407060149418784,-0.00321032821647403,-0.0478941718171537,-0.0223901447378468,-0.0557339274200046,0.0833821043483847,0.053670032717062,0.064315347277185,-0.0581881454097035,-0.0156848275684747,0.0663229107944011,-0.0215836056556272,-0.041452041716641,-0.0133370241271971,0.108319525318312,0.0517852778988006,-0.049512197952618,0.00899205011412457,-0.0768868977000644,0.0252708418394415,0.00053140577837441,0.00524827046414146,0.0681704604107197,-0.0140342623686729,-0.0400160942398291,0.0260769526789165,-0.0190965083991064,-0.0843282805936917,0.0410412522972924,-0.00985881860117297,-0.00339753915464979,0.0279119768649836,-0.00809864905986411,0.0037700021217768,-0.00124517669872915,-0.0386441300925045,0.00731592884021669,-0.0224107229448192,-0.000486152270120428,-0.0199018708202701,0.0118627493654904,-0.024883157128852,0.0267752982535618,0.0206036435299157,0.00454665746309575,0.0284532174372507,0.0352401103286933,-0.0169663131535549,0.0397461673770743,-0.00276791965301623,0.00396565183301902,0.0261425632280511,0.00104036938539275,-0.00563024017680763,-0.00195632213165387,-0.00293021055013528,0.0126131871407189,-0.0220525077892385,-0.0283077868931145,-0.019306661011169,-0.0110964866756217,0.00471887841287027,0.00877209063818269,-0.0236363641242328,-0.0208690864921098,0.0342709456673586,0.052561956773178,-0.0249803379551488,-0.0315299148809458,0.0216106567789259,-0.0356970800677764,0.0295039129727668,0.0167848783488108,-0.0311758538065171,-0.0395454306087702,0.0225995286965075,0.00890881185821119,0.0356584009870343,-0.0134481339226254,-0.00753643903610818,0.00972810146211165,0.0334431361482949,-0.00751325645431903,0.0322640433851283,0.022661961269448,0.0303940226597575,0.0269740232426697,0.00632285774040523,0.00705732750508877,-0.0332851954215494,0.048327677319869,-0.0225240951412243,-0.0366756356336489,0.00258232312843924,-0.0305805183919206,0.00340825138907288,-0.00885195342366463,-0.000871956647688075,-0.0275853231519829,0.0264054249823802,-0.0346436825232224,-0.0262362053099171,-0.0163963776862825,-0.0323574783371586,-0.025874552715414,0.0194323441633786,-0.0363071525086797,0.0192369639485701,0.0354635434289562,-0.0341902215728875,-0.0100568272505887,-0.0338077262638464,0.0207605873036771,-0.0377965305049377,0.0549762513661461,-0.0282277699458083,-0.0313930440539442,-0.00744150800635619,0.0308303389518799,0.0203130803551352,-0.0393731039505903,-0.0218128399499269,-0.0307394071735809,0.0164417346263214,-0.0179440785475417,-0.0252731754841268,-0.0303207429974599,-0.0144778813326181,0.025185572780202,-0.0111050263041044,0.000565676131882593,-0.00599272669687753,-0.0117403590803005,-0.0488095483062182,-0.00405654373005707,-0.00946153285495568,-0.00244425147635762,0.0262494966357004,0.016760298437965,-0.00213130931232095,0.0132217829367073,-0.0165327568806093,0.0110139411106878,-0.00779232805599463,-0.0213811769421153,-7.46627227436808E-05,-0.0236564279153754,-0.0138395792263276,0.00429063021958828,-0.00327460860818196,0.0269913452821622,0.0249469385635851,0.0189567157353039,0.0383937290577765,0.0052470598296598,-0.0313350818095622,0.0298417788106303,-0.0180189977168116,0.00671045862977963,-0.0189300613457403,0.00834513479323427,-0.0300229176155096,-0.0377503732655237,-0.0083218838210694,0.016647664292808,0.00303140000836685,-0.00298197049615103,0.0134318346282165,-0.037881760684382,0.000105222160359682,-0.0444644816494666,0.0172820116874365,-0.00527879287552758,-0.0112353649077008,-0.0312865450490994,-0.0107465712669688,-0.0188787678705688,-0.00572601999256982,-0.038599902547659,-0.0084375728176378,-0.0270682820878768,-0.00356397872099889,-0.0319054525129583,-0.0254641711991905,0.0376657832832573,-0.00280728086745456,-0.00650182162382674,-0.00856275616806284,-0.015311717261439,0.0164420748997918,-0.0171956664787136,-0.0232344036930284,-0.0165286638216149,-0.0326845174426667,-0.0580277632255265,-0.0174842601968945,0.0224475080767973,0.0256838178938426,-0.0103019823219326,0.0170937476087766,-0.0484331936084242,-0.0327863046156624,-0.0240489965019988,0.0338488489199094,-0.0188868428960957,0.0241748901243079,0.00499823184298342,-0.0245441235093865,0.00359353687577269,0.00263263276234028,0.0114004836910353,0.02661908763303,0.00866261648639993,0.00895084996206476,-0.0357784277780006,0.0261606754585751,0.0390025503155963,0.0176275196686813,0.0285848809119695,0.0336921226286848,0.0433506704216815,0.0596281935215723,-0.0155991063231493,-0.0293628014476822,-0.00648120427071662,-0.0180134453965532,0.00626812860403064,0.0193959337637359,-0.040654852654048,0.00945787311012783,0.00970283244859013,-0.039878800864754,-0.0593848297303838,0.00481164092592617,0.024595661758589,-0.0395101805580191,0.0422641629591569,0.0181543288959662,-0.0420583450607068,-0.0102100868770688,-0.0458488520721596,-0.038425460214003,0.0324250355215629,-0.0248637679802925,-0.0421634054301454,-0.0111340272428696,0.0015337182577294,0.0435902251826537,-0.00710259839192029,0.0778773795678941,0.0459022595807472,0.056887572786487,0.0533126893648509,-0.0215736518164895,-0.0445599226020439,0.0111918080643919,0.0646185398193631,-0.0123878612223654,-0.0389203169652813,0.0318458499558441,0.0482602701242024,-0.0222812665999724,-0.0277641106887693,0.0189533701012855,0.0153373527472957,0.00806008722345425,-0.0486309054137752,-0.0305913354968511,-0.032440836527119,-0.065098204884637,-0.0230291843117425,0.0173821545310126,0.0236463040920492,-0.0249051430685393,0.0179593653407194,0.0135966849090697,0.0304526458421736,-0.0355752922468156,-0.0127334607365976,-0.0639820231291771,0.0736101889694592,-0.0284296591927706,-0.0414763454815935,0.0276701299401635,-0.0308201553010953,0.054874981947766,0.00334460267658188,0.032919172851639,-0.0221139149648462,0.025892399328269,-0.0269816122048036,0.019852942641,0.000482599357676441,-0.0140194416614861,-0.00424245712484371,-0.036986310541035,-0.0109563743311286,0.0163635694699907,-0.0132501371913691,-0.0135189404134104,-0.0327798609296043,0.0339313216288574,-0.0141202812754555,0.034925242183071,-0.00643198179074027,0.00071521201292573,-0.0333901988339045,0.0118658275095727,-0.00411395331305588,0.0233567006893827,0.0186302288924141,-0.0222111399509828,-0.0192274257696494,0.00157391196448293,-0.0320080798422678,0.0180147090064303,0.0162837947517331,-0.0284266951277218,0.0177269218959174,0.01347954294852,-0.0251437053720412,-0.0317663622250012,-0.0133156324001639,-0.0133660849425658,-0.0161319649791235,0.0249554605051961,0.0169316886009202,0.0203698679360624,-0.0335045213752544,-0.00363555342345143,0.0281358158661278,0.00642766614825587,-0.0221731668183378,-0.0175993967923709,0.0264761970739774,0.0123625097476119,-0.0263572879479392,0.0204785388159426,-0.0222953375075251,-0.0225934073428433,-0.0250497100965744,-0.0368557497690846,0.00342467129042598,0.0250118599564678,0.0274089855891768,0.033970094546892,-0.027807720561332,-0.0208817106749894,-0.0304288694529463,-0.0261998089774919,-0.0351328176714913,-0.00332147369400324,0.0312362119330948,0.0197501806319678,-0.0137738788758131,-0.0153009955225915,0.0225187829230339,-0.0350230297927141,0.00781816515626236,0.0132222177673544,-0.0266202590013559,-0.0330177013736376,-0.0120155145080055,-0.00152249484462848,0.00371680388464359,-0.00653355045855494,-0.0205393258505622,-0.00630949356153374,-0.0182620865352701,0.005744289780733,0.0169308335372926,0.0232660674922301,0.0132679495665162,0.00943727714211082,-0.0205925828462104,0.0247928942595096,-0.012158789517456,-0.0340244993337555,-0.0343849207770507,0.0153308580239529,-0.0190737111655203,-0.00582278124775894,0.000576741634362418,0.030207218061073,-0.017534254071174,-0.00940680102043563,0.0150037065854356,0.0159090031504277,0.0073500720319283,-0.036477761685347,-0.0394583171875186,-0.0155733504935009,0.00170955916227622,-0.0253513823728674,0.00335769934868759,-0.0334798711841864,-0.0205594526816513,0.0271305019513778,-0.0047288724819394,5.27428543176536E-05,-0.000131436771155536,-0.0296351012486403,0.00305592712541966,0.0219048220123785,0.0295018781288734,0.0191022801807088,-0.00919039920541465,0.0128949516825531,0.0145820898371092,-0.0103750611929084,0.0119938833848283,-0.0158429833904268,0.00887187271327541,-0.0184607162063094,-0.0936510211474779,-0.208630113998551,0.104143630783372,0.258121299234413,0.0686671058655089,-0.0482546278562643,0.132971320443055,-0.206076051676242,-0.0656282406237685,-0.0701449656379137,-0.218839305395418,0.0447445207361908,0.00590576989883001,0.0124865584385311,-0.097192781126006,0.0293404120393025,-0.0636397446175131,-0.0222997616260068,-0.0654219196121152,-0.159154911523347,0.0228210823045773,0.106044212766572,-0.0242663189140072,-0.175869797800491,-0.0573345770653993,-0.187930381003763,0.183917651799389,0.0625687124938037,-0.107785340849074,-0.0883461618537405,-0.029379854769798,0.0387323207100421,0.03400284509738,-0.0947838455856141,0.0197488440912639,0.0431445534250746,0.0217010328128275,0.0571085123904263,0.0738184931748896,-0.0935187756382341,-0.0519066560053641,-0.00110422624922249,-0.0967625440732108,0.0617952138638772,0.0523716306604061,0.0885221657717467,0.135899019004393,-0.0161900878695209,0.0591727108886746,0.0917401435067914,-0.0907018127661855,-0.108349256228636,0.117114382437318,0.197333067404436,0.00010303168064952,0.0857493493577644,-0.078618112036116,-0.0355307142764321,-0.000255752563028023,0.257323516325545,0.00678907587597048,-0.0243332864630147,-0.0416554362183367,-0.0606966190339363,-0.07774134929571,-0.0897650761977475,-0.0168015806725527,0.0376971507446866,-0.0154540624230557,-0.0308412570079732,-0.101821961070909,0.015013901193378,0.0321820587551527,0.0196781369318708,0.0970868872759252,-0.0057546365608603,-0.120650267869539,-0.0393078392722349,-0.064271598372407,0.0715465830400809,-0.0552023766853413,-0.0175040635405774,-0.00441953627724851,0.0308018456324967,0.056227892183633,-0.0091835792683786,-0.0379874153702601,0.0168388299875095,0.0250564590238969,0.103780362585906,-0.0140460858818624,-0.0383628767079998,0.0574712486454851,0.0150177281527755,-0.0159072071055684,0.0187066121716224,-0.0519430547802969,0.109247638801353,0.0715409813316582,-0.0552563383121279,-0.0802322657675469,-0.054595900522402,0.0518288431070043,-0.0242353312958423,-0.0855699163145656,0.0689482831064622,-0.0245930538834073,0.0146602930901358,0.00271437287673268,-0.0323947228901663,0.091214598410146,-0.00156244153383397,0.10290211508011,-0.0344675823419555,0.0220435198355723,-0.0127646354005299,-0.0397811842920643,-0.0229605847383227,0.00917445125607755,0.109697676482017,0.0634066477961335,0.0138068480890559,0.0795384228307691,-0.0183150013128183,0.0340260582681707,-0.0499188974149711,-0.0368688423912438,0.00860021056684594,-0.0303391250472302,-0.0250841109799501,-0.0199821860670087,-0.000542626673202341,0.0415544003724903,0.0299131865999833,-0.0298971379143968,-0.0358719743738147,0.0200401313274112,-0.0058099482784496,-0.021538843526298,-0.0347724395922211,0.0555941233337159,-0.0254297901400357,-0.0175919900743875,0.0146496334783229,-0.00604112184915302,-0.0100875468753256,0.00705469924868311,-0.0221314784042554,0.00804874685354758,-0.0302097083646132,0.0200200356889615,-0.0108948294215275,-0.0179059640469694,0.0398033766321076,0.0327143734536357,-0.0334196292310432,-0.0216199610505989,0.0186868229924767,0.0110464906302385,0.0230316164076949,-0.0377842874976258,-0.0277847344004754,-0.0287302246101296,0.00364817128249212,-0.011218233015537,0.00139503708831485,-0.022984009857643,0.00888988414575562,0.0101616379562226,0.0116939642310179,0.00493279737391351,-0.016815163045482,-0.0212365449271033,-0.0120843426036453,0.0213500377111321,-0.0362105790310946,-0.0171927193573863,0.0111892751291855,-0.0257396828141619,-0.00368972766493632,-0.000993429590091899,0.0269682981461906,-0.0143660523158953,0.0125053467316085,0.0367004546502571,-0.0313495572097033,-0.0358583649623235,-0.0276287420389885,-0.0289637345909594,0.0182527507769643,0.0237659348268846,-0.0189934438376256,0.00341288734027484,-0.00476373632204915,-0.00684202357452837,-0.0181940912636532,-0.0347714415857899,0.00289940767664236,-0.0220659455756852,0.0218125967848012,0.0304078906791786,0.0268661372125077,-0.00785761900861569,-0.00299449948704043,-0.0148652075069438,0.0245135596459904,0.00597158671548188,-0.0226060700418756,-0.0203211120742407,0.0294264976053942,0.00699211970794878,-0.0158290129267669,-0.0109635682091641,0.0036930125241739,-0.0397820799707224,-0.0312447257825391,-0.0281881076520439,-0.0249414322150361,-0.0268591306962408,-0.0338580823372488,0.00127851748786446,-0.0163309079274718,-0.000348804896395292,-0.0129440581015951,0.041751097996332,-0.00600008971892834,0.0188457059706512,0.0154884706129045,-0.0268224570428569,-0.0313564865052572,-0.0116817567102916,-0.0286353694453086,-0.0312470423239674,0.00526900666407302,-0.00795245204301489,-0.0147434951676947,0.0200947650982041,0.0278048899910166,0.0219224642133339,-0.0383192266346369,-0.0186112159007442,0.0126201759574598,0.0554779835646627,-0.0324377633535634,-0.014060594000802,-0.0303055481406836,0.0181673338357396,-0.0233495396833359,0.036272797708478,-0.00172611860722045,0.0206035361055426,-0.0379390942704035,0.0305881846810858,0.0214926404155123,-0.0293844871615387,-0.0112468430417218,0.0223760024931535,-0.0358292809510338,0.0420775677158652,-0.0363468948796036,0.00620984845768144,-0.0286479157657578,0.0193966224345014,0.00280780439925476,-0.0326451209599607,-0.0279902098954327,-0.0484482604157739,0.0488232833089903,-0.00272166371944909,-0.0124149976200779,0.00192857354891946,-0.0311672226283064,-0.0429124575443147,-0.00957305464041737,-0.0309261008672043,0.00761276320187852,-0.0413165347216552,-0.0292925323195988,-0.00775042826062863,-0.0045058169851958,-0.0194768009668306,-0.0281900638678685,0.0112100714351701,0.0313628700108139,-0.0207184897672803,0.0380863457349488,-0.0266438310570837,0.037291311399512,0.0165026526267663,0.0334047000307129,0.0720296443191092,0.0311584399550585,0.000529716503498606,-0.0133413669938222,-0.00164111996142907,-0.00768776525731607,-0.0163088194530483,0.030470243141868,-0.026667846806333,0.0142967051937447,0.0301231967059677,0.047445905995903,0.0430856757205922,0.014101849014712,-0.0487427817623847,0.0287648993578518,-0.00101249206859315,0.0201184092500169,0.0151442142341219,0.0333645269068811,0.000134936779084631,0.00655516347759367,0.0257162537829211,-0.0321063986719451,-0.0246383487394376,-0.0295329559511342,-0.00857599922168609,0.0343515892988447,0.00998357506527475,0.018673991277901,-0.185610490151008,-0.126086587909844,-0.0263165717339574,-0.0323449326731357,-0.0271793839639058,0.118202922036728,0.112130346709306,0.00320006714460589,0.0805673172586951,-0.0079483419460261,-0.0250179054557297,-0.0705413057786023,-0.0407418510023434,0.0601613856423798,0.108166203712888,0.0845647833895098,0.0663249386761772,-0.0828069788183025,-0.0173280811935157,-0.0747471587293946,0.0438800511348153,0.0724388724949402,0.0636147650180404,-0.0593876218393781,-0.0216905184699101,-0.0406504611461006,-0.012063745604101,-0.0623525881254191,-0.0933057681413918,0.0833560735962192,-0.0052198824777097,-0.0426140631027919,-0.00870081551003579,0.0389275929945571,-0.0846915382148954,-0.0111816522758319,0.0763713205300222,0.174490360868418,-0.0712386936996228,-0.0207463886756021,0.110651893649749,-0.0034062670097058,0.035853386859611,0.0128400497136404,0.084041581428172,-0.0380984656794595,0.0655359051438232,0.0496960768014968,-0.0565916348517742,-0.0663317434609306,-0.0634743799495083,-0.0677809639255535,-0.0633545829682818,0.0153894703206168,-0.0463500814707014,-0.0545850499528065,-0.0345296577268161,-0.0271154166070806,-0.0713711727165606,0.118082701880638,-0.0632780608497444,-0.04935720285699,-0.0192067179498075,0.0385626803046395,0.0144393207359619,0.0872525814233599,-0.0108730868642961,0.0927756850136494,0.0837486585813886,-0.0427247809020353,0.0225114518008743,-0.0032489951229085,-0.0466724025083205,0.0935081949462844,0.0412911914692501,-0.0111648323291811,0.0315454969782395,0.0622093071166245,-0.0425844991884084,-0.0201884753082306,0.0229768286175555,0.0308952336956371,0.0175164114386045,-0.0413199002862311,-0.0023758971171885,0.0123869033365896,-0.0585022916310993,-0.0464553894723633,0.0811285511189663,0.00999404558930402,-0.0541018987705913,0.0225165974444007,0.0922727454985235,0.00778689204828928,-0.019235882377568,0.0163099428023662,0.040697299863466,-0.0277486949286969,-0.0376526541915745,-0.0450702205783,0.0568581337577956,0.0224569619395761,-0.0848799083080291,-0.00269671184112893,-0.0762109644902709,-0.0378181238100211,-0.0381012634303955,-0.0442978259815125,-0.0475116619507921,-0.0617109823199086,-0.0256602348436605,0.0279802603689736,0.0131148189179383,0.0730905336533188,0.032322041461023,-0.0584961486981327,0.00732062207741293,0.0672987516803222,0.045663503912491,-0.0151047691113302,0.00352745411242734,-0.0265996802778383,-0.0243677553080057,-0.0080909923121131,-0.00171382715948981,0.00657809267372467,0.0190525348385787,0.0073504462255215,0.0505310664089636,0.069749988739211,0.0103148781124997,-0.00275010089414167,-0.00757010674560656,-0.0177844605944642,-0.0243988553797222,-0.0261268694023054,0.00207787361083862,-0.0428773910460293,0.0518977199907655,0.0134184945042233,0.00883017905321099,0.018907625772876,-0.0143136749502155,-0.0181878939436023,-0.0312029742035882,-0.0179251965897704,-0.0146273741274453,0.0150277912320912,-0.00114560383927382,0.0136050819106012,0.0317667631011191,0.044486599208324,-0.0421375906013754,0.022593465861916,-0.0302666479045188,0.0370518092475317,-0.0279232317989401,-0.0162464961853529,0.0122624112810811,-0.00674318367140571,-0.00591066781852815,0.0201379285274827,0.00999673488436923,0.0151347334760533,0.00866424855072216,-0.0017878595993388,-0.0234199009513174,-0.00264930955064051,-0.012624174278562,0.019928164817925,0.0192038871266981,0.00426081859439167,-0.0153732134451115,-0.0256666023805589,-0.0142679335252364,-0.0256957465919745,0.0233308819587315,-0.0330004658532264,-0.0231377373738195,-0.0419957132866806,0.029956964882952,-0.011027989648363,-0.0368425407849286,-0.0263708359313082,0.0272931184780494,0.0300551582540128,0.0290011525102699,-0.00376644639864799,-0.0585712498700465,-0.0204476220369058,0.0618345804963624,0.0119558697861527,-0.0368146007079256,-0.0473140578200265,-0.229153317115134,0.064762065531018,-0.0497932004719408,0.0766242541754492,0.167493531202002,0.125249692955048,0.112944841381746,-0.125020218376822,-0.128612789542325,0.0542179213280434,0.0352223435765667,0.0927743820722832,-0.0277083995236881,-0.122344827349624,0.234944946004526,0.0434244889749954,0.0273689788287963,0.0940798602810822,-0.0580238179341172,0.0658591262267927,0.0527609668785166,-0.10637490312748,-0.185513771748619,-0.109151912050758,0.188097902966896,-0.0192371042953239,0.0932512095745205,-0.0953291107369264,-0.120074259144046,0.260069371336446,-0.238268742166571,-0.177292073026487,-0.175119906514368,-0.061133272589259,-0.080804263927541,-0.00552888535462576,-0.0892809358983208,0.102302981717512,-0.0416939202946918,-0.157453079373797,-0.165637404688927,-0.18715785879297,-0.00695980372546645,-0.158398753515709,-0.186209563208168,0.00241878676184456,0.0221573090230102,0.205573748067833,0.0651268964351963,0.000825487810742373,0.0183964329532125,0.160704422827523,0.228298996940256,-0.0545654341668367,0.00161038527371475,-0.199045510914592,0.132305585065945,0.0631358859212273,0.0541045243678167,0.0248987075626426,0.0061592429826132,0.0443300183047859,-0.0223030880116237,-0.00301871278410621,-0.0151361398867909,0.0149868822114518,-0.0231146651777777,0.0369727860901942,0.0349992088363779,-0.0262641662531628,0.013318508765336,0.0118079803422772,-0.014277250716175,-0.0121029099772437,-0.0114813401574652,0.012895041976859,-0.0166038566376693,0.00872319811469913,-0.0193999733664215,-0.0234189319462366,-0.0153615369089788,-0.0215093291732127,-0.000118648335879877,-0.00642230068965213,-0.00744378796900349,-0.0197536842549784,-0.0345582196275702,-0.0124283630421773,0.0121491654463687,-0.0129420769039943,-0.00128844363495283,-0.00645386179219669,-0.0326054882630114,-0.0208651583666613,-0.00621980719088711,0.00318856873934081,-0.0247455024140984,-0.0297068510842366,-0.0314328117174016,-0.0367668764632104,-0.00121270454437364,0.00813398489898201,-0.0253455011448118,0.0349406416491686,0.0285507238489654,0.0176177381580841,0.0265482643582042,-0.00417754167208161,-0.0189182650462569,-0.0132948480144077,-0.0353642016570942,-0.013570027743498,-0.0100967731526721,-0.0252222583834672,0.0243374008295375,-0.037365638450592,0.00639746431430629,0.0226316534052795,-0.0232988395037433,0.0313513050262672,-0.0185755810266168,-0.0251679445457215,-0.00704436480578338,-0.0283106011829807,-0.0042568046370821,-0.032115154787809,0.0211090549458092,-0.00992764707114912,-0.0204919272761453,-0.0225010345566422,-0.0349884741326461,-0.0157753193148388,0.0142231524432225,-0.0284877768831373,-0.0192834728603713,-0.0180273325447643,0.00959699314605364,0.0222206867824716,0.0216448314612447,-0.030167113036223,-0.0217912625508463,0.00327305933886164,0.000689431455098979,-0.0191810249887058,-0.0120021607257812,-0.00463145868853873,0.0144785132731582,-0.0308887085535597,-0.0331771902514952,0.0126368961904126,-0.0125851513419982,-0.0300713071965049,-0.00877095112323863,0.00995476186679447,0.0154257151393831,-0.0276356219922536,-0.0142987815597756,-0.0295367240134776,0.0150117946690361,0.00640844426639747,-0.00790154646643041,0.0115435809303874,0.0034173823847859,0.0157938481910041,0.0317102772486691,-0.0329563617987959,-0.0209103889783054,0.0190803658861474,0.015399546206485,0.0175324602723697,0.036343107287791,0.0121907855190797,-0.0220758284262955,-0.0315193751702226,-0.00975903169387648,-0.00350824766114899,0.0201370525491992,0.0104500790534617,-0.014903043550042,0.0266048068227251,-0.0302093922294902,-0.0291553232126686,-0.00268110505723637,0.0245486535347065,-0.0282066225646613,-0.0128725874246987,-0.00241095655563907,-0.0183325908644259,-0.0297563414100611,0.00648199488052452,-0.024418832948062,0.0372157997203912,0.00153576604201248,-0.0525767915098683,0.0658401554393128,0.0721629021686556,-0.0444013989959376,-0.0179380778181165,-0.0388773454116857,-0.0796731902154796,-0.0364234635383142,-0.0497442960367059,-0.00466903037676383,0.0190802034481737,0.0193894464256804,-0.0468070709742452,0.00733635523109685,-0.0312434460039145,-0.00453358258213006,0.0409384089774848,0.0918575600645782,0.0257202356774475,0.174211111455064,0.0613241384488869,-0.114869133697072,0.0227531621267551,-0.0141481130149093,-0.00850412627315277,-0.0675167469723761,-0.0256522802963313,0.0374264133487402,0.0511197202520286,0.00178148960864573,-0.00758076739707227,0.00545447613923043,-0.0133753509247182,0.039632185352436,-0.0374599229652656,-0.0440310478805876,0.0963808581614599,0.001189387811501,0.0277497689013385,-0.0442170464721473,0.0383213911467974,-0.0307431346170595,-0.0506406092277056,-0.0122199022261575,-0.0512785622255697,0.0675571096953387,-0.0371207871612285,0.00949161102792272,0.0803003041880882,-0.0697642569143046,-0.0702018564341848,-0.0261312089235938,-0.032808768598017,0.0450265530828518,0.104532052033332,-0.031638764997477,-0.0869197304320712,-0.0511503478796961,0.0398214606003901,0.0414690109377447,-0.0397676645556996,-0.0407415668315654,-0.039249976835928,0.0905797319160666,0.00412555966374856,0.0362342388719515,-0.0859082490101933,0.055571012636657,0.0184169643928665,0.0143128744547827,0.158094025326818,0.0694284095098617,0.0252640777963371,0.0707177963643591,0.0163523473795447,-0.00421587357998547,0.00429952660897427,0.103100223554351,-0.0263133603666304,-0.0422182177057987,0.0810174403775103,-0.0867033526793497,-0.036001516997913,0.0054545339789476,-0.0620681565362327,-0.0021543250271765,0.0892299501372415,-0.0534541577909277,-0.0265576791825702,-0.00154143334956902,0.0256439553629895,0.0817609248948501,-0.0204142841887284,0.0639733431630718,0.0718706181625132,0.0518240043743778,-0.0520029082449661,-0.146492952416487,0.0392313952711774,0.077797513919975,-0.00553754783121221,-0.0420421275328767,-0.0918016310891766,-0.0177483144856303,-0.0196918720252608,-0.0365182738772442,-0.0935283078690913,-0.0446988845950006,0.0733406109708888,-0.071168585223861,0.00399102526398927,-0.063655410756306,-0.060761451704682,-0.0783175608928626,-0.0733633105914559,0.0191692143184124,-0.0429492456788933,-0.0834194907878258,-0.0357160155285743,-0.0984067588877484,0.0606899119902578,-0.0185002685474782,-0.0226004558302072,-0.0157379460697779,-0.12224143913397,-0.0336742677281393,0.052872068679019,0.0311717743693406,-0.0368083224852198,0.00553259170568762,-0.00607274924517999,-0.0173810504379435,0.0158492929296796,-0.00883451925306736,-0.0275018390043339,-0.000691867204792963,0.0310089394787777,-0.0421414466651193,-0.00372469348082776,-0.0208174207589131,-0.0151297988121473,0.0185359280269891,0.00728420142439856,0.00378252988769627,0.00640453464330856,0.0127238550574296,0.00916186020925304,0.0161370772055884,0.0414777893069424,-0.0202472719473477,-0.00516525575138215,0.00281546689103565,-0.0231676654331508,-0.0356268361030526,-0.0115753384385435,-0.00809002548639937,-0.0374658173751684,0.0269850450461371,0.0117198070154604,0.00870184027466528,0.0145416895141873,0.0511387665828725,-0.0317915762114221,8.89790759502648E-05,-0.0336999890990871,0.0137883636377414,0.00302808049962637,0.0287728896897527,0.0278072333312804,-0.00326795056597655,0.00157809864762558,0.015951064941038,-0.00491798197707111,-0.0398401121096177,-0.00699055008313203,0.0107422876184915,0.0280151081516114,-0.0306944435972194,-0.0123905367199773,-0.0316723259375489,0.0400963912643683,0.0662212485413036,-0.00896835807262009,-0.0119435019441509,-0.00755931504087133,0.00900312817169392,-0.0145306174334847,-0.015572064000985,-0.0168438733688132,-0.008494067401502,-0.0237068432986208,-0.00856494224913709,-0.0319104243349538,0.0125970404426634,0.0198471261436095,0.0120353933222437,-0.0350142046095899,0.0325597560470985,0.00277898743651158,-0.0272911647140245,0.0053805767326829,-0.00615845803699388,-0.0189356654270372,-0.00410191368191701,-0.0131191715265861,-0.021013341769436,0.0326396154273549,-0.019340458617191,0.00194328584783082,0.00531673790210461,-0.00564865389957603,-0.0217329009847648,0.0340678845207236,-0.0324364632733496,-0.0121654568513658,0.0408478952078114,-0.0330639374853114,0.00185866705355764,-0.0256656338953033,0.0324444974013747,0.0203764792474011,-0.0347408379803428,-0.0182271766733419,-0.00936614829598519,0.00594273570570754,0.00171302441019268,0.0113599451614578,-0.00640057042570915,0.0150652077952083,-0.0329689854553776,0.019131561243753,-0.0175723719571045,-0.0349225478837152,0.00807444557690074,0.0118018692536428,-0.0143801273754555,-0.0175942118387534,0.0115550116896069,0.0151878502407309,-0.00352391852078378,-0.0214076900636983,-0.0224600959657576,0.0182248534718618,0.0132515691595008,0.00849771236025068,-0.0229770632643529,0.00108295926620496,0.0130746860061861,-0.0279070169098886,0.0015102491231688,0.0277993819922723,0.0283756585565808,-0.0243822078185702,0.0165228738183016,0.0240032649157728,0.0151574995282061,-0.00163541230765438,-0.00207150162239288,-0.0293955350667027,-0.0155707385111002,-0.036848705050946,-0.037513956612779,-0.0258221874823505,0.0299760079319808,0.027919817958404,0.0205484384418274,-0.0334065991851946,-0.0166757675467538,-0.0160151715713177,0.010479027748844,0.00166866151687489,-0.0194903605354167,0.0119656626968783,-0.00441214914312826,0.0320462405035385,0.0214599444927865,0.00681348424981086,-0.0201517846070542,-0.0236780836118904,-0.018097230262868,-0.0335754313833172,0.0040401476557315,0.0266967796045572,-0.00716151898496895,-0.02804761760297,0.00648772916809232,-0.0371981183360139,0.0224821904957179,-0.016054256359012,-0.026678378691583,0.0235869680520635,0.0249427315373567,-0.0181864233424509,0.00306302763337098,-0.00329317211638827,0.0329562815778466,-0.0167860346877264,-0.0244934020303784,-0.0123443058555551,-0.032823879456215,0.0202266567066482,-0.011710424737452,0.0188230431647972,0.00435766635576689,-0.0230206918965487,-0.0341829602352016,0.00483948009999378,-0.0273718592491968,-0.0178646587257078,0.00353640199257191,0.0159006917806095,-0.0217185909813882,-0.0187500465643735,0.0312510037779784,0.00148066596032843,-0.0250016839222974,-0.0281594731873823,0.0228303978591521,-0.000326569274940297,0.00923193126285709,0.0103461580360094,0.0246838457117703,-0.00882170701715971,-0.0242064702419859,-0.0325590885713204,0.00969183696586559,0.0108041834108265,-0.0150700443159778,-0.0321552070905595,0.0153225649381993,-0.0309307015152502,0.0062306783373797,0.0205421899516567,-0.0137301513794463,0.0178069189628416,-0.0144609082083004,-0.033300109134265,-0.00738504599768868,-0.00476554088387465,-0.0348508607718675,-0.017508403715937,0.0174918265655863,0.0101757310892113,-0.0227948052337165,0.0181148907106378,-0.0156274779536186,0.0160173202616331,-0.00342675971296567,-0.019930842621268,-0.00243632512379133,-0.0216311985648127,0.00704898643413617,0.0313561398801218,0.0304412433744623,-0.0294430871088819,0.0120747133783404,0.0167002123598758,-0.0313582558849801,-0.0122467809467617,-0.012902010430545,-0.00926632246534254,-0.0372125951236196,0.0040670945080424,-0.0135669827638164,0.00558557131272928,0.000924267484969048,0.0183914941363565,-0.0305246078388494,0.0363913996276609,0.0314315710961212,0.0121796450050838,-0.0318688478522243,0.0342457182450344,0.025287989601282,0.0262673918072756,-0.00953108711740714,-0.00700124403919459,0.0187849994847627,0.0198521975751989,0.00132400243298902,0.0229935072580175,0.144303515570191,-0.0313673584221305,-0.0294950281337278,0.0130585924151089,0.056151904429141,-0.0151544286256144,-0.0247633837705735,-0.0498674711462144,0.103596192283181,0.00157249294981618,0.0271569088379339,0.00876797520031769,0.106479925039235,-0.0671431726540553,-0.0337961315142051,0.0252498233272115,-0.0436729565497991,-0.0679959796671511,0.0746765646821042,-0.0603729393795992,-0.0737411890365646,0.000257048341651504,-0.0285053599424739,0.0443223807301063,0.123055769530274,0.0380276731765943,-0.100691781262401,0.0512526535918435,-0.0334035715938559,-0.0740062621919679,-0.0538333160868723,0.0133114809801739,-0.00366450687351213,-0.0431581452815212,-0.111506560163873,0.0715910866668037,0.0448151238762285,-0.144285414367221,-0.0425035624063033,-0.0359336863694015,-0.106877855670902,0.00666698243093025,-0.0446262093244084,-0.0584980185863168,-0.0599868505822115,-0.0300871474691465,-0.0617774984472127,-0.0386413841979146,0.0826307087659886,-0.015983688454518,-0.0533897413328191,-0.14421214467291,0.160316773839836,0.186139512186983,-0.0457334644022333,0.0696151624011985,-0.0452541839176377,-0.0852316627995672,-0.0601140147453057,0.0826732280185679,0.0538125154816847,-0.0361923905008488,0.0147555415963701,0.178132399806394,-0.0693880773850605,0.156287820486679,0.0101921280342742,-0.00913428712476817,-0.0702228206701167,0.0224066963553719,0.0826532485170009,-0.0335514857118387,0.11891254257217,0.179394354277258,0.186439203474117,0.0297919827525496,-0.068089941485396,0.126968917209451,0.00257210296339406,-0.0897251911164865,-0.105165108322589,0.0418615823349159,-0.0999575671753542,0.00239180796055446,-0.0957538858648909,-0.0789212046509103,-0.130966545107244,-0.0403236277389482,-0.116799545940545,-0.034634532218411,0.0274566370982497,0.00728220070432959,0.0109254272289848,0.102054332495408,-0.0342118335443317,0.0145337183258792,-0.00702615114672037,0.0390970904262202,-0.0200346082607376,-0.0184073347736228,-0.134898677723681,-0.0393134715617516,-0.0847478510217785,0.153817526992724,-0.0533513320676293,-0.0909846365161287,0.0592698317481057,-0.0740717631423713,0.0567921383842454,0.00520026473747881,0.10577682601568,0.00644329838907649,-0.0698581333746305,0.0218491370455628,0.109513016371631,-0.0907478790583044,0.0448090027672032,-0.036370904664551,-0.00248290344526861,-0.0704293195144014,-0.0118546383938229,-0.0953308992381689,-0.0406861294804618,-0.093318625096631,0.0219394998792951,-0.0347459523178949,0.012447859980504,0.049301543048072,-0.0363051148072963,0.00698007661659166,0.0321956916264438,-0.0188394726216904,-0.0366507475879312,0.0185513707124903,-0.00521222022465445,-0.0234087218853422,-0.0132221281517338,-0.0255845928866558,-0.00657789248742786,-0.0035196247926728,0.0134182540756507,-0.0281670595015021,-0.00775960203809988,-0.0321509296228803,0.0219725621501459,-0.00562724323657448,0.0435724089532312,-0.0257320474320204,0.000180058912714588,0.000697946967406855,0.0120461915938759,0.00613260049893187,-0.0349997820108527,-0.0135435187140044,-0.0216163548639499,-0.0144330054686845,-0.00749099905515615,-0.00821225199496775,-0.0304859827218306,-0.0157102088333229,0.0115081749516482,-0.0305384501276096,0.01729689984289,-0.0025504212152253,0.0176458322740644,-0.0159840402127339,0.0360878648202649,-0.0151938616253624,0.00834312705466617,0.0128183864054516,0.0163061720169403,-0.0243535661923539,-0.00223099587542546,-0.0246901207968037,-0.023148966820079,0.00388619469195224,0.000718066636621722,-0.0193957983833171,0.0339856068735515,-0.00299873991597856,-0.041735345856915,-0.0220491570354662,0.0318969619524803,0.0430948660784726,-0.0289669934076852,0.0153165918014066,-0.0189342715240168,-0.00593196550681687,0.013985845840776,0.00913059005455576,-0.0106909142519847,-0.0208609511592618,-0.0229009221799892,0.0146619745198947,0.00447631209385287,0.023306560576899,-0.0291831674024868,0.0072312310647878,-0.00934877804933416,-0.0180816269657903,-0.0213128510484485,0.00693470283792039,-0.0116690810249386,0.0150641138900788,-0.0213734551617959,-0.00992610562822268,-0.0298618990663993,0.0100693878430057,-0.00112565855469939,0.0224850614360594,-0.018661258256047,0.013277511368856,0.0347858953719852,-0.0327699809607828,0.0211809987964622,-0.0130240791625712,-0.0282526258186411,-0.0156381004993787,0.0245677804327669,-0.00791681155493986,-0.0101719375960316,-0.0100880094904037,0.0169231354336067,0.0206552132876893,-0.00513057927231195,-0.00144231979641779,0.017854159537621,0.000478550688889671,0.0195917220104121,0.0136172355667573,0.00941553761822198,-0.0157795228914341,-0.0301028838818582,0.0351831390254543,-0.0120467836847682,-0.0388882454305704,-0.00812564480620051,0.00747611283680886,-0.040161667765664,-0.0284473553441826,0.000822346764799399,-0.0308795787680596,-0.000544347693314698,0.0434858458376582,-0.0209322559480357,-0.0281007021823161,-0.00481358364294919,0.0305019202227449,0.00407366057010957,0.0298327487873551,0.0125487049724966,-0.0390821475071923,-0.00425620457666836,-0.0124447926302691,0.0115845512724373,0.0244035547201519,-0.116123307263837,-0.103725123689118,-0.0718321036984504,0.0842354596671768,0.0925866520663897,0.19995279528231,-0.0846192412699082,-0.153258005751624,-0.0052720649001156,0.0217258826685695,-0.120163756939467,-0.0262903008363545,-0.0651119033656345,-0.0226900046325442,0.122545864009519,0.121938239373428,-0.130508439440455,0.00410454340186126,0.127238435128149,-0.178992230876573,-0.0137719262239248,0.159400616459488,0.0378097376183325,-0.0388168762161999,-0.119988343461793,-0.103132464576697,0.120902216840322,-0.0185359554152344,0.0259277376432919,-0.0878828140905983,0.0664407416146708,0.0506541622572278,0.0386426080458612,-0.0910306881774392,-0.0331720766755507,0.0750285187322359,0.0466027337296263,-0.0700926809383009,0.0230802374137279,0.106524112190898,-0.0339897441456605,0.00372412962119123,-0.0239114923463564,-0.0593329958065586,0.0105016108390021,-0.0981449812299759,-0.0631918572068984,-0.0778929204354385,0.0144791634453303,-0.0586457376266087,0.0191674435006166,0.0973204409595245,0.0875911717008818,0.0448566040671751,0.00591646813815461,0.0783131969779526,0.0840081169524309,-0.0744260666231993,-0.129931088435796,-0.0568222349548944,-0.000300516863911513,0.0107681822593963,-0.00644934061749792,0.0247637486382898,0.0221815829415764,-0.00514815071691422,-0.0224093897270792,-0.0439304976433941,-0.0526421099947634,0.0111582868698562,-0.000707238889334274,-0.0374550903944105,0.00216086358230513,-0.0270999796597452,-0.00610049386762553,-0.00529254165332786,-0.0532865067833924,0.0259585235476864,-0.0086753208852274,0.016049529772028,-0.0338957848913391,-0.0113065936293631,0.031463513856191,-0.0380984356179508,0.000258476271416265,0.0440440011859211,-0.0365684952443324,0.0168034088958434,0.0342340262002611,-0.0267050124669459,-0.00263296447556071,-0.0103557994987748,-0.0272076878692418,-0.014904977485639,-0.0372813626030565,-0.0203848975570232,-0.018470861048297,-0.00309434823454989,-0.0277148075214793,-0.0271609801420164,0.0254316991427622,-0.0239154220708431,-0.0133442510991351,0.00657201390212674,0.0413564558683953,0.0279963089886813,0.0229670341038005,0.019355724834578,-0.0425028428597269,-0.00430974321320884,-0.00054791682975911,0.0455969409664344,0.0147092864717011,0.0359392663198291,-0.0153435507717969,-0.00800877618510236,-0.0363247658947556,-0.00420463052898187,9.49425114476331E-05,0.0315961066991055,0.04717727098228,0.0453728232379092,0.0197405660158573,0.0129088376989033,0.00769638321528148,0.0214694496916866,-0.0357220714991019,-0.0248253745211338,-0.0107700957470328,-0.0156769349814431,-0.016862454790241,-0.0386651061480314,-0.0240704473314072,-0.0105289578106095,0.0207328722192442,0.0351929826256646,-0.0132278672892452,-0.0283533891493945,0.00138308855582527,0.0302543399850375,0.0170256830271437,-0.00346862939392965,0.0129195152929438,-0.0150548925249685,0.0379634210020544,-0.0123143120344032,-0.00957023133535278,-0.0180386865388444,0.0226029133543447,-0.00913325780515998,-0.0290773540257801,0.0301933832181909,-0.0133144876247039,-0.0269647996681596,0.0205238286600588,-0.0255467405970199,-0.0323382352915687,-0.0326021330651429,0.00403939878285538,-0.000716628773453117,0.0256299252829438,0.00184477257021093,-0.0327476574984634,0.0242807567363788,0.0061707472497313,-0.0129878778284615,0.0218556847216131,-0.0221370377631151,-0.0239158622611876,0.024794097271044,0.026389562662502,-0.00697653840131525,-0.0225935285499758,0.026759101891278,0.025986028319688,0.0219544593590117,-0.014448092507799,-0.0112450453519852,-0.00144652483940333,-0.0234149559198474,-0.0225490096591351,-0.0242631703461578,0.0346045077199635,0.0255446952123507,0.00988000957379409,-0.0216146353237491,-0.0320402133471521,0.0227899136571874,-0.0283644274478719,0.0169901862794055,-0.0160921114144608,0.0172690487861555,0.0383986538298333,-0.0303292586995712,-0.0156971745879085,0.0409327921734239,-0.00530376789923044,0.00454893380471209,0.0182523130564965,0.0296621834412326,0.0145416652154747,0.0035469586475014,-0.0276003664951838,-0.0333298384657427,-0.0340072332731655,0.00728790274524139,0.0431230798704585,0.007269389196203,-0.0161989766805977,-0.0022144559594673,-0.0046241561742867,-0.0115063670724606,0.0306837428006604,-0.02560232325509,-0.0167267168535026,-0.0129192286025668,0.00417572261247527,0.0136224110998841,-0.0382500766104179,-0.00703523786668641,0.00547444448750471,0.0098514898451073,-0.03705540285898,-0.0275395196171305,-0.0368532506004371,-0.0311604217871883,-0.00873935668745656,0.0245878692709727,0.0381900494748037,0.0419343696413114,-0.00435294398304389,-0.0232758599747625,-0.0299650984752049,0.0104138832370123,0.0278590090855847,-0.0303296087056645,0.00178261443920457,-0.0135357513079557,-0.0146614464192532,-0.0329899311754137,0.0213036805687668,-0.0361907373199149,-0.0315889504855071,0.0203941379752237,-0.0288890045687564,0.0288940069052838,-0.0193669301357333,-0.0297155063542101,0.0375816051905607,-0.0141787206847502,0.0049808527526845,-0.034861455311535,-0.00516278135233872,-0.0134130578571328,0.00710335822856024,0.0536031481759108,0.0983561146423695,-0.0564665633510495,0.060336194068744,0.157150908906113,-0.128738163343703,-0.0167717098144558,-0.0522288905687126,-0.000526622745203286,0.186104504938218,-0.0286719614166031,0.137963045499223,0.0148484251180057,-0.0422880477574051,-0.0820068202369282,-0.112208384460431,0.133391480188032,0.0328497802633168,-0.0123879773765996,0.141060072395408,0.136787920701915,0.000749977883849852,-0.0965609627468039,0.0163934691193243,0.00584466531558422,0.0118863735444522,0.0262749219933751,-0.0777385222416166,-0.0683555242702963,0.0383938679496093,-0.0693044731146558,0.0167175832573004,0.0818952592053132,-0.163832558487143,-0.104185440342636,-0.0407156187146775,0.0609936875636115,-0.0380638123365404,-0.108621775065907,0.0470520205143551,0.110736947106132,-0.0297111556980731,-0.113597472620036,-0.0677902666635783,-0.0616641926413427,0.100540998754626,0.0116150155085322,0.0457125737719301,-0.0464234869103363,-0.0446053712138249,0.0786159110652155,-0.114469996187193,-0.0307164380378016,0.0549819601449257,0.0425308835315268,8.6912657022796E-05,-0.00519940905108022,-0.0219412149454465,0.0117116462417314,-0.17783241557086,0.0218681814588291,-0.0463149748201498,-0.119528696104469,-0.141321986057369,-0.0829321916998341,-0.0121924280130197,-0.0178524049466951,0.00250173567046989,0.00426193493964167,0.0206628972490934,-0.00240568743826679,-0.0190428959981469,-0.0113087186561819,-0.0293390688300344,0.0226290959759581,-0.0223561490912038,-0.0302321588424269,-0.0356609220208002,-0.0285166421397464,0.0177243344374104,-0.000422733402693052,0.022814106658048,-0.0241313155469335,-0.0267077559535819,0.0217732412394682,0.0334302107874833,-0.00168013355146021,0.0102261333018726,0.0314580499579166,-0.0215388039492031,0.0204818172156559,-0.0253233064393801,-0.00308421992309394,0.0265684236365467,-0.00617748297995544,-0.0138704033941573,0.0266486524153162,0.0181690684579193,0.0423973632837583,0.0351367707352923,-0.0168478520237144,-0.00294509825192364,0.00818021436716092,0.0245169983023932,-0.0151244973130165,-0.00863698664477027,0.0177473159990824,-0.030560316366166,0.019883522602776,-0.0138821078649103,-0.00729964584470808,-0.0251894823178431,-0.0341155927318416,0.0137599255388828,0.024203989411609,-0.0146709938855211,-0.0197856970693727,-0.0179478116980931,0.0123356897803662,-0.0288558178280219,-0.028692397911036,0.0308597980913998,-0.0017288893282127,0.0379485634153368,0.0118196491896373,0.0216140710741965,0.00887301092084893,0.00945285375709955,0.00657335978806325,-0.123188245143741,-0.104689707228581,0.118054751828553,-0.0423276960870574,-0.0873938452029523,0.0481248532752571,0.0810513992179707,-0.0824359630537318,0.0535731849995656,-0.0685137451934093,0.0671226446739591,-0.0615977912747984,0.0240219556128776,0.114377719688996,0.122558232754068,-0.0623774105286274,0.0493152191012703,-0.0185911105927558,0.0129266837742222,-0.111618039628123,0.0604200838783498,-0.0174844324147213,-0.0276010775964629,-0.01151021985852,-0.0517359482324472,-0.0720352325116676,0.00516163895789224,0.00140120753489261,-0.165564687067955,-0.0350787242930824,-0.0054232785202294,0.0262664386467557,-0.0949385499538989,0.113243262315029,-0.113185608766396,0.0275640599621816,-0.0281701328762698,0.0634626480796508,-0.000301373430803065,-0.0632156158571836,-0.00778682407168818,0.0518834409574665,-0.0346281708223504,-0.0263537667191077,-0.0400630498327241,0.0996385948355759,0.0389795551391314,-0.0139327318624205,-0.165676283658817,0.0174028035821449,0.120439887338196,0.0219764592852198,0.00787341399840555,-0.056108553042991,0.0319080172509228,-0.0590362745958593,-0.102472478882527,0.07207218423292,0.0237699348073593,-0.00187462806254575,0.0559586719274303,0.14358028955087,0.0560391519181563,-0.054008328734163,0.168383222400861,0.0662140424243652,0.0333244758616894,0.121547235099482,-0.00288119832270657,-0.0317965538470927,-0.0176254571955647,0.051965976789422,0.0759353937667167,0.027132701139498,-0.0962790783725959,-0.100675507528985,0.248770715624715,-0.094551481477818,-0.260544588422947,-0.0905219567335893,-0.139022050628811,0.263298593379505,-0.105788241112795,-0.0150371283408502,-0.127938793732499,-0.176535360671493,0.00224186764419076,-0.0143481546140468,0.13731248865253,0.180373940588279,-0.00517869353607503,0.197926628935695,-0.130300329434725,-0.186705756385597,-0.000173573839785111,-0.143002644288656,0.0839319954081834,-0.126502299531097,-0.023473689284428,-0.0240146748618709,-0.117727527308776,-0.108693015410671,0.111531153267719,-0.0875555377978441,0.153441889725767,0.0631931164629236,0.222101275986805,0.000572015615987043,-0.181878499883138,-0.0419313775138206,-0.0946087439958375,-0.170263225602586,0.0256608311437119,-0.0688214565840774,0.0425570582611977,0.127596480900247,-0.0169726197271365,-0.0527994225431413,-0.12038308035285,-0.160887809704842,-0.152155154365931,0.0113875716114352,0.0304057550929027,0.0355340593844592,0.0728418828233422,0.0844967490775057,0.00657461057152742,0.0529732248473452,0.00416529416744284,-0.013600186166332,0.0193658808246268,0.00905196903385401,0.0152987331009885,-0.00516958035856447,0.0156075325683622,0.0130365875732362,-0.0065429789848502,-0.0149394419945046,0.00925393995196549,0.0231401031203189,0.0137004248432166,-0.00552983936522945,-0.0276524647331767,-0.0245155666772328,-0.031692619650901,0.00303251504899451,-0.0413317752511051,-0.0128786383419301,0.0111247624042963,-0.0325717025957092,-0.0303934697600879,-0.0175804624884412,-0.0229993712654752,0.0158829431607999,0.0290008166221062,0.00280195047169307,-0.00579107663537824,0.0490974433477667,-0.0254681646368924,0.0267342317248073,-0.0386228368442613,-0.00989978408359884,0.0180823137304104,-0.0262770763283606,-0.0294553330713456,0.0160728442573429,0.00721067195962171,0.0110465624533929,0.0249751297246581,-0.00179959245379528,-0.0115628154443172,-0.0140367188495749,-0.0148188129763082,0.0237469149675832,-0.0207655387632976,-0.0325191928661493,-0.0367551484544004,0.0205708568811088,-0.0054847668658691,0.0160159717249904,-0.00263308521247233,0.000179184158923896,0.0433042142348268,-0.0098015718454643,-0.0142619711197025,0.00568009193031004,-0.0351443377411568,-0.0221293492016747,0.0238185410122219,0.0160003132919452,-0.0169236535030212,-0.00202872873890767,-0.0233607991803655,0.033036713275368,-0.036049580493021,0.0223689802694311,0.00689332785612143,-0.0230254397449023,0.00950923636303632,-0.0212716282203223,-0.00911763044518502,0.0135407288430321,-0.0112092721616982,0.0286596912644946,-0.0232019854740932,-0.00817916902573336,0.0161047342070606,0.0115377167220815,0.020145944126815,-0.0127216524797104,0.000202126050333633,-0.0162544826703359,-0.00860138712943873,0.0139202509227469,0.0222162324638738,-0.00816045320592716,0.00199555742463377,-0.0157378727325479,-0.0106414731182985,0.0205833637161858,-0.00124113912652849,0.0150048678576658,-0.0349061142995259,-0.0289655522116624,0.0383073576617457,-0.0186296385137174,-0.00256717541914142,0.0118654279358968,-0.0238965412051059,-0.0141426474263932,0.00518291553876044,-0.0109233346865025,-0.0120841840648303,-0.00352431587394691,0.027324472600648,-0.0340169883403332,-2.71512014034646E-05,0.0124307303066812,-0.0131105752515487,0.0397165210359423,-0.0251920679761782,-0.0125696185118273,-0.0189717658027292,-0.0317694222668102,-0.0177504174367037,-0.0133082954622166,0.0297279343813021,-0.00649527847493034,0.00132893432476311,0.0113098846961703,0.0138602927599214,-0.0295099580282454,0.0281538855173321,-0.000244596395064635,-0.0253306851317067,0.0235793113638939,-0.0344352776837865,0.0020790770409751,-0.0230502921271512,-0.028786259967406,-0.0269577471473494,-0.00614766803756533,-0.0257358241005663,-0.0398646807413366,0.0408920185224545,0.0222141469524345,0.0116431593359856,-0.0141803918400514,0.0195979723442458,0.022174799242315,0.00776804430170973,-0.00778444390984102,-0.00888097253355428,0.0248026022488074,0.0110813275408796,0.00604973400335503,-0.0279707273330267,0.0153172597103411,-0.0244870415355872,0.0219281753202092,-0.00993982362795654,-0.00598253510784838,-0.032007182079179,0.00624091077657018,-0.00986735213142822,-0.0249694380210102,-0.0299519634243188,0.0226515956447948,-0.0226711781794746,0.0212730357098388,0.0285932204439964,0.00370470443604356,0.00152517862293242,0.0236313396664181,0.0333743541413049,-0.0241293713496349,-0.0242192661103732,-0.00174393588276402,-0.0151087356616218,-0.0151312932398095,-0.0239312310050971,-0.00883346608935211,-0.0354302108041389,-0.0284218484523561,-0.0197058230335604,0.0274464567887968,0.0222628331222117,0.0231021418734261,-0.00239315471362086,-0.0167273850154764,0.0393857962423708,-0.0344306072171234,0.0161396729267764,0.0011207128326037,-0.0209527348671528,-0.00159562558212914,0.014957807830503,0.032924776107192,-0.0356166293498873,-0.0001596398435442,-0.0297682990904329,-0.032283660128578,-0.0415439791268395,-0.00478945368665785,-0.0019419328594526,0.0051012360060567,0.0240930741377811,0.0122126493267532,0.00462085563723671,0.000734806932346545,0.0103541669539208,0.0321290625025709,-0.00214894645074267,0.0287993463423058,0.0104681764540978,-0.0279780411459141,-0.0291989230942848,0.0221491010633699,0.0324568790643514,-0.0325584186372056,0.00432467117139783,0.0277597761116234,-0.0296923489219548,0.0234770127285084,0.0315728350291744,0.015929569497736,0.0188636090847432,-0.00226894291378233,0.00593407914217185,-0.0301804249408406,0.00285620448089032,-0.00226700074303986,-0.027999415652925,0.0230744397707546,-0.0274062683298585,-0.036812432360645,0.00566884257286945,0.0295717874301618,0.00364393241923424,-0.0037065747418152,-0.0011099444650645,-0.0165958678792214,-0.0185927794559364,0.00820123315194454,0.0339661581145055,0.0268240626360626,-0.0316884987923974,0.000598356768891319,-0.0336069115249057,-0.00563700666236636,-0.0023710510703682,-0.00773388647629392,-0.0128228087906816,-0.02276522414563,0.0063883389517787,0.0248335518026721,0.0335496033170374,0.0166220190759209,-0.0206919165200142,-0.0153739439599913,-0.0222677127709256,-0.00355783666260701,0.0148829350633211,0.0374657319838788,-0.119606116696978,-0.173289961807533,0.0306828568070545,-0.0692490745176992,-0.124366460956077,0.128799385903548,0.0387656733637957,-0.0475328688336579,0.0302553471331646,-0.161236715488211,-0.180306705757865,-0.223227657663866,-0.0968569792482318,-0.0464022193626497,0.0613175620508851,0.060952368424637,-0.0618239432237062,0.251635140038141,-0.0089544437764836,0.0159829748737754,0.165554641077374,0.0244497465643116,-0.246236744730453,0.128333669731247,-0.0449154622976062,0.139758220777337,-0.0391804999303622,0.13707724656098,-0.135508572996671,0.00453021953893378,-0.197193209320789,0.0852368334432089,-0.0294264531416691,0.0285343057845689,0.334184470919237,0.223442804028514,-0.160716153870674,-0.101184239156511,-0.048368634339942,-0.156227586091935,0.0741602682909625,0.0690757992450089,0.0573211334375583,-0.0508210391485151,0.108464432352421,0.259848092473826,0.278872253630427,-0.0893981481752956,0.194264555585672,-0.00755988615421558,0.100805073661726,-0.116214320695617,-0.0510710580521301,-0.151561347833242,-0.169162753990188,0.00607360286450901,0.202421519838218,-0.0551273088633101,0.230603686892582,-0.0196231105648315,-0.0150820005972031,-0.0412201992346953,-0.0915051848513306,0.182464140023372,-0.110922205168831,-0.0537794196591723,-0.0467723110321059,-0.0962527713207483,-0.154035218822106,-0.070129475474312,0.00425048547476978,0.0899958734826635,0.0219295074705154,-0.0275815027267704,-0.142582059726853,-0.103968008958842,-0.00523121783235975,0.0469985869509544,0.00216582463505447,0.0123934319114477,0.10079966870298,0.0574212810756942,0.0773974371336639,0.137294105526642,-0.0274512088401259,-0.00257908288197707,-0.0754781266084316,-0.0547142121247329,-0.10096827824187,-0.00978881940929162,-0.068830644813405,-0.0579828641701115,-0.0152484500661441,-0.0554619100290056,-0.0617584014962472,-0.0237602734967261,0.0139018471196093,-0.000267720782615647,-0.0917501842746479,0.0979475263261821,0.00512059901055444,-0.028849831746941,-0.170915846764118,0.119745514294684,0.196118270077938,-0.0867542938276463,0.129302186754971,0.0224773429835817,0.0192369836436745,0.100446459995731,-0.094366361157225,0.0386387763887686,0.0721290367128069,0.0828962149207142,-0.000987559327230809,0.0862942280960572,0.0563371935523759,-0.0285028398781109,0.0953256700985341,-0.0546822505389138,-0.0596084619156145,-0.0276474696050899,0.0289866276146601,0.0137625812858632,0.042839569870578,0.0992639639246343,0.0107371124027872,-0.0862611185010555,-0.00465484141205716,0.0142165595261535,-0.0333274090007908,-0.000209928155407676,0.0210557431538606,0.0369844408314132,0.00960835924870141,-0.000615972778653198,0.010704732299927,-0.00740852146662429,-0.0125320703081733,-0.00354279624216549,0.00582191984314879,-0.0311519739752606,0.0428607529014017,-0.0151213843392561,-0.0270693888008132,-0.0290970261537591,-0.0141071314375816,0.0119673277216844,-0.0256058149473485,-0.00171579453079137,0.0298697559453814,-0.0190402865819172,-0.0326466638685093,0.024620434093901,-0.0205637309269703,0.0167501920962662,0.0154608499424953,0.0149706442397652,0.033933798511466,-0.00712033638958606,0.00478524492834124,0.0343687539257301,-0.027225043916583,-0.00829961088984268,0.014653177954416,-0.0336827950259998,0.0457975887484455,0.0259585561450411,-0.031544567177184,0.0266361141408164,-0.0142562351784585,0.0353113322092462,0.00937879375258918,-0.0127901936961842,-0.0354412880204161,-0.0187493032856399,0.0283274496162753,0.0122764417744708,-0.0240665315259151,-0.000950716238199879,-0.0284960638741511,-0.02041738321984,-0.015446170978133,0.0022509889200061,-0.031513488018046,-0.00936001691918033,0.0352272451898362,-0.0153832259758139,0.0222805696999103,-0.0123080167784884,-0.00447798948577739,0.0269560760796739,-0.0170395909971654,0.0502161675794785,-0.0136358907732989,-0.0365622893374133,-0.0120454035857956,-0.0531344793804278,-0.0117093123795225,0.0835036955893692,-0.0526653434571825,-0.0378212371017404,0.0603824685306085,0.00947366354498037,-0.0185163355430436,-0.0498563269649693,0.0102394040532647,-0.064803636682496,0.00425339593846808,0.0449654989457083,-0.0483036344050708,-0.00497544684058195,-0.00453799210260652,-0.0559686368594888,-0.0556305665871935,-0.0876335550238373,0.0509142749901867,0.0367579001004631,-0.0587564979840348,-0.0329905093768099,-0.0473325399857011,0.136527160526157,-0.0245540350357741,0.0302820180397973,-0.00218844861456571,0.026534622985201,0.0503244031600695,-0.00237170391871411,-0.00164025093652224,-0.0393121391333147,0.0445524623017167,-0.0139270467471829,0.041994152051486,0.00216928683283378,0.0212090725300608,0.131629318282386,0.0519780203122577,0.023897790324126,0.0132440608043282,-0.00288339768189611,-0.0630739299575105,-0.0462406607353551,-0.0285056573909309,0.0665013456489035,-0.0838248938913471,-0.0641988531855796,-0.0408048556328174,-0.0442310252182066,0.0407907104824068,-0.0279247232026237,-0.0523836173930649,-0.00243614770122314,0.0406707912354792,0.000128656207833384,0.0534614908823502,-0.061664160935348,-0.0109419772474579,-0.0380485692648765,-0.0246820492673609,-0.00737921979372436,0.0905952427660986,0.0168235340140504,-0.0190951160491266,-0.0214154895248124,-0.0497211855599803,-0.0362057181846103,-0.0331456981803285,0.0655072041667037,-0.0685219247321984,0.0215360056495845,0.00171624743520252,-0.130661697662013,-0.0759446099479571,-0.0368164902282052,-0.0809679605640749,0.00806819049875644,-0.0217239050217553,0.10191342822352,0.034694546163,0.0735458110114066,-0.00828762555850351,-0.0625691340009096,0.0003718239373202,-0.0558952457781996,0.0311019146459377,-0.00887708970922945,0.0152050495308307,0.0814531335769603,0.175978104380606,0.0406497687249536,0.0757234420535245,-0.0682237471710031,0.0284032401969042,0.152383996500748,0.0676813062478068,-0.00255775696212647,-0.115754149813044,-0.0108080847422085,-0.1033106963285,-0.035146238983873,-0.0729584731722438,-0.0893368691203502,0.0267965077831067,0.107144432503114,0.100311471598377,-0.0389506337408741,-0.0485147771734373,0.0729906020892064,-0.100033912260973,0.00484715321668104,-0.0229337569467708,-0.0368894734294025,0.0799378730032303,0.137904520542327,0.119365627372327,0.035975648228699,-0.0190505866772785,-0.0615237165571496,-0.0176502026641166,-0.06913780150954,0.0180109974611845,-0.0024446270692912,-0.0036716691997053,-0.0188646601917127,-0.0257956674270364,0.0115676249335099,-0.0301607633538112,-0.0291455311903749,-0.00875563717021439,-0.0235327404914703,-0.0335945100134203,-0.0194184275682017,0.0437507480769827,-0.0183971398404761,0.0391387425636782,-0.0122024324611036,0.00491964654678262,0.0144102951303581,0.0140353339717163,0.00708557244007264,0.00924278490902317,0.022516303573327,-0.00461455471551035,-0.0213905317857726,0.0252445660207822,-0.0366373678820195,-0.00366125289194119,0.0168664184313669,-0.0281230694182525,-0.0152906103839771,0.0229576346582636,0.00127452994517594,-0.013805206459153,0.0140958625791301,-0.0185496624284866,-1.30722119075705E-05,0.0300721641059424,-0.0143158503078947,-0.0144289711150098,0.00954438444756294,-0.0330096580511044,0.00127486283518398,0.00918691180815551,0.00577602689211693,0.0085302199878857,-0.0079810799946523,0.0362507009122563,-0.00653563537421769,-0.0136198825140314,-0.0256306242409147,0.00249857401639911,0.00735351385646625,-0.0055683283307757,0.00411695047438153,-0.00750595377350713,0.017139572023743,-0.0271634831827647,0.0204822986046189,-0.0181364247851944,-0.00371817929035937,-0.0169049306364401,0.029854683398332,0.0315618615971061,-0.0248434817652315,0.00315012647983364,0.0154532472031332,-0.0117691596884102,-0.000417979453238677,-0.0161771957524864,-0.00265310108534901,0.00748458225485369,0.00149021713260186,0.0166482727123835,0.00242129494819313,-0.0376920314919957,-0.0101723716632264,-0.026088149393436,-0.01092370872021,0.0224472558081344,0.0215959519289392,0.0251206648024709,-0.0240099759089013,-0.0116796253635245,0.020958888728607,0.00702914129479344,0.000195789472306989,-0.0376891351927152,0.0334692241939644,-0.031429498334078,-0.0205111083691612,-0.0254233630406426,0.00609617261878739,0.0142265100909992,0.0162971079557567,0.00394926166916358,0.00967562485412647,0.00951650069071269,-0.0349829762840855,-0.025636442858281,0.0145885871507297,-6.77465267252661E-05,-0.0207000880197358,0.0112056565074677,-0.0390289793684067,-0.00804121879133288,0.0240563368143788,-0.00207300891331405,0.035697014817827,0.0258552526924371,0.011400999778206,0.0109099600945999,0.0202912526188767,0.0150141445446819,0.00740702926406946,0.00530157544653764,-0.0064636498514874,0.00190152422906455,0.00504133651220612,-0.0262998458782551,0.0259866513868216,0.0441226787171006,-0.0148737510400183,0.00214330532476149,-0.018102531099843,0.0199801560976293,-0.0339339889276315,-0.00202403402093266,0.0285634732035306,0.0212602097343494,0.0514399833129238,0.0398613368776725,-0.0168287105277492,0.0194086866129417,-0.00881250810130427,0.0253054666186928,0.047328639104284,-0.0118324503558057,0.0219665338619947,0.0507579870746879,-0.033112523860112,0.0116882368951458,0.00859407641097852,0.0151035351499952,0.00386068638412049,0.0256763049154313,0.00806162380507254,-0.0589591999101686,-0.0683647965242193,0.0347873772620117,-0.0499807361505495,-0.0272780603816095,-0.00270931314877477,-0.0592419489460587,0.0778321036408804,-0.0105161352101519,-0.0275905489048146,-0.0294637069816503,0.00778246129727151,-0.0257678861079716,-0.0129136472166595,-0.00452063998330679,0.0603285927512802,-0.0245181002668243,-0.0145510678335622,-0.0204603270460664,0.0456330265134898,-0.056195744285306,0.00587450288588824,0.0126647677454297,0.0212604247416158,-0.00922069161198171,-0.00514034686225668,0.0219316439493264,0.0424284364665283,0.00793002864107694,-0.00981464891499391,-0.0311686763441635,-0.0307029764419021,0.0771264517081721,0.0204954747799372,-0.0533758051272872,-0.014332394270355,0.0466907053199387,-0.0421857410392446,-0.0378188303037761,-0.0108090459381294,0.0496474407601204,-0.0642829326730699,0.0113746788412177,0.0306982549688416,-0.0413050802180834,0.0502290339667188,0.142934555586107,0.0582094969345755,0.0205675973015071,-0.151441014630091,-0.0637969164330193,0.0874951137592631,-0.207554004106793,-0.14763292341267,0.0398481193748561,-0.0326348535003731,0.167717386677521,-0.0869621358763321,-0.119507374223838,-0.103113953162547,0.0608835267694746,-0.0824302238664867,-0.041547019988241,-0.153257704569506,-0.0374887709221199,-0.0628826559906423,0.0491461962047142,0.0828983132663561,0.083796026715161,0.176954800203512,0.0473872523203627,-0.0201338888600221,0.0662039391040096,-0.0606339496728501,-0.0489876698142826,0.0323224787514514,0.13099706742926,0.0404212949060869,0.0520898066236903,0.179575776310529,-0.00782948753018865,0.131014695586507,0.0221722372822921,0.182640493637488,-0.0281302481408561,-0.0313943569435714,0.0273531167555504,0.0527791134079172,0.108255552591309,0.0284135056543653,-0.0742063595711018,-0.0333119897710649,-0.17818071331172,0.131695791900863,-0.0269620146015034,0.0511514410250175,-0.0941058857059404,-0.158338472889453,-0.129619329529185,-0.175325552401739,-0.112694744725719,-0.184908718372458,-0.134437957872504,0.0274886915430167,0.0951946008562041,-0.0359392659724018,-0.135665880284201,0.228399713356672,0.0893528410035138,-0.221324171268094,-3.04168064747919,-10.8009968039245,-1.69114878290467,-1.61057170744962,-4.01343728500137,-2.73152276842057,-11.3810067411475,-2.86796573285613,-0.92329963376901,-8.90275100200094,-5.06276133344651,-10.4521251309305,-5.66333677511995,-0.614760632153397,-4.70663805923474,-7.20544326473502,-3.10020722712491,-2.94772195465694,-3.04388511222935,-5.29514589993914,-0.256041267268374,-1.62039615969465,-14.0120399145639,-4.51314571483157,-1.97746172341042,-2.80253849556544,-2.60590349199525,-8.18425958312075,-6.62237819716522,-3.9242320066875,-9.59365834423379,-0.159673038254901,-2.43238912543221,-8.44143116866311,-6.96468051201419,-2.65145730306755,-0.932781304327199,-1.03890099820591,-1.55269205477655,-9.55383344914067,-9.47934639265574,-2.02206766476156,-0.761323518468513,-10.4390193898427,-5.0883963801487,-1.61757912997134,-3.12594277787752,-11.3574030582026,-1.57684750825977,-9.49968577120951,-11.2117755061267,-1.19779585719555,-1.15024003188709,-1.89605722026719,-1.0994668010326,-4.69216544597453,-8.00937009230691,-2.63488097320775,-6.70647896505266,-7.80007903085733,-1.1825967179873,-1.74620166811165,-5.68426373684934,-11.6978207597662,
