-0.111661482042711,0.0301019406471194,0.0128564378148438,0.123878403394212,0.166172597297245,0.0169441298569348,-0.0258054292462157,-0.0263009766725565,0.140254737430639,-0.0831890338382927,-0.118657319479285,0.00214399728172577,0.0771762667970584,0.025071873787431,-0.0735466163858797,0.0494622884985383,0.197272650601133,-0.0301459472055784,0.0620809235441082,0.0958004920395977,-0.153074329904213,-0.151669681212338,-0.161079425996133,-0.0432811822478716,-0.0896491601826192,-0.119752960280852,0.0796789735194182,0.11256281660511,0.141035281423046,0.136395309449687,-0.0497717286100377,0.0024572067261904,0.0770159284051312,-0.0652847522270543,-0.124779379145104,0.160328008360012,-0.015227373334282,-0.0877137813036589,-0.0659639939868937,0.0652541710310891,-0.0200660454107417,-0.0321109969503561,0.0891189361347731,-0.0207499205330813,-0.0569085419458016,-0.0816038161949035,0.120226651227894,0.056006912726699,0.0535878228185445,-0.0288339095187011,-0.0470672231488438,-0.0295048322521455,0.157606645619903,-0.118723119415284,-0.112725314559716,0.0234970618753783,0.0653522839777934,-0.121186186932147,-0.0379898733270243,0.0858358325827886,-0.0461631489895987,-0.00270625220335825,-0.0223833530749228,0.0416721130271002,-0.110182354863468,-0.089051385281056,0.302831415808857,-0.205109301658222,-0.348216420631095,-0.000251963210439336,-0.222063227227012,0.116420340963213,0.14239813109149,0.0325935554944148,0.149408380075306,0.0841654385223478,0.0639847567945243,0.0290499715881856,0.169008465335162,0.169295312079528,-0.522926312423236,0.10741059538853,-0.247681088969781,0.234662044168664,0.118260825277672,0.414397206885653,-0.0158163367242921,-0.0503405343856439,0.144190406399574,0.273521015919949,-0.214421863343922,0.0378928752303081,0.212549150664208,-0.391517222110643,0.0734341410607181,0.116462848035881,-0.0947524753056244,-0.29409309370194,-0.105041908740033,-0.109880429114792,-0.0529210404186517,-0.119362908852546,0.120222011134473,-0.205818311156446,0.0198749555054188,0.169733535544139,0.194748308277077,0.233659520046959,-0.152679358537947,-0.399025622243995,-0.0393896942404037,-0.284908399465705,0.0649880535528855,-0.102148850768143,-0.217246869035807,0.157268899999187,0.0650749215314393,0.269998268635147,-0.0964102718856789,0.327118019268108,0.115262808010868,-0.200280901888009,0.0194326753252369,-0.364957242089235,0.0547569537108254,-0.150564265218133,0.136426573300336,0.124782837187907,-0.0123412802350015,0.0337964081312532,-0.0195583473908644,0.0219604682759692,-0.0323287008898584,-0.029316941191493,-0.0376580943167189,0.0273592328201759,-0.0211429255360381,-0.027474266606042,0.0125588449986712,-0.026980420040289,-0.0211782500677552,0.0120858930340023,0.0449500312059275,-0.0152531568976463,0.0393583840374623,-0.0100670672633084,0.0274781426432721,0.00105082495380913,-0.0239667789682569,-0.0106446788030456,-0.0261648054628074,-0.0289373641564786,0.02013584129705,0.0226725887594205,0.0360994439610571,0.0109239503004785,0.00530355084829495,-0.037489307983396,0.0136705599981171,-0.0289405442618704,-0.0153013275783336,0.0025546859963509,0.0305974074381899,-0.0216932126288542,0.0271878828780747,0.00517058430655016,0.013066367393211,-0.0316601291441311,-0.0375200070149055,0.035308682792813,-0.0163685564356588,0.01472071650668,-0.0262359024556635,-0.00997794938355324,-0.00727124763099047,0.0327793645756846,-0.0304841790372151,-0.00487661507952352,0.00903113478653783,0.0214816226356982,-0.0269559919619739,0.0166201403609998,0.0355802423973226,-0.0238596590311232,0.022271639661205,-0.02921406000405,0.0300086800665026,0.0212014598681003,-0.0011417804883323,-0.0105324422193973,0.0322709110015938,0.00977675616269086,0.113516182344844,0.0628913726519513,0.048727577422677,0.0784025015022181,-0.0581428872631031,-0.03129319111176,-0.00466936571555569,-0.0719551598196282,-0.049227168547736,0.109261731969312,0.0661257421153173,-0.0248926266139249,-0.0449420468630933,-0.0415565944589153,0.126999874347226,0.0237175467339217,0.19202634695563,0.118517567279108,-0.0385061316773,-0.0676170937290413,-0.0222916722121481,0.0357545054429079,0.0598863391601839,0.0224404326904464,0.0465338016355853,-0.0103121042413439,-0.0462593030879361,0.0760772831463415,-0.0205830363216511,-0.0553053607045419,0.0128861832279889,-0.0162294147230152,0.0456439834285097,-0.0419957611277134,-0.0783386373860861,0.0198858237015627,0.112700285722629,0.0352896141033547,0.0286599011005014,0.0151625993063686,0.0638664942388183,0.051686781844467,0.0116897283794115,0.00099409970970898,-0.00400996226810116,0.0623348271385182,0.0865303535736354,0.0506418515408445,0.0802229479139537,-0.0404399182428737,-0.0647368751691816,0.00638276739291228,0.197401300075229,-0.01336003193582,0.0321129817115184,0.0503893658020005,0.0542706786895596,0.0381871320638892,0.0299863706259199,0.0583512925076554,0.0297336920338905,0.0130292552318596,-0.0481940863947434,0.0169075165692962,-0.101682064847981,0.184389865201499,0.038173904537425,0.0139830307376941,0.399702825811806,-0.0863621522804838,0.223452985565811,0.0371583688530502,0.153587879794717,-0.0115223419698997,0.025616484885688,-0.243236151119446,0.289877575244228,-0.201277674152582,-0.000173200559274436,0.151728853419548,0.377234819070374,0.318587404169232,0.0329026145492493,0.238993715678939,-0.233997726775503,-0.0170775745967508,-0.113441443719438,-0.284919414713904,-0.158783788054352,-0.23076978218449,0.0357673154990594,0.0709265363031037,0.0685938990469516,0.219288980002404,-0.29768558710564,-0.00682518168016803,-0.154715778116518,0.0338520514043253,-0.459533473789983,0.325695911721004,-0.0123940111099852,-0.117924489122594,-0.0645439767321945,0.342094606451371,-0.265468143757789,0.0167386353901909,0.0835903432320343,-0.185043229371572,0.145037524828798,-0.126467966630671,0.255149614473235,0.00697026553826673,-0.112163875825207,-0.1100089619912,-0.0785936639288449,-0.107662063986122,-0.0911637723735743,-0.164059225381563,-0.0207892531502966,-0.245832371311537,0.0117462446064414,0.161459858530981,-0.167813638691791,-0.0685577020993842,-0.182977953786338,-0.0344713513795091,0.0216274246720053,-0.00191091166415322,-0.0196675730440022,-0.00874227888134956,0.0207436363472214,0.00456600206515905,0.0273931377565559,-0.0176519224536915,0.015105968482784,-0.0103052366982826,0.00951155482067648,0.0280466539047633,-0.00665442476579788,0.0327623432038636,0.0252666971234988,0.00576682174541614,0.0301007529403946,-0.0287493092974812,-0.0216889319442395,0.0074371066288092,-0.0263760683174077,0.0350310193335937,-0.011013220015241,0.029578491807957,-0.0121714503012695,0.00771630526533146,0.00279752539652015,0.0161884653793314,0.0158537420071749,0.0267548456800662,0.000197728618739234,-0.033908104812353,-0.00908372517672276,-0.0147895600888615,-0.0264528305105567,0.000572399702969864,-0.0272452175859247,0.035031390733662,-0.000490117639760248,0.0255884948853315,-0.00714577265579921,0.00914293840425599,-0.011173271936655,0.0369556539879991,0.0281191623855617,0.0361670460427551,0.027750540370527,0.0202087924862265,0.0101894198309612,0.0234498993317549,0.0237556487285383,0.0151323330888852,0.0121644462284485,-0.0372074363290825,-0.0264004532505975,-0.00465178694924737,-0.0408147172999341,-0.00867134869996975,0.013126158604134,0.028546648446427,0.0317223036952837,-0.0129601095751743,-0.0338288426625779,-0.0301313718549601,-0.0323561601372345,0.00477763161923483,0.0569433391425861,-0.118368745974364,-0.28281048410139,-0.213530342036055,0.00688038403593857,0.328980756115521,-0.00346488944643337,0.295421571919495,-0.119786857933616,-0.379519616146046,0.0575892592446371,-0.108538434897241,-0.228204700277963,0.0494726280787183,-0.191668124987199,0.248264621736879,0.376422538244029,0.473123666960064,0.188715182045005,0.352976122465656,-0.160325673788009,0.181339500773585,-0.245792632824089,-0.249749452123633,0.182324260921398,0.0442453715475454,-0.24991518882722,-0.117895334161684,-0.0858013709265371,-0.198093924705357,0.0134635677085947,-0.0792301101478666,-0.158107882401106,0.148116456276642,-0.0959493923849982,-0.118642039685997,0.121721695255014,-0.287543651956091,-0.228095990586085,-0.110358811505951,0.384418150418518,-0.0440905285922062,-0.0784065411462591,0.259270041176504,0.106146853200592,-0.295363884109147,-0.30190244453767,0.150356114728923,0.338155338002191,0.400197979340608,-0.013537192346641,-0.0450612885441562,0.0485806695625677,-0.17774770108681,0.0175272807309476,-0.166452831113803,-0.154248785142027,-0.325899818930461,0.413813636657777,0.27113387480409,0.159733847796711,-0.127122856554968,0.0329753580985607,-0.0596674043982107,-0.172146449827836,-0.411707329660091,-0.412643454889675,-0.230685574161324,0.0922487034286021,0.410306410348233,0.129040021648862,0.269160520632861,0.251177815449228,-0.104486720529547,-0.016856192877409,-0.197717625551495,-0.451662929199809,0.0903085728722881,0.0265384683105109,0.0231385773272799,-0.242160171194888,-0.247966923243151,-0.290254339931293,-0.518181795001385,0.167926253592633,-0.203698918498858,0.16881566486461,0.255892906828444,0.0114728828139284,-0.209786309696119,0.325304730985799,-0.032427143104139,0.0087533825382235,0.122159282391541,-0.119749860177432,0.289062073794598,0.240447525711626,0.523930992651799,0.394484054084261,0.236163194392105,-0.0454059193983023,-0.324491410239964,0.242801930207335,-0.213156859792117,-0.148221772415611,0.211775612854953,0.0278123970106374,0.047498138594422,0.085063484976035,0.217507510970169,-0.00762294305364588,0.0934554688171556,-0.337509484806263,-0.183813602407264,0.102667989334093,0.453242252086817,-0.128361925952224,-0.110261608815668,-0.27232800130534,-0.27404068262166,-0.156017623371539,-0.27930923219627,-0.211048044767601,-0.0664668456362497,0.135882960409414,0.335193856707264,0.290463834104694,-0.00533799179068206,0.0422453091110593,-0.021636847737495,-0.0487128320526534,-0.0335508406481648,-0.0451209053572135,0.0317797333180954,-0.00334468639823029,0.0271967118699379,-0.0177120028976695,-0.0103494969385167,-0.0531541784232529,-0.00493099661423475,0.0780488592057595,-0.0256595030309743,0.00112718896084982,-0.03627631937992,-0.0402760714096751,-0.00797780559919353,-0.013201538152368,0.00660279585505322,-0.0103801997442766,-0.0275039078882567,-0.00472766805787514,-0.0333980956616289,0.0127650634198171,-0.0013599639479581,0.0504498812521083,-0.0128927991785453,0.0132041482161362,0.022960833274866,-0.014802698856883,-0.0310628988937055,0.0331708875746455,0.0204529653329982,-0.0232080084695782,-0.0147323881625736,0.00556653419558329,-0.00175797252801097,-0.0327733073164825,0.0237714185133846,-0.0160811251768831,-0.00964062621692229,-0.0214163924360275,0.0251680842940637,-0.00909501522095678,-0.0302736098425155,0.0157437075203458,0.0350452855630624,0.0529694604756535,0.0402250675076254,0.00646233393800155,-0.0244613524652992,0.0174385783183515,-0.0439644414839252,0.0120434600594653,0.0485943100862086,-0.0294956138129277,0.0127198225969673,-0.0409021311616027,0.00347549710134898,0.01236838414142,-0.0349616467770324,0.00076357246873838,-0.0409506471630603,-0.0930455290101496,-0.170796578628627,0.0907843618770825,0.101293573270772,0.077472774969875,0.170294284189486,-0.145054953084286,-0.0406708474950629,-0.203443586910084,0.0184649593131511,-0.291510037210937,-0.188547658966947,-0.139284051483747,0.171137652987966,-0.365837022295048,-0.0930174594725797,-0.0375555190416452,-0.0749699054553494,0.200366521338367,-0.241034913968076,-0.232290908242292,0.293720730404201,0.136925009172952,0.0236400344705537,0.0101592511955626,0.101692522688517,0.15971730116997,-0.0934477433071364,0.0615776598733431,-0.088481856012675,0.259276161781565,-0.0181499179331626,-0.143293192876925,0.0791433973752402,-0.0264522482458558,0.0136848821221396,0.0633737005852512,-0.202548536481794,0.179893069105172,-0.0263092882865331,-0.267794470077181,0.0478620425874847,-0.190434544305769,-0.0922666466007184,0.0836016785542854,-0.172660100361927,-0.00024497836035407,0.03523059769964,0.1865952747295,0.158174384408525,0.0976100328365598,-0.120492545274792,0.244959595201325,0.112504528990933,-0.101345474399266,-0.0884986798033267,0.100563938352868,-0.205632887444219,0.207900456218232,0.0127969331250269,0.00240703121335666,-0.00272967209420275,0.0496483374060616,0.252399953261736,0.0207959944207985,0.0263029387445492,-0.0151462938941377,-0.0039764508020846,-0.029696737350631,-0.0177990041433982,0.0970334615854009,-0.0997038247291602,-0.0445149793361262,0.10991131721317,0.094169174691621,-0.0342191739684519,-0.0986547519723928,0.0448056700623315,-0.0283358756198302,0.0153390473714953,0.110755040451961,0.0407150414341481,-0.00982860394779722,0.0533148713396949,0.00396352989810348,-0.0276847917828749,0.133055898028954,0.0537393548654827,0.141385085242383,0.0210473941972934,0.0437486220034172,0.074100871719808,0.0387167285403856,-0.0491578451206006,0.0465452686278362,-0.0244194972789632,0.0549928742647599,-0.0482893368291647,-0.177371483291904,-0.0415950290094468,0.127458836305722,-0.0842735467181608,-0.0111183287397151,0.0324049098480051,0.0986033784612347,0.030729806969748,0.08260391411392,-0.0200741638466997,0.0401021726156167,0.101433620783053,0.0455707201493939,-0.0516224451211194,0.00330843100672988,0.0184611168793464,-0.013301483661905,0.0730952315205896,0.141142760456442,0.0221211968671559,-0.0736656396243105,0.0593340650969017,0.0805686307047981,0.0306688011290431,0.0189195697936821,0.0459280472216502,0.043189892359721,-0.0431310965015058,-0.0167393397998284,0.0569367323102382,-0.0203249753990503,-0.047561088042482,0.0189663709289772,0.0105986004112186,0.0197230016561023,-0.0340453988067418,-0.090094143817716,-0.0819631157280849,0.0230124491986481,-0.0550283060626281,0.160544419979656,-0.00536039464197248,0.0800841391499783,-0.00865438614126094,0.102681151110549,0.0857683049242875,0.117341074751632,0.134205857774692,0.0516236312536849,0.0415607770012904,0.114293071985964,-0.0863547508338522,0.101988113204044,0.0215293826399399,0.075009164290001,0.0530696769914238,0.0966351370193616,-0.0321142534201813,-0.0533799372320414,-0.022370496913457,-0.0187944822232457,0.0199127028403752,0.0284582015094258,-0.0105473896440449,-0.191623151552182,0.0254955781980036,-0.0788675761046741,-0.0108141714845693,0.137562500115112,-0.08844431548172,0.11509613549926,-0.0587873737052239,0.0318980780173986,-0.0855781082564843,0.0690212874485872,0.139117724274114,-0.0932211437580808,-0.0633786600055364,-0.00675601206830521,0.0547446533697911,0.0836434475609085,-0.0286915738409806,0.0682027417994425,0.0917390757453263,-0.0416777456839344,-0.0652649513655265,0.0287189735010815,0.0714668169158062,-0.0978950188116805,0.0921001454558655,0.0315783750141258,0.0407331706495867,0.00844533928892216,0.1246669282564,-0.0818828681738428,-0.211037520258865,-0.351454222121944,-0.127340779820939,0.1886914256235,0.107210407013922,-0.266327331478642,0.274547709667416,0.0913161056231416,-0.524515792869578,0.174897318626837,0.184608462506197,0.48653273447151,0.0167362728272682,-0.109198960861931,0.151780599353153,-0.253287944871632,-0.177543457013295,0.1677072783852,0.214805109601988,0.139591589797551,0.20936650686548,-0.142383492536361,0.00462478799299233,0.121715504824741,0.00934226707147683,0.273827632008563,-0.161052205722272,0.238416830929991,0.0165471805215821,0.16753457519096,-0.186690082205625,-0.0575909397206827,-0.104946229380345,-0.0842317330106328,-0.0114913201944158,0.0914117758646912,0.0305858692016026,-0.0850055017420831,0.235790436055257,-0.180313421264648,-0.209221075837631,0.184465734878128,0.138791744003111,-0.152354197419139,-0.134777695981343,-0.166950264900551,-0.0710135105356101,-0.127929103350906,0.0153320117856175,0.252189434732836,-0.148090342996886,-0.234690500454578,0.220629833198177,0.10069186700654,0.1232258171829,-0.00422093235193493,0.056173083845543,-0.148848352513329,0.0992484176529989,-0.0748819553611414,0.00365667040650437,0.18860373086964,0.109791603351777,0.0124447656210108,0.0821862898943387,-0.0192961876755281,0.00585642297546823,-0.0079681228044481,-0.0176097177916103,0.0380500227730687,-0.0553338926584741,-0.00484046167076677,-0.0447003899608088,-0.0255138324219388,0.0807826901339605,-0.0324682685578961,-0.0537900688858794,0.00894618034093046,0.0120183320548667,-0.0109746405232231,-0.0520173117277353,0.0482860841384938,-0.0388796414560931,0.0164046444397381,-0.0429133584550625,-0.0277645316133951,0.0024765612425662,-0.0269202235535596,-0.0258731767508763,0.0662383928088591,-0.0310977728664788,0.0226192838983663,0.0583262286140928,-0.0197317483883059,0.0644402170662877,0.122936101678359,-0.00691328753099926,0.0520235192544897,0.00460342879365463,-0.0048726328976684,0.0612613814216633,-0.0200425573325544,-0.0147013452170421,0.0627941979189755,0.0323534689152826,-0.00418577212108612,0.0507316218075255,0.0155743736600457,0.065454892017486,0.00975356408844107,-0.0253057730152682,-0.0241152621370603,-0.00130360095318681,0.0559737494866452,-0.0313013104557008,-0.0443260616799117,-0.0120524794378315,-0.0350591331622639,0.0247029575040426,0.00470897001347705,-0.015001314420376,-0.0222573931598448,0.0118176888981101,0.0179169429564445,0.0152947168089232,-0.0648179310157326,0.0148758877573895,-0.000224111687385011,-0.00389140525719069,0.0114952406223669,0.00751353510021964,0.0133381350726913,0.0305840418161905,-0.0295152853691894,0.0385169472686551,0.0183446130849473,-0.0315555253867707,-0.0155218341617637,-0.0130767961309009,-0.0364842394102598,-0.0282485559878097,0.0129597240950935,-0.0203593670279476,-0.0206781016161517,0.00426883270965473,-0.0335593841043169,-0.0171777053221907,0.0191824636632919,0.0208774178542006,0.0268736679716518,-0.0308446064301961,0.0301169709852881,-0.00439162280082421,-0.00825510361351423,0.0630479197164453,0.0900206715219617,-0.028205762299118,-0.0392312380783049,-0.0341305230967889,-0.0201749409426933,0.0361417453025748,0.00681843945784952,-0.0123923554730409,-0.0198825767798258,-0.0347780937316691,-0.0428702868268798,0.00981732172166956,0.0389394171367566,-0.0187611016541205,0.0267864763228728,-0.00426741440116605,0.0112776563785364,0.0581798522924212,-0.0406666476469575,-0.00999805671518786,-0.000609945921132973,0.0289705746990206,-0.0270321350805992,-0.0228071778072093,0.0082877105380705,-0.0264180953010408,-0.0174339311655356,-0.0352160300061957,0.0534614064856655,0.0263347608631295,-0.0319785370251283,-0.00451823848856935,-0.0254039101432964,-0.0180306283918223,0.0225124663895109,0.0121885999033767,0.272697578780814,0.33588193494513,0.0039508021533954,-0.0493921579723889,-0.0248077810327671,-0.0268436470474899,0.134176576949432,-0.0616224383965037,-0.0310088612585119,0.0167476249647648,0.481756775407412,-0.037402865785385,0.26100736587143,-0.137069813938975,0.219352969398967,0.0338969369327697,-0.252987908386824,-0.214641962839546,-0.33860123665304,-0.0230699940817791,-0.0544648025105218,-0.354177130364721,-0.214165392100406,-0.106852239760512,0.0703654759467078,-0.218997715579109,-0.0330489512332569,0.153941750157331,0.223843217614796,0.180480311863444,-0.149444366175032,0.0489767356108606,-0.0132433836262453,-0.168507604702903,-0.20151271829069,-0.0554205234141644,-0.173732419457681,-0.0040718862797833,-0.108402181704891,-0.00787690181966526,-0.0445563798196176,0.0157975181067415,0.393989689757284,0.0225218231574066,0.104344457146831,-0.0803371505667273,0.0852003857831891,0.236933120499935,-0.252318439775093,-0.0080387578781723,-0.268819859719099,0.24417056509759,-0.118145727430407,-0.210112337943079,0.0325500190553152,-0.0876764835299427,0.10679171197394,0.0306719861743393,-0.262369467829935,0.0863145102379815,-0.0970653169882299,0.283919299841413,-0.0137939964797703,-0.0525542223099932,-0.0108397727091844,-0.0487802314615766,-0.027373440749564,-0.0174928188704155,0.0332984294514773,0.00292431335439766,-0.0389641350949389,-0.0558565468698713,-0.0124878643369757,-0.0469181376013311,-0.0136090827091849,-0.046044367722636,-0.042740200041217,-0.0308237267581907,0.0208918736903373,0.00268779104124836,-0.000433022669108098,0.05249777477373,-0.020989906859117,0.0395065170762613,0.0383204484201625,0.032572400629756,-0.0487228631557558,0.0385399747159772,-0.024350174090272,0.0196524983583082,-0.0380963304400847,0.0132013147968071,0.0252425149548034,0.0108352714064764,-0.0283844231515591,0.0179873861554259,-0.019946117687152,-0.00915486384530069,0.0602412753755673,-0.013502947894467,0.0210976884262947,-0.031730250969626,-0.0364213778468265,-0.025902508685455,0.0706652859487647,-0.0309012097032549,0.0100794504503064,0.00292911009230454,-0.00390396285243648,0.0476135784920955,0.0568321777360173,0.0461950979459958,0.0323949897127463,0.0504889433486705,0.0697889977638005,0.0589010724636628,-0.0269995052327282,-0.00925474906837123,0.0705121924125726,-0.0165230662367066,0.00833232771070141,-0.0289861630422229,0.0377139778064699,-0.00240349374301118,-0.0269327852719371,0.0209206099073608,-0.0264283256737477,0.0479410782151448,0.122373711640057,0.0954442262656451,0.144026376635063,0.0994086389822366,0.0464752297728132,0.0204351936555947,0.0664767906359241,-0.150808165222162,-0.0720241073111083,0.165427971141682,0.160518996983506,0.0449721482960774,-0.105554600619282,-0.0658604038079044,-0.13247895559424,-0.0307880604647258,0.197397976111825,0.0423875422685335,0.00750438176230971,-0.0652424179838299,-0.102531649335722,0.0755667953904275,0.0920438401573031,0.00254456761206676,-0.0523540224480994,-0.00881293086654883,-0.216558363043977,0.0800731133679943,-0.0757063625959845,-0.0600209565401024,-0.0537304694226825,0.0837437871865139,-0.00593251208645562,-0.0535367413352393,0.0166199856421069,-0.0427384518340208,0.027234844842857,-0.0532711372145564,0.170608206357615,-0.008967069250177,0.0976836320489205,0.0746203825774279,0.0744892595449208,-0.0123681449735965,0.0277066712774615,-0.00680085103205856,0.205017955017792,-0.0191912697018536,0.0658961263350977,-0.0918539222055279,-0.0752192493749574,0.0212362206556928,0.040545525024732,0.0626071712388559,-0.0988184800017635,-0.0407971276375186,-0.0112684509001679,-0.0243566305225709,0.0210515538650657,0.0534400124072788,0.0229182194811074,0.0312178252302326,-0.104771074620889,0.0320275900895471,0.0124408089952225,-0.0272801068191512,0.0340439564081235,-0.0291575318328879,0.00123521527638163,0.00469074969414173,-0.0365976818941415,-0.0309690482227444,-0.0170276571786797,-0.021009155015496,0.0298272783539479,0.0308310672659346,0.0104659096165637,0.0169406057040055,-0.00250602324077632,-0.0102589615187343,0.0312369184732976,-0.00106465698681733,-0.0119502780538651,-0.0358275459511195,-0.0268185995375852,-0.00805770229631032,-0.00781136989822872,-0.0350470150021445,-0.0141407342788417,0.0378403842829559,0.0320162672220493,0.00889440999391091,-0.0259310675621257,-0.00928378496479954,0.0187936839634113,0.00704208905106785,0.003803519884075,-0.0109807746589952,0.03516086208056,0.0316554848892146,0.0213719082189938,0.00943992387608461,-0.00730082027228738,0.0272745217816976,-0.0348850387602173,-0.0295254109688811,-0.0286978489072122,-0.00100363592075884,0.0240488581154138,-0.0221573978197214,-0.026194025473835,0.0332503057039955,0.00646502254191971,-0.0202196282836408,-0.0116881615854003,0.0244868471261408,-0.0266669958201917,0.027078058455088,-0.0210403354817676,0.00442161551577785,-0.0198030210620233,-0.0165580455352231,-0.0364736962822953,-0.0243348605278935,0.0183759666033748,0.0331079577413751,-0.0233680492518922,0.03640533751782,-0.0348585084583071,0.0158257446725036,0.0170728218834346,0.000494617637972743,0.0119274509091267,0.0252727314135268,-0.00514654998561945,0.00910491056206538,-0.0199372516931756,0.0218948278464885,-0.0119717802499121,-0.0198332922514859,0.0287525618801529,-0.0294694724985466,0.0133900867824167,0.00358544031954557,-0.0309015512294169,-0.0175251155117021,-0.0340812171157445,-0.00726604786036986,-0.0359017790209332,-0.00644515186593183,-0.00363462071262328,-0.00157384663521787,-0.00434153792477804,-0.0355862196924868,0.020614659657291,0.0231421945976023,-0.00746741476938425,0.0195831834032225,0.00230096287353004,0.0101322374415494,-0.0193264428358475,-0.017225565502983,-0.0250116013306138,-0.0041742990871457,0.00863646574995949,0.0451106366070051,0.0315137604791394,0.0151378774039539,-0.019180880259199,0.0190251839523744,-0.0137636078021708,-0.0141954867060104,0.0150250774849976,-0.0188984368659697,-0.0271677432853916,0.00575840256842631,0.00722598443223836,-0.0172557878868741,0.0143374188050421,-0.0282749829804051,-0.0275044997080305,-0.0138510741187337,0.00396552579789524,-0.0249016553436997,0.0408583111860348,0.0376103992021018,0.0173690901539505,-0.0235249659954395,-0.0273733014054223,0.00418053049939983,-0.0196201484717757,0.0273930149918511,-0.0374302097953838,0.0160844377318896,0.0222457391772869,-0.0197984497301022,0.0108647110905767,0.0254206950819124,-0.0015463743353457,-0.0214305659403318,-0.0259017802223843,-0.0302862792729236,0.0211131935322417,0.0350062908320679,-0.0255573115284965,-0.00644585315558727,0.0298064538974854,0.020092206202543,-0.0367564779856639,-0.00394797320204662,-0.0320413138678972,0.00933393691917722,-0.0375843700174981,-0.0250687620751498,0.00284440384343079,0.0107384497074094,0.0211933565140267,0.0191486821182238,0.0369912091789364,-0.00719955938579255,-0.0253122069608709,-0.0310828357914347,-0.022582420146584,0.0100051692005488,0.0240095046907427,0.0335897157151888,-0.0188815579951612,-0.0326975098803176,-0.0254779766728175,0.0306812823301434,-0.0300015855243832,-0.0177418847636828,0.0061617873425438,-0.00743480829322403,0.00507081062447551,-0.0142619854481429,0.00324372629693777,0.0197247549335182,0.0116650946632227,0.0149000802480843,-0.0364988265728186,0.0190031001673364,-0.00290032218474352,-0.0363538303257264,0.0395405215402075,0.0197537964871229,-0.0374963400398599,-0.0108422710038388,-0.0096628477582817,0.0160325213443,-0.0173361741065186,-0.0143908927017851,-0.0210288835858568,-0.0354223534693724,0.0242508417169434,0.00835707778885585,0.0574960318198585,-0.0293400573595715,0.0811078213370043,-0.101534927378958,-0.092900808082722,0.0457572495947504,0.137660828395962,0.0547540932659945,-0.0324443555785422,-0.0309894337364114,0.180509790065958,-0.0210837162064747,0.0310008784636247,0.0556357093103352,0.146524732540125,0.00644388725037969,-0.188041450875214,0.0396330727845553,-0.142277015932355,0.015490797759114,0.0321054731493726,-0.0823427558370883,0.113770944668253,-0.188835679101334,0.228116031816437,-0.0584505932292363,0.0171962113053897,0.0721607655212971,-0.00339204305347248,0.0785017945998796,-0.00108408936728395,0.183256826369467,-0.0493744250007241,0.0136070020743008,0.174596938707759,-0.0231600021059468,-0.0738424572961263,-0.00405869098791491,-0.040931974429278,-0.13522602608656,0.00937817838249154,0.0116822880321516,-0.0145222750921853,0.0658024998961675,0.0246421520666617,-0.162474758964591,-0.170628681024938,-0.108637010834497,-0.0841638865345146,-0.069315025112846,-0.154319559189694,0.16836227963922,-0.112711984978057,0.232838885962858,-0.0331323561559004,0.0675639780938271,0.0713761767938689,0.0889510423275326,-0.0500448507485355,-0.0336587814859563,0.0520157391698458,0.0425447190713684,0.0384433847008637,-0.167314528467383,0.207587981840733,0.0214832281365075,-0.144760152013098,-0.0582281828316444,0.0288238129538896,0.0805569848535074,0.197912780205968,-0.00265233100497819,0.0559684727096319,-0.183513072452313,0.335835838721305,-0.00357789800008882,-0.128960337014434,-0.11860066213208,-0.105313795456317,-0.0429820373540207,-0.278776240990486,-0.0593207687999625,-0.0368384053104759,-0.138712306540134,-0.130651504934333,-0.0171663618283277,0.00437380709239312,0.0915014719739109,-0.133562414139732,0.0365442454674907,0.00904967497352457,-0.0653130420048202,0.0837597584367731,0.00236100262651228,-0.0936098591797034,0.0493684786698951,0.0856900196116256,-0.0603025934417904,-0.191609243756448,0.0901895618845379,0.131068341978176,-0.0624511462762363,-0.124234659876812,-0.146436610786896,-0.0349027876487705,0.041438667177023,-0.100924482501215,0.0253466319664835,-0.115813317582205,0.148970588471063,-0.0378913949837143,0.344469612857462,0.0883417366782626,-0.0897664353064448,0.378514390486358,-0.135965801098837,-0.0451249892284809,-0.0201051314381706,0.124289945190069,-0.157832555819379,0.0515788631885102,0.14897466014321,-0.125338179939203,0.0520965265851909,0.0812563197895125,0.219604293433875,-0.127737863243307,-0.126026309495311,0.105025167791884,-0.0539916391522184,-0.168138631778515,0.198330279184635,-0.124213028929706,0.0183403980700973,0.244299029557081,-0.0466364904088994,-0.0733211306696584,-0.0056960536798948,-0.262764322440131,0.214166946610443,-0.222869123842681,-0.137565284639149,0.161313643912772,0.0604673274202746,0.193734206635962,-0.249585263347127,0.170376793638043,-0.229114445225677,-0.125251544322272,0.274131861872959,0.161052819862305,0.121868765750399,0.0268576950423218,0.0982792844791427,0.0603747352301939,-0.0937474464604291,-0.0565913823068051,-0.095863572836398,-0.0729549643046706,-0.023870799510484,0.101504243934757,0.0745332349537657,-0.323937424751189,0.176975296493705,0.130258517219683,-0.103872122109251,0.0671874033941532,0.0521277027684222,-0.0782301087685637,-0.0925006460327115,-0.213223963951414,0.043386899489808,-0.104067803460159,-0.139003501758669,-0.133394598009719,-0.121602437514512,-0.165171084392994,-0.0575064708169074,0.234369029456648,-0.116721482267806,-0.0491854760221511,0.384272970172313,0.244225230919921,0.0391928048802634,-0.159431422789473,-0.0221756218866809,0.175457093370847,-0.0885537299188878,0.0032188620315632,0.0713237481517251,-0.0328363408005486,-0.147720936639646,-0.0767005295288162,-0.00356808329465573,-0.0523188156473291,0.0692003143874685,-0.0504602322518254,0.0150675717968608,-0.0694689974312672,0.0581492270718319,0.0665044469045057,-0.0577700388919736,0.0219817194056234,-0.00713483733019004,-0.0369400512527383,-0.031419122062573,0.0111940957392956,0.0356096570656638,0.0587461328795706,-0.0130770214985162,0.0132800866508994,-0.0299664977552039,-0.0645947292541426,0.0263951562520454,-0.0820095476125756,-0.0263370256172571,-0.068933100217493,0.0181756522666261,0.119848904636593,-0.0757167344079552,0.0467913292908591,0.0482944750011162,-0.0444602324368758,-0.00327138843105822,0.0479733590978344,0.0387330378048207,-0.126503401904529,0.0247486510874895,-0.0104354942361386,-0.0460237833761254,-0.0564808087267905,0.0142192039944639,-0.0574329702695453,-0.0771366388310269,0.0702281777284012,0.0519485561547106,0.0609056826263074,-0.0613571926274512,0.219728109417923,0.00122209803460696,-0.0669228728917512,-0.042792690829828,-0.0557698963796873,0.0922454647843416,0.0363735563655836,0.0212026169334368,0.0466066107445607,0.0187060288758382,0.0538404665281771,-0.0280840546030985,0.0162851725218962,-0.0426982442611847,-0.0506558635736716,0.00405092534551747,0.0327491807149875,-0.00206050108953713,0.0813767380488703,0.107485421618018,0.0818218327271131,0.0366599252558579,0.00475097736122204,-0.0155869193025542,0.108306288467363,0.00147449846836188,-0.077707999966577,0.105754526955708,0.0286198287306991,0.00378496038518987,-0.0798665984805936,0.0291081020854292,0.0768506986169283,-0.0250883191128655,0.177099012389356,0.0296777859776143,-0.0217988819971384,-0.100935736640482,-0.0162375782801919,0.0149610131079237,0.0543084349156025,0.036732180974147,0.0744359861318084,0.0523846218084761,-0.0595757929816294,0.108441542927596,0.110471204824493,-0.0503883472633088,-0.00521590127606939,0.018747979744696,0.0175023272776342,-0.051795524034799,-0.0743192296727,-0.0141947883696547,0.153252629670797,-0.0242057012223742,0.0355355394028415,0.0455826088729438,0.0563076239158901,0.079772810797685,0.0596381396711363,-0.0179255595048335,-0.00406599696587026,0.0249885795306917,0.165515354122995,0.0110924827798123,0.0748055717978818,0.0441826162304668,-0.100483048399055,0.028277271194351,0.168934951212025,0.0107738781808199,-0.0261468798116406,0.0160837391903785,0.065989608604374,0.0185290073105863,0.0242587288658201,-0.0217357896747079,0.00513012134903927,-0.000923802633626662,-0.0515222792304563,0.0545178379026119,-0.0303793207598788,-0.0298700487680278,0.0155417141106818,-0.0300365117892388,-0.00782541096765741,-0.0228345120338725,0.0135985453609787,0.00160048109546396,-0.00136835620977961,0.0299354660133794,-0.0365567155398764,0.0119016232726255,0.0176437955854537,0.0358639155857699,-0.0332914768500126,0.0160785781366144,-0.00994686103917363,0.030364861284499,-0.0349580067126008,0.0269494915824062,-0.0327982637192176,0.0062338974718128,-0.0343789746399208,-0.0307584945115929,-0.0011262969128755,0.0284190544029446,-0.0122563552236994,0.0023690194470223,0.0137875076832664,-0.0177572622964666,-0.0218078248450136,-0.0200415663213774,-0.0342836365708369,0.0239155078314359,-0.0207782628143834,0.0210951405974036,0.0139059717702722,-0.0306069648694023,-0.0378376310120476,-0.0371301616017721,-0.0326920575364332,-0.027192116322008,0.0184130111466778,-0.010965076499374,0.0349435610635227,-0.0156295027118389,-0.0275102708153863,0.028631850862435,-0.012734631685415,0.00268719389452641,-0.0362844332957282,-0.000176995742183407,-0.0166400058829195,-0.0163571845901078,0.0161435160396328,0.000558227991855473,-0.0189920606460151,-0.0179929389610659,0.0385576806758562,-0.0208399509527818,-0.00837229237447915,-0.0175320633602767,0.0342773650306071,0.00218980887699974,-0.0541948568666897,0.0552001747026235,0.012474759437778,-0.00489301502769661,0.0901971780673766,0.0132710374034858,0.0692007964171321,0.0710680091429495,0.0466014932594028,0.0244957979485623,0.0212998306887963,-0.0362579283629785,-0.00516967060687525,0.0801415250362578,0.0322654337492084,-0.0285551715189805,0.0753188863757056,0.0395728187085522,-0.0166307903115391,0.0667445634005936,0.0547532203395313,-0.0590444221145834,0.129376904094672,-0.00329143352870953,0.0260123348194742,-0.0520117792194365,0.0284346079587382,0.0429595896291334,-0.0236326443839399,0.0915772753173698,-0.0468411780323487,0.0449601824178214,-0.0342929551759023,-0.00659170373528721,0.112871031291214,0.0819090244337451,0.0299177749910938,0.0401975407235232,-0.0342008604337709,0.0792752495999469,-0.0692587915312897,-0.0172377389109633,-0.0188764899832963,-0.013195074573309,-0.0117828779662052,0.0237276320339004,-0.00132036908624711,-0.0697637860587321,-0.065979987642575,-0.0834030246800974,-0.0194594903824184,-0.0482190747433598,-0.0229297070342806,-0.0368743548048762,-0.0549233352772378,-0.0435093992813983,-0.0710605708661082,0.0519751527846578,-0.0535167271147276,0.0485158416431822,-0.00118168966547973,0.0137669627446979,0.0263972435035263,-0.0889052851841678,-0.00586526957105228,-0.00284338038962546,0.0214522490832851,0.000594392716840299,-0.0351611294111354,0.0282580170541566,-0.0323047086679638,0.0543768316563359,-0.0166834059766842,-0.0220723659712546,0.04128285963221,0.0137986124843531,0.0564583158911789,0.00818653661986912,0.0210101974758938,0.0436039528157344,-0.00616270805660104,0.0386916991690341,-0.00529052366492252,0.0353015307146294,0.0195665774318209,0.0329102887447279,-0.0364775777924187,-0.0297817385626238,-0.00312491531158516,-0.0318050747198231,0.0516217840617048,0.0144823341209368,0.0385431795565189,0.00891970247304793,0.0134030239674588,-0.00115338388053484,0.0195399077475157,0.00206045376456049,0.0633887484464035,-0.0356286083586997,0.0742880889282762,-0.0262512515440025,-0.0041074347833477,0.0592375945791823,0.0115739115911742,0.0452125979495907,-0.0128783185549861,0.0385154384088833,-0.0375110251624996,0.0377650140154862,0.0325917965473134,0.0134662052021141,-0.0242236121600262,0.0387394916447115,0.0429084176258607,-0.0402089614397955,0.034029356159199,-0.0161976808267807,0.0444924834115865,0.0173803836366099,0.0118269699605273,0.0231033227714806,0.00750513247366804,0.0489103792773066,-0.0343880105836513,-0.025812808676588,0.0472696598736343,-0.00914408335333249,-0.0378143674703407,0.0107996295746216,0.0366730598626776,-0.0114736380835427,0.0348856815367681,0.0337439674091579,0.00724305067195302,-0.0127039593125933,0.00477445088903336,-0.0330736746872574,0.0514865724005447,0.0263344056572239,-0.00272260146229282,-0.00985813920915385,0.0282719660917093,-0.0249870881392843,0.0137658168977454,0.0400244155905053,-0.0116592519391277,0.00153302013364945,-0.0293479980733948,-0.0150609534785163,0.00487712457117496,0.0635480602349808,0.0524079439016952,0.0233006457827161,0.0176246922745714,0.00574780405280016,0.00624250333637304,-0.0159774662497253,-0.0219635184753509,0.000979116065423799,0.0267779764693666,0.00217734882258447,-0.0103595441206728,-0.0262257401031025,-0.0347943773005937,-0.0199934389990038,-0.0289527104162637,-0.0399651279300244,-0.0243696702754773,-0.0279319463805923,-0.00304792197309525,0.00899901657240748,-0.0042858668423966,0.0191170730824632,0.0142048504943162,-0.0250606363342744,-0.0010137588860847,0.0162395932981581,-0.0342181573820412,-0.0298154585705546,-0.0225925501437818,0.0336874165084588,-0.032928796775454,-0.00619906832611643,0.0260057995267414,-0.0312957713675747,0.0146000097095219,0.0321284476651422,0.0312779429472439,-0.0291596809974741,0.00721952382165105,0.0581976565038769,-0.00411202197945688,-0.0259831156662868,-0.00172572963238807,0.0101094416698882,-0.0041656960560898,0.0177434824528319,-0.0087977073944312,-0.0322463523128548,0.0306712533428661,0.0176454089570496,-0.0257523133336076,0.00410481911223288,-0.00794422114178757,-0.0349402643211845,0.000974687126494957,-0.0152310738670762,0.0129295739580718,0.0264265600860862,-0.0326363204585377,0.0113442836553424,0.00167850692624093,-0.0228939012270695,-0.0204379868969612,0.00542450279174253,0.0305021485633048,-0.0259879721482393,0.0309615988529582,-0.0173481878056789,-0.0246161169316632,0.00211514894377563,0.0214567716504897,-0.0340568446849387,-0.0312423018553072,-0.0221601173831512,-0.00199300749694401,0.00470880077155452,0.0216556538635574,-0.0171791321451329,0.0265178971160049,-0.00363156082408745,-0.00463793577654287,-0.0339437566472155,-0.0357639793767119,0.00253137453366074,-0.010965494393746,0.0169798616828906,0.00710284586993051,-0.0334887663838692,-0.0286833001317795,-0.0160474326330078,-0.0053742242565777,0.00522904575370231,0.0432967371314461,0.000263784035591095,-0.036121260762485,-0.0334775068555368,-0.0190082569112786,-0.0254579569321379,0.0248094275114005,0.0195636053522813,-0.0271691642330619,-0.0221664319559129,0.00247962699949835,0.0327912637444112,-0.24940817788441,-0.0154098207273337,-0.0282133091333185,-0.00398922846377566,0.17143585667364,-0.0167703000094015,-0.0336065949292539,-0.0633373724953295,-0.0344316956596107,0.286716495668007,-0.0390384442477881,-0.245377362819636,0.215616895966764,0.267397995330439,0.0528198728705217,-0.0603467686357887,0.252974239309721,-0.186947854842493,0.0783308999517281,-0.08719866809499,-0.0687263796628269,0.0436560912031786,0.215832864875748,0.210385231183345,-0.169242106603584,0.0632951770798329,0.0378407326104207,0.0886545169019422,-0.0806187830485693,0.0435109027659261,0.114916601438053,-0.0977850056561224,-0.188967267158711,0.124525896628612,0.0604588603815925,-0.125541510594192,-0.173224270716199,-0.213777721710584,0.0824291165815076,0.281484126383169,-0.289581540184701,-0.207009456361807,-0.049750548932973,-0.0506893140890936,0.105262542059656,0.112786725606519,0.133862521624749,-0.106717263917821,-0.123911251742352,0.205809397400527,-0.0685042343051077,0.107569562358537,0.00456791798918282,-0.0886357819758922,0.117775926474932,-0.0839346968788995,0.0191012731915901,-0.0964983522567472,0.0340379939988779,-0.0330389063668528,-0.215483229840393,0.0961273303523829,0.0848993736582165,-0.00539227306717823,-0.0574846512872882,-0.0315219145083847,-0.0688846515020432,-0.00112501855377438,0.0909161608256188,0.021284080071907,0.0400972010845649,0.0391568314888357,0.0205127936634406,-0.0373785033019936,0.0577449643348313,-0.0405893494233901,-0.0271077710226384,0.0212116028941091,0.0442924665722953,0.0185594864697794,0.0816818663603547,-0.0209217804362542,-0.0250990188597973,-0.0508145583867871,-0.0647164517232915,0.0215629628265351,0.0262125334488236,-0.0720481673535985,-0.053542719944563,0.0232497931859606,0.0281747300054047,-0.0444923592674021,0.000120000355833482,-0.0365272025556917,-0.0784313157681321,-0.0241728750531666,-0.0438931475210562,0.0855264297402435,-0.0273114363590445,-0.0446183961157611,-0.0597875636919291,-0.0504142051024646,0.00743429558720487,0.110559842856842,-0.0392505806527848,-0.0304169416936996,-0.037704977928145,-0.00975244126084526,0.029418917856816,0.00818552406203726,0.0596464638716632,0.0198473117237856,-0.00351144270961105,0.056407396002257,-0.0089921514262114,0.063100047495402,0.0430393443239376,0.0479950874052582,0.107952748110365,0.0676138275471357,0.0209923626614721,0.0213327743265424,0.0816729133956794,-0.0129868387336313,-0.0287368794958797,0.0143352789859521,0.0331251571943863,-0.00929923612982412,-0.0425481397093171,0.000148761828545927,-0.0509572480196384,-0.0884271820305638,-0.105506410550134,0.0043143555975364,-0.0336834654082172,-0.0565044325148445,0.0567739747022163,-0.0099789112441266,-0.006485514196459,0.0953352036203852,-0.142041903872536,-0.0691806883759582,-0.0313937336568549,-0.024946749099604,-0.234602534287624,0.00126828811664996,0.000394022307538622,-0.00873052262335232,0.201511938511553,0.00391063149586948,0.00809013443268624,0.12904442555705,-0.0261331772763773,-0.0520610963177386,-0.078460707044432,-0.0201678167288681,0.00105106405695651,0.067924933225252,0.0644439700173304,0.0815985064111847,0.185977233597942,-0.0423109539373867,0.312870458759702,0.01799574542812,0.136681841610737,-0.0412430637462565,0.0597595249345752,-0.102101414876105,0.000562241458340376,0.0840820315864901,-0.0782102548106219,0.0343012166883689,0.0203708072819182,0.145784359279117,-0.0206231441991047,-0.00320538719743196,0.0610973517788896,-0.0571682212264292,0.109937563774499,-0.030894822581421,-0.0321774005661515,0.109842186037262,0.000523873933432621,-0.0117123419223768,0.0255038859998211,0.0017223005235314,-0.092390344092106,-0.0510413250545813,0.138585569171022,-0.0116207452738342,-0.0377673401875745,0.0788893105079908,0.0359924734804843,-0.0345317980429416,-0.0603793046954897,-0.0499966115698218,-0.0551376004971012,0.000284570290923229,-0.0835261988706914,0.17225281598584,-0.0723376057212263,-0.0127828864769917,-0.12606740461633,0.0625909788761989,0.115107001593955,0.0383709070805661,0.21415290605263,0.0409308745051403,0.0134092402428066,0.0369993538199686,-0.00528388771804372,-0.138136588986696,0.125742578521368,-0.108101340263862,0.0636143332356575,-0.0695598454216508,0.0334725731028807,0.000663372657931106,0.0388469559514806,0.0926630680861854,0.18391566894532,0.0371163086018371,0.0783997006878452,-0.108986099336769,0.00793016756169228,0.0491524545297545,-0.134866168604127,0.0435480815905305,0.185604702846831,0.0337752360962186,-0.191030975706454,0.0249712227338344,0.120229205422512,-0.0527574156472379,0.00210785187444816,-0.000610600047975448,0.103975449501117,0.133275567364633,-0.191475794172029,-0.0367784914355893,0.0473118230335331,0.0369951344608353,0.0209926333164377,-0.0463343836334714,0.199417176877405,-0.147315312782619,-0.000803034911384502,0.0206820642733064,0.00855028850125562,0.1122856687206,0.0703233681915929,-0.0488244321716958,0.0323296858943948,0.0928939240396786,0.0599076458317245,0.0951906896430603,0.0169523481506045,0.00915150179181933,0.00957033449370014,0.0028408909824542,-0.0137904555952978,0.0377169561816205,-0.0314105913852662,-0.00334733368907308,0.0210881841800295,-0.0252196434730575,-0.0337547084662155,0.00200330480260713,-0.00878980353579659,0.00351701859426945,0.0151839297136382,-0.0109571913412564,0.0161411243260281,-0.0210600167556689,-0.0180270013543787,-0.00251794254732703,-0.0101305388267228,0.0412788144365555,0.0129821204032619,0.000505381511204219,-0.014639388135794,0.0349680846468917,0.0211806679354585,-0.0142845713349478,-0.0264410549689155,0.0191152320100163,0.0112544644380905,-0.0235311161434187,0.0146013006449719,0.0323252370279601,-0.0361488016567217,0.0308064543105758,-0.0359116725603651,0.00367475606072547,0.00944353379251426,0.0101080148064956,0.0222643384462546,-0.0152623582856524,0.0131440510629749,0.0420996945097712,-0.00570629824631609,-0.00327563184223452,0.00473073438015395,-0.00729222406237881,-0.00773473727813214,0.0314911022379554,0.000494428379291258,-0.0196522731074409,0.0212343596403639,0.0319300623658425,0.0201639363375312,-0.00231064606722309,0.00892768300797765,0.0278101171320438,0.0153397896014407,-0.0407001626215398,-0.0159310708048508,-0.000816079790104907,-0.00548906361133854,-0.0342571509932529,-0.0149303672900421,-0.00712272252477465,0.0366132091464275,0.0341595589221242,-0.0187666519749144,-0.0188574642419619,0.0109751965144432,-0.0292396974066239,-0.010875718639569,-0.0227088774091757,-0.0237721023766851,0.0303266297224002,-0.0245644018242293,-0.0294373025933967,-0.0200350544011152,-0.0228476833129287,0.00863963118336212,-0.0331326198035029,-0.0277464956078688,0.0170066500379179,-0.0204477925902835,-0.0329390899536473,-0.0100397662590247,-0.0105126823761146,-0.00943524167487407,0.0106671075826685,0.00172957777053676,0.00375980843468724,0.0414317700775127,-0.0175709539320695,0.0354153536460443,-0.0204438361749613,0.0231198931257023,-0.00641688281596176,-0.00123034468960852,-0.026770657249122,-0.00184999521126984,0.0151684146288235,0.037725652681257,-0.000847223141740686,-0.0289530839574069,0.034856380132236,0.0179445713188694,-0.00276820707382477,0.0419380984202345,-0.0189267070057982,-0.0333365977473446,0.0207111602013116,0.014876322558272,0.0258788463569315,0.0189220754876495,0.0241017249241526,-0.0205635720777759,0.00571331324449457,0.0303629098255074,-0.00103920629786265,-0.017386690500627,-0.0353743585479619,0.0171024694700419,-0.0260719862051964,-0.00565641118138017,-0.00957326204413192,0.0100981743407039,-0.000210715068022488,0.0363516968240538,-0.0388015949509088,-0.0208745645754024,-0.00407867234549043,-0.000911522646997316,-0.00851970992767363,0.038557452250793,0.0320240549698612,-0.0126366668205265,-0.0102492110923121,0.0223942841560089,0.00389008484848208,0.0102298240676879,0.0338675778700001,-0.0031718308233387,0.00308687626386397,-0.0327056972846699,0.0098642497524951,0.0494134872763339,0.0119694492655573,0.0432776170347929,-0.0197527907864867,0.00648084430062898,-0.0174109838204161,0.0258820060937564,0.00492910963097102,0.0522870549725076,0.0259123814897947,-0.00609771686234326,0.00672623733027402,0.0159385428495851,-0.00127850845755942,0.0206984083598135,-0.0132190669043254,-0.00579391956556332,0.0282510411845356,0.0107273699976985,-0.0397279079189542,-0.0094372390756428,0.00989722894860588,0.0506267905422022,0.0196262471406627,-0.0155949399890943,0.00135080465992235,-0.00811563896943546,0.0483339584439474,0.00262448016814773,0.00561818951126877,0.0326725983725972,0.0272020035668489,0.00489224592381567,0.0391072699241879,0.00405944949743738,0.0323936727375677,-0.00763697777594221,0.0222411186675359,-0.0149216472390542,0.039769635259341,-0.0405970638305415,0.0120867203072399,0.0163427601913637,-0.0185360622475269,-0.00972817308032357,0.0506380460323522,-0.0225796715920492,-0.0148348666668251,0.0951448263057253,0.0550306883429638,0.0716751322077085,-0.03788216075981,0.140211156973036,-0.128855786083376,-0.14017579880979,0.122980137570725,-0.0825442915567193,-0.0262133603284265,0.133896137368474,-0.0255540744919883,0.143699341295115,0.0130843375997165,-0.0746621374410012,-0.106430860645023,-0.0244956679236927,-0.0851292518255026,0.0698675117589548,0.11220206177589,0.116451964065633,0.180980737832155,0.00610723585927757,-0.0717934278026983,0.144718211434909,-0.0100016432918361,-0.123074647442591,-0.051398819607271,-0.0291974119072835,0.00295175844891876,0.00768031202996677,-0.0815387140856713,-0.0565116279869224,-0.0483918994457845,-0.00407595644835537,0.0801089113582995,0.0227272846274006,0.0858315771810933,-0.0283880928207751,0.0332219001374691,0.00686837938342757,-0.0117375676312364,0.0427627532121376,0.0396186329640911,-0.0345363488366622,0.0166381645866918,-0.0816752364312555,-0.0238314536309575,0.0270166192807737,0.00968495251171497,-0.173819597798129,-0.0613585623019838,-0.00342462873603259,-0.134375076074105,-0.0232482988637146,0.113916691301024,-0.00954470835074086,-0.0116986970614376,-0.0649775079750536,0.0698168201363218,-0.0237646909833999,-0.078930633936448,0.0267758171543001,0.0267025140099176,0.0321848214645108,0.0192056429102625,0.00450732871515618,-0.00605288975000709,-0.0276358958179062,-0.00460249458770278,0.0231037689327109,-0.00112811238155651,0.0305682028689235,-0.00779321419627133,0.0178084111997005,0.00190209207710189,-0.00872540298025045,-0.0337618268411767,0.0245192634128973,-0.0324097785290676,0.00664056204328396,-0.0351915822218651,-0.00112664173118132,-0.00429299723363165,0.00858692859813918,-0.00385985953514196,0.0334550627563319,-0.0133577696888789,-0.0207192909714538,0.0191611600304112,-0.0333184361198654,0.000154932585950506,0.0218792179578989,0.021593326499528,-0.0108729947262369,0.0132377530362118,0.0306944891265253,-0.0117200315185623,-0.0351413001420432,0.029519878332439,0.0340365972304382,0.00518437250450975,-0.0379384143194367,0.0285868549359954,0.0281489597994427,-0.0211756819955239,0.015164387472018,0.013025609061843,-0.0337135959444382,0.0332668422580315,-0.0133565516337283,-0.0297567119534995,-0.0117405430219857,-0.0285196900342325,0.0135096606093608,-0.0106641526319009,0.0226413525088571,-0.0154878012603213,-0.00602907829486654,-0.0126814849255929,-0.0291053166412742,-0.0279325873316885,0.0294158025708011,-0.00152908826197276,-0.00816991638498978,0.0273771254448854,-0.0200555069724957,0.00854382821072838,0.0103740620466551,-0.000130330467180299,-0.0163071806497576,0.036072774044174,0.00767768079060554,-0.0105103294037692,0.0199572564210779,-0.030296749311794,-0.0102730676334012,-0.0111366358900489,0.0195785004384462,-0.016396010707633,-0.027056236055671,-0.0256050650280981,-0.0344199708919165,0.0192752359394262,0.00181912217705978,0.0123775983687353,-0.0117458197145646,-0.0334403775669529,-0.0218265176733659,-0.00730679912805374,-0.0160452236960135,0.0111537471371292,-0.0282453298178854,0.0288078753014232,0.0130769737408339,0.00342556862112704,0.0186175583549963,-0.0310026649734433,0.0227910024899384,0.0148784164941748,0.0319308431343328,-0.0306793515249885,-0.0103415410186195,0.00882523574978572,0.00376314190844263,-0.01582883740373,-0.0203864023189845,-0.0225425132714948,0.0167609751748889,0.0219913886069513,-0.00121407119008415,0.000366583801697886,-0.00485363456352993,-0.0239816010225692,-0.00574345632487222,0.0342784445575542,0.0163108627297541,-0.0354166007821746,0.0259478091040055,-0.0370263859712661,-0.0329194659243878,0.0208075223498243,-0.0198139160539442,0.0367866251614614,0.00893574008977079,-0.0118825897608625,-0.0284776642122813,0.0354641602868691,0.00590512811582133,-0.0289383652754748,0.214705711691006,0.0188429814908071,0.193419701566985,0.33668004791906,-0.272042933030371,-0.154360680797468,-0.351148383299368,-0.446628239689366,-0.0122388206595884,-0.165698720251709,-0.0628845956729544,0.28690838960167,0.300539759917696,-0.104175439162853,-0.47471115490549,-0.0380321362019048,0.0443996934725383,-0.332309281072937,0.196582590643485,-0.0944644818601859,0.254015909965508,-0.234093571238716,-0.0211998056458962,-0.0966447583418279,0.200066979733835,-0.0868177798869176,-0.385842987955608,0.183553263601639,-0.111666900317247,0.144357694073546,-0.108401560082198,-0.358384799459842,0.0123294700044238,0.113325816575546,-0.0525168725667387,-0.0217459847448041,0.335468075332751,0.508991237347049,-0.231990021305445,-0.390451230134133,0.446794990241848,-0.0521278449670964,0.107071869201301,0.157514669998457,-0.401078619857054,-0.117061876603575,-0.110135122777395,-0.0114716828062136,-0.233589229943107,0.0100247945931866,0.0106704411602391,-0.253334191519701,0.195777514499241,0.174188420734372,0.342139298008667,0.0479704720053888,0.155069970684773,0.0414001107726007,-0.230214113800534,0.472021600903204,-0.196387563887904,-0.191799195403564,-0.00410122299033149,0.290084965442256,-4.35802659059734,-12.4232421868046,0.776361197387762,3.65749864326296,-11.35463784578,-0.519427239495518,-9.00324318981776,-6.34474024080238,0.8057078636207,-9.23989837522553,2.61249921809898,0.834195895861794,9.40889765337559,-2.53076617615837,1.27570579518047,-11.4029183937968,-1.04500236676231,4.97765194845344,0.648276629160435,-0.251219490219076,0.0505456811441941,-1.84794074846297,-8.83214211627771,-9.62514523430893,-2.88243103768108,4.15662210461185,0.0582574404376765,-0.854834474031176,-0.00976074355204841,1.41566713677106,1.35825232179683,-6.6755810713105,-1.92571684142921,-5.28354369873388,0.571849944955719,-0.64688193260238,-0.480192219013477,0.0983567802476883,-4.14650704705539,0.854970986388663,-0.15465452097697,-15.0264861262075,
