-0.208961627562556,-0.0656891539957028,-0.294108876889128,0.0464113847622204,-0.327885969243937,-0.0887343426884415,-0.00552884573893409,0.245807506360942,-0.131658330271148,0.138990827911154,-0.00234568808848856,-0.107065953325151,0.0789963254915179,0.140632709313213,-0.189829211883554,-0.0764987657236625,-0.201799478530152,0.0316554235467726,-0.0350667161131857,-0.0523235485586833,-0.0340924455654311,0.0975448682999105,-0.331182669910137,-0.104135653042164,-0.344298683554507,0.150656659684587,0.108140295762049,-0.00696868250889525,0.18870207529798,0.277542743946342,-0.140207673299709,0.19534650648066,-0.152536033087092,-0.00577154420309492,-0.121851786419738,-0.101534020656642,0.0821051557739637,-0.127048326170938,0.187214076988784,0.0037763731481493,-0.139702946885326,0.0393185869573497,0.0751390123150649,-0.134579392665941,0.224150031267107,0.100338145194419,-0.0707599847382516,0.116194348099838,0.129669115139496,-0.162346298011927,0.126365574236581,-0.196440637003989,-0.0479878031798066,-0.0261466774812733,0.32262289254082,-0.123711541164624,-0.135200098197024,-0.100919020488229,0.133486536438667,0.145988888398271,0.195532256384277,-0.214089907935029,0.40693735361064,-0.317640187448223,-0.304629338869275,-0.109035348765105,0.013467500600741,-0.0107959722397568,-0.129851322595859,0.080918668113349,-0.0442247677261097,-0.234757239025758,-0.00462537611137077,-0.143092025834551,-0.148271681256617,-0.151837865233568,-0.133243098360497,0.00246106496204929,-0.111047761101657,-0.184762115191375,-0.136319977945883,0.0115950879568957,-0.11652814588768,0.0279040593182026,-0.190341040506983,0.077359244924767,0.0287377734196525,0.00557230317335994,-0.083507912336699,0.0233042717343522,-0.016946444399473,-0.21412145974834,-0.288623764523129,-0.0482486297969424,-0.161252428394553,0.0068274547101013,-0.0726746215213583,-0.386497873002227,-0.205146974028577,-0.0453769452593156,-0.163875115123979,-0.0376378207919408,0.0187935728444047,-0.200294509726699,0.753706975555955,0.967953767318267,0.728474996469505,0.559920705894157,-0.222601316730239,-0.012268997088598,-0.173985286710503,-0.129516844355395,-0.0727623296577866,0.092789995005654,0.0830841359113145,-0.139583923493696,-0.206031275716932,-0.158745463847373,-0.0520933539628649,-0.0173308106478401,-0.155634736789876,-0.020956699854842,0.00555666734674332,-0.205272170421681,-0.0838303559960377,-0.0674322078216021,0.392708089333972,0.0742103052192681,-0.0223282270047442,-0.0152972508807342,0.0413539715857367,-0.0695126686774123,-0.0385862541673619,0.122582026559806,-0.00478806315921125,-0.00182472203648345,-0.00425352473429998,0.00488622767104317,0.0858921363334862,-0.00212061809378031,-0.039600803638568,-0.0583262402524505,0.0139265203196879,-0.0468225305682472,0.123790722181969,0.0102892532640031,0.0021494224917254,0.079935801377274,0.0868636419133842,0.0385773717216106,-0.0482689963533708,0.00311472581234899,0.042758951834585,0.0280386676588636,0.0991843306793142,0.0370775530323871,-0.0572314997030074,-0.0670763596198157,0.0577875765720273,-0.0257154145256875,0.0640481730773478,-0.0650216159068377,0.0209322361804928,-0.0538809638496663,0.0143729246496664,-0.0428629367056305,-0.0619766141610028,0.0423723084473059,-0.0822256832207885,-0.0218812518713834,-0.0529775627971207,-0.0467178716732344,0.021112640321501,0.00778206635479143,-0.0630192289129666,-0.0481457221181883,-0.0131446908130762,0.0974840251387522,0.00979871822612256,0.00450246914916814,0.0890893769774608,-0.0100591921831978,-0.0168249205768155,0.0155476534786748,-0.0273774025697998,-0.0369908663498203,0.0462061957785425,0.0991491372309942,0.00472149696811727,0.0355586390794907,-0.0114952533128381,0.00321932614876155,-0.0214281266561127,-0.0708513606036436,-0.0108207747774478,-0.0230125988695239,-0.0408720354504601,0.00597101597332018,-0.0075495181415625,-0.0221106338732103,-0.0419797943156758,-0.0487292090745051,0.0647755399593204,0.044219477221128,0.0153813164575881,-0.0126944711803704,-0.020226914246613,0.0193484324633565,-0.0333934178388693,0.0278262833002682,-0.00303038581940746,-0.035473788176878,-0.0055179395560695,0.0316421853777362,0.000978495870518755,0.0360378372593407,-0.0323625091394734,0.0306778383336568,0.0177184202071896,0.00568854297219986,-0.0543310869628533,-0.00286849758296395,0.0200677429532639,0.064051622889075,-0.0182138207662732,-0.0369441242781944,0.023212453507508,-0.0204419527722214,-0.0125482431929424,0.0104966117424404,-0.0141656719275961,0.00370012296672816,-0.0390034289071998,-0.0210985458754193,0.0363369871679816,-0.0275653232594845,0.0174092329853945,-0.00736608117740378,-0.0338909056383745,-0.0324723563280219,0.0315932082206915,0.0199872635918728,-0.00417175569983887,0.0110088953283433,-0.0796845400940785,-0.0303843829334113,0.0466569450144561,0.00890941482148387,-0.0325755736673966,-0.00231866700237956,-0.0184260957136704,0.0145388242697441,0.0534292190354873,-0.00312142303611011,0.0316776986597249,0.0447184928063514,0.0236735058767015,-0.36684641926245,-0.113599551860399,-0.277690661965897,-0.0983013015115507,-0.286320595472871,-0.177345627329036,1.00017864902294,0.125370374553255,-0.094543351403797,-0.205909298834033,-0.177853891039887,-0.135658005957353,-0.0976081687213089,-0.0783645073172515,0.0432566994464516,0.79320874462015,0.724933726592502,-0.227238510403239,1.0505955555897,-0.0875495003364582,-0.15773113054688,-0.0387009850661009,-0.167882419181493,-0.163627568693223,-0.287189076674472,-0.179303991596005,0.0993427768065813,-0.0849219237219046,0.109561376145347,-0.224365129303353,-0.401015982322159,-0.0485143266664963,-0.421709228552208,-0.25338033778718,-0.230552498757849,-0.117036491922193,0.0145075156128668,-0.338824456579805,0.00268350094481668,-0.00939117853441509,0.0221016997919898,0.106016946921965,-0.0537626308923106,0.0326040167737147,-0.0841107302064449,-0.250878099193121,-0.199865424379401,-0.102466868684487,-0.27935359256516,0.059954778164964,0.109198785825992,-0.289902856163678,-0.138473679379361,0.158184090572938,0.0298186191775214,-0.275812077947275,-0.256316471375743,-0.0862731094161684,-0.104705239685502,0.192861794467842,-0.120153420964955,0.14260968040298,-0.0780283589227644,-0.100140804826353,-0.161155897477153,-0.0812746842682775,0.014976187379367,-0.164372803513196,-0.362714069237972,0.0784126809605818,-0.264191652175089,-0.280335907922526,-0.198791223830939,-0.196404160576205,0.0716414165828191,-0.0204546378880028,-0.347854110202294,-0.133064488511742,-0.287959436149248,0.028149452413349,-0.258284182774305,-0.187615932032577,-0.223183902573899,-0.197122350476349,-0.438026967120109,0.00107709931667223,-0.0554775859316774,-0.260033704533482,-0.0397628995505102,0.0232804606473549,-0.0760664605378082,-0.190664794613349,-0.28807014517246,0.0407575176960022,0.0208900197392741,0.0857713075333457,0.188032821135279,-0.0467334535795108,-0.0931498256347903,-0.191065628173947,0.0875433054074273,-0.00360664739754161,0.0452795860737028,-0.0648387142122268,-0.155610111995297,-0.389574496827919,0.351525138834131,0.415263530629075,0.1448157273772,-0.147540214334588,-0.106908714371661,0.402504718332524,1.02714328909081,-0.326483624194538,-0.0676554561051274,-0.0295754488996403,0.0695315020328364,0.408431698521717,-0.102827531419669,-0.268490912669358,0.15873520806536,0.628041863346506,0.5186705854113,-0.280069150966475,-0.0644386495863577,0.00906220029692893,0.023874195290942,-0.175699848158587,0.0597202023078967,0.0844327265690187,-0.174328268539157,-0.0937502902959405,-0.159836188285677,-0.110093330255221,-0.499940426178621,-0.04107037553007,-0.265380044389782,-0.422201634948939,-0.0415455976327322,0.043380148589153,-0.219252324853781,-0.196135801765394,-0.0864316145505487,-0.105684562546067,0.114782820353937,-0.00241533692655799,-0.068822590009976,-0.0511574189847047,-0.140836936638244,-0.137891141614578,-0.423153058606291,0.0882147425469404,-0.0334275842000793,-0.00207909977389032,0.197458423501628,-0.151468334453078,-0.0691060247643805,-0.0603854468171439,-0.305842461253587,0.153047306832721,0.367951808289505,0.522685475386953,0.375120817902285,-0.217871353614293,-0.219987738789113,0.101559628366301,-0.0840944619321121,-0.140567946900417,0.109348838855244,0.0050625331567775,0.17911727879391,-0.202956441630689,0.30149732048027,0.00920808134881688,0.181155222563226,0.257332246195321,0.133587227305579,-0.363604487622767,-0.228034506069299,-0.0796126953331392,0.0407442878996438,-0.0955438758954237,0.027766793024832,0.259963993577686,0.336039914039384,-0.231682769103141,-0.0222544762803866,0.0482441453833111,-0.0204406904197852,0.248814226061001,0.140345891647242,0.108517459559632,-0.179845190268063,0.185412189322412,0.11638723190036,0.0141845514416374,0.110133296076414,0.0369447672016709,-0.166471924804676,0.0698216852515667,-0.16363368493889,-0.514794379521168,-0.175126573985726,0.232787900618668,0.120501222578486,-0.252214414522691,-0.13409633498949,0.062042076070012,-0.0308253862978613,-0.0540060638528709,-0.356919540806445,0.0164377620569206,0.57086709748072,-0.0354106456776943,-0.370106805634269,-0.0449539444982213,-0.0248407388300739,0.280269888618009,0.185218941994414,0.223686130526173,-0.0637429615632945,-0.424922488374214,0.291439943185076,-0.26428533886697,-0.342052692548344,-0.519828119053175,-0.222438609499571,-0.0982690903392515,-0.132435252755555,0.0604175824993295,0.12785758586468,-0.113553579897505,-0.169361672005985,0.0526438617565614,0.0309987631213717,0.325926020867491,-0.30519491078557,-0.088781503930838,-0.217713360738836,-0.0527981300274949,0.302064730400348,0.137740677904313,0.255084431355975,0.0199458204746896,0.254006120540528,-0.0211977654600111,-0.138255260428249,-0.106053065109655,-0.131576927296578,-0.270651213554438,-0.261255541555071,-0.00850020751506396,0.565811639945453,0.0155760105425585,0.179667987506933,0.139736713454676,0.142792440754068,-0.0521318490910196,-0.0339723841974165,-0.290893079982719,-0.329070357274551,0.594286544394762,-0.181367816617745,-0.113165858293259,-0.00386231526467625,0.198428946969902,0.0645868001645924,-0.0492996121571968,-0.163367319124462,-0.0133194121670677,-0.228960265584798,0.429935594760602,0.119048558064934,0.00620736297037473,-0.101616512915066,-0.112980550559612,-0.518555010335525,-0.589991758200913,0.0844035149495605,-0.18061818760576,-0.0611373138987919,0.033408806316856,-0.0764900343012857,-0.491766293561742,-0.0262711502146791,-0.0591076187506902,-0.396472303525076,-0.0464813413748817,0.591695844020408,-0.0195196856336506,0.436926254168682,0.103797213663957,-0.0407800322041209,0.235953767302129,-0.184515605974921,0.0766700434590507,0.244738369668764,-0.140058562623833,0.582574737332122,-0.0519969491872303,-0.296434271105023,-0.342195988004407,0.0574542919661799,-0.266472293868452,-0.333708849671513,0.0481658778138889,0.0664341542619287,-0.283706000805118,-0.16444859286523,-0.116401160902433,-0.0358882192284065,0.244500766738673,0.0942615345043699,-0.106471334216441,-0.00135781764251973,-0.264594825241899,0.279968141379395,-0.036927410320261,-0.16113425984817,-0.116092232344468,0.169961060298856,-0.178837201985671,0.540805283802512,0.285424257568132,-0.420219408389072,0.147993302299341,-0.0617794100104012,-0.435550077514012,0.0754702611537381,-0.271086106567617,-0.0596633299613466,0.184279064482742,-0.0483448312521315,-0.0906167566629767,0.0309679360612509,0.0889461064392921,-0.016388732860865,0.164396235511746,0.0605412787832117,-0.377126092757772,-0.231425720889004,-0.0454900514079868,0.0315793299097143,-0.0340212788210934,-0.227130632927803,-0.1975589893577,0.152421825680459,-0.215893917070686,-0.313965321823634,-0.159585768937427,-0.134560986678728,0.0502720457622039,-0.297882698713551,-0.272093731401868,0.194033085368532,-0.347392481543432,-0.0395175340125104,-0.251697384965337,0.44636205485874,-0.288141819394813,-0.350689864825598,-0.147978850347986,-0.224558377998619,-0.329281586553289,0.199696954084142,0.0843754568178495,-0.0786484513764056,0.0567699774028056,-0.0693159283961681,0.469623002094712,0.305975380272999,-0.0652364873427185,-0.24091911417339,-0.0755593771794081,-0.320425977218578,0.398949799441513,0.304008840066981,-0.163945784527143,-0.402476616792574,0.729162031605751,0.22398112527346,-0.0338274487399368,0.0862551124684569,0.226321803667299,0.0761320661213897,0.0592685976301519,-0.260720527498569,0.0304772182001502,0.0528675159594931,0.0108730257480083,-0.355749808777209,-0.0962375128833849,-0.0795927920281387,0.187026542278498,-0.168492033912651,-0.151945756025495,-0.0023893817305828,-0.0338160331382644,-0.209360738738887,-0.0575782302560751,-0.237207867912034,-0.0858125952797252,0.00705756950875398,0.174572356425484,0.0224012385829554,0.289418069851846,-0.152376230017937,0.211200716489036,-0.147789706841393,-0.0692763170025201,-0.352904210308445,0.213039460183898,-0.119412629536541,-0.0903105104581764,-0.39915772449068,-0.274104768943701,0.047028136085446,-0.162890011636848,-0.020181558097443,0.0187409016863541,-0.0843772457073059,-0.190186380607545,0.0688155437847132,-0.111830375860678,-0.150197834611549,-0.079057963002159,-0.121673618485456,0.0957641851541799,-0.0608731873543457,-0.0167891218101879,0.160039208266406,-0.389712677399514,0.399850458598397,-0.125734361348574,0.486396642648599,-0.457788686670275,0.168088296063334,0.355360233853575,0.27667116459373,-0.202292424327269,0.194456025763226,-0.0483528484319555,0.177838487744601,-0.0304146728822215,0.0629356685962598,-0.305419695135633,0.113348556196491,0.247138287972316,-0.377513996809685,-0.410469597993711,0.118261465474345,0.488243559611906,0.162643280841416,-0.344840828996562,-0.180873934174931,0.258145989526495,-0.0904340365238125,0.0615126028381234,-0.12922183761051,0.0804185204785366,-0.0810599234371984,-0.0878885111914215,-0.0814581117700246,-0.0520926553182261,-0.226129542892444,-0.517895397289259,-0.151481190854418,0.478905750015139,-0.193822838584785,0.102520354571521,0.475860476979231,-0.291823959905601,0.105413587438695,-0.159204267175767,0.600272899593928,-0.0976843205956364,0.100289701632148,0.208558145392999,0.10109077739316,-0.320079110910806,0.00807091550458361,-0.257682689717333,-0.415775270768763,0.0446293716660851,-0.212394047498306,0.167496165913935,0.0395006414069166,-0.0625434021345666,-0.266980513976234,-0.277982662472236,0.213962195096138,0.0071878047824348,0.0189937310482013,-0.161188230245476,0.0482832171025564,0.331393248166095,0.0342737284094883,-0.347635917679799,-0.211252696546553,-0.0178762771374781,-0.0832126336337935,-0.0604781461667814,0.193240368066467,0.191382542999887,0.0572549582210235,-0.0389873610205858,0.385000353485468,0.0381210523603874,-0.327613315308114,-0.26945606342188,-0.208851608679496,0.254564229853981,-0.50457640750335,0.095779023119025,-0.0169022239668635,-0.488433417036512,0.325970737326843,-0.111455836378542,-0.479372765328041,0.197756154193169,-0.248851223929843,-0.138184732447291,-0.445806440985682,-0.224653382603959,0.129095117355216,-0.0172384851828855,-0.431840519618177,-0.399257164287354,-0.00466065166715635,0.144496161374901,-0.437324652714327,-0.0134370550120432,-0.0600871470337325,0.261752959107734,0.35785418178524,-0.0647674093628653,-0.224257330572969,-0.0387639266750547,-0.289710753493191,-0.33427191562899,-0.205112753071284,-0.417730711523089,0.190042823176042,-0.166515726213056,0.104025553341343,-0.194600405247459,0.305900216159282,0.00923128790179402,0.227528950222605,0.223996189576111,-0.00618498258976976,-0.0243593609877663,0.139612352265405,0.186646998078978,0.149244621273771,0.070225643007734,0.464555477171193,0.0868251842806683,0.062850701238324,0.00642527548450064,0.161151262070702,0.397181856428901,0.291557394421774,-0.493251887434514,-0.375169046556629,0.227097232507262,-0.0500723573470659,-0.325627293861651,0.017650120051084,0.106773643490677,0.154950477329608,0.243181553863088,0.470459847540833,-0.29732461115916,-0.330095412480456,1.56252603857946,5.04090029483379,-1.82336901756337,-1.81288091233674,0.81760280400666,0.594977338413061,-0.572410261716637,-3.05750952552245,-2.4339113130708,-1.18623671451191,-3.37722428826071,0.235978664115129,-4.22489460968646,0.838474589381721,3.34444738436853,-1.24709583142244,0.577441518097449,-0.60500325504799,1.6367315842282,-1.11448553633045,0.977552881248323,-0.840688272690661,-2.40443861154735,-0.622918563304469,-1.98061345435064,-0.445075786394932,5.60271206556555,-1.02524833844388,2.51891352475683,-0.0651076434895222,-0.204077099314011,-0.92643185013286,1.60395915527705,-2.47896845312873,-2.55139668848716,-1.17671104092065,-2.73198120004381,-2.64442833476846,0.169329378894176,-0.991098296032697,-0.813717283841476,1.69456845159187,-2.17626447394859,0.788608765430646,-0.522300181548039,0.754108674165008,-1.65403678001801,5.10751069307027,3.10828831721424,-1.29026810055163,2.74133461570104,2.37614674098744,-1.70870646725785,-1.24395717490969,-0.612099525812722,-0.497879076284405,0.868332866958227,2.69981113543551,-1.72992896779873,0.724649315203262,2.69244163326178,0.499104321630956,-1.43016230732919,-0.258358429560321,0.0615644681708287,-0.175765254677877,-0.304102601812097,-0.279667450275534,-0.0711770292856264,-0.204929666667926,-0.0773418473786562,-0.25286485560717,-0.298822129957395,-0.233059510071348,-0.235649333243785,-0.215276734290458,-0.265269668188078,-0.192143730709357,-0.18227027182052,-0.171121305009756,-0.191745974755997,-0.0509956199562323,-0.21240677009973,-0.105429967983144,0.00458790108580163,-0.111150462969207,-0.210107144337241,-0.0244201496886684,-0.194604032339793,-0.15892384755545,-0.216970247115333,-0.0617632240890011,-0.19051968477675,-0.0478436742065635,-0.0655613039164441,-0.107055244247413,-0.199685861699849,-0.0490163850078897,-0.235693420006898,-0.198419223762162,-0.198008765501265,-0.0566226208701726,-0.0438783557830192,0.0218447631117694,-0.139503533281485,-0.0901545293288346,0.0341126913009447,-0.0524397427279933,-0.234288781427116,0.000349760933027651,-0.143552405029324,-0.0800813747331379,-0.163768475067246,-0.126580520126533,-0.188626301595185,-0.122213383404891,1.25386154999719,1.19064551351218,0.577163551748841,0.618200881932369,-0.145440748962623,-0.0134827674001277,-0.19733150825812,-0.147216776185287,0.0812326902188631,-0.0779688433047031,0.551873000240266,0.610133757899008,-0.152923174620473,-0.0392681414136229,-0.139096779007505,-0.531933680031648,0.833503960908339,0.645435818090355,0.0729278878031999,0.0846543311492001,-0.0482954794828426,0.0271847917256662,-0.316939418576648,-0.0783915623989778,-0.187534102781098,-0.049097141187406,0.782784178266603,0.831368249192261,0.0375114598870689,-0.0179721647998483,0.387692971374939,0.251642959771728,-0.170396051600829,-0.0180442008249414,-0.28992565135971,-0.131226891502777,-0.190908699946209,-0.152191680197924,-0.155142173118549,-0.102140121247721,0.15041959960886,-0.0381661821425452,-0.163972454672116,0.0570708555353083,-0.198237612646967,-0.285701941798491,-0.22899544578196,0.00198503898669917,-0.16871723093746,-0.184235905707244,-0.214836551247341,-0.0896954340046874,-0.169952838874654,-0.15979866064212,-0.3764305844383,-0.283070889273237,0.0551376598437658,-0.0391501999744037,-0.103339721662789,-0.209481267139297,-0.0254394665398441,0.178320558522139,-0.212409362711376,-0.0675353395388547,-0.0272731356745751,-0.0677383910794403,-0.215314736978173,0.0620018379623038,-0.044273992864608,-0.193543097815602,0.0679042263726847,-0.0217062705097406,-0.189140049811114,-0.135564646547245,-0.095745467334478,-0.0051311084302145,-0.152812332710321,0.182328633071691,-0.244791336909737,0.0758202820455422,-0.155235861356273,0.112177940061423,0.0135383937413716,-0.000429760582041319,-0.139934177185092,0.248933124382245,-0.115971497867975,0.106521246389528,-0.244565528544606,0.0391289123346859,-0.0144349438283512,-0.00651543178797508,-0.126911525024337,0.117418929252273,-0.0975220738851071,-0.0503634666852329,0.731699843274453,1.05414080631505,0.794110694892575,0.774850693378557,0.0280363489700053,0.207789841868653,-0.0211813694908994,-0.114965238322977,-0.122263805110791,0.00282163050745837,-0.184101195356041,0.027647308972956,-0.0002360586712634,-0.390515778636443,-0.318261208332503,-0.00340685379247722,-0.140244736459452,-0.1744087158507,-0.0663170356298775,-0.360325568632091,-0.189289523967866,-0.159607431112871,-0.165630134946877,-0.393579508973979,-0.111825054750642,-0.350865446733647,-0.174699159499411,-0.138446562545456,-0.205816224822313,-0.184554062631415,-0.166397787357946,-0.323826967249178,0.00369386881340011,-0.143922460077797,-0.0438953512463964,-0.254770142499904,-0.0558385539848038,-0.27953011293051,-0.127897389858935,-0.0756781321146708,0.0686110584207524,-0.250992312587225,0.18338124034914,-0.0761848794701445,0.0627034489119213,-0.242104817070523,-0.322303408608751,0.121743198077269,0.105113110383495,-0.015964160184234,0.751425862147989,-0.25796066911928,-0.181583747039548,-0.121905953049405,-0.322704777238613,-0.137135813049038,0.0478861322906436,-0.0751549883333977,-0.0071283255597725,0.118213026999282,0.337639217521911,0.429933349737555,0.659409148156049,-0.201667004751903,0.37009935735894,-0.0323393775119975,0.257601898885925,-0.0935915762848604,-0.414472383504753,-0.0371453478335363,-0.0251787069670232,0.101050032738187,-0.242901674980109,0.267080986420488,-0.117566628636278,-0.295635910840381,-0.319609101522017,0.170706803669802,0.0760697592757023,-0.293983762912746,0.125335829250673,0.0254845466099591,-0.358442462620286,-0.0603865880328532,-0.0300236531669897,0.150667964489473,-0.195204021309009,0.197973722088667,-0.159127383777746,0.144470658033446,0.051650318170235,-0.186412249864992,-0.178674215141431,-0.295482876351087,-0.16026539669728,-0.34319081602765,-0.230904469155894,0.188450245939758,-0.230835121255175,0.135266982780264,-0.309964976173373,0.0561724470549081,-0.0545094321989766,-0.0437909397161259,-0.307206246285454,0.0784367584426105,0.043129234374336,-0.0524198639417196,-0.255293792859389,0.262446828400078,0.504691643653037,0.474455019150337,-0.118977015326569,-0.226453961476465,-0.0748877253872559,-0.427039024937938,0.0102686651213715,0.22164683169021,0.0424162436011758,-0.233797259372162,0.616783396061812,0.416574522105164,-0.0731126283750388,0.00795151299203152,-0.393235982325667,0.0618017610603899,0.0408082709713199,-0.111519694484283,-0.142141030269129,-0.0437518734060084,-0.0694401934272882,0.0532703367665028,-0.0466760400167287,-0.179024492501478,-0.134066815910131,-0.197916681631325,-0.214479051988375,0.141210151535085,0.00456166870608703,0.0842298760422208,-0.0944949271027249,0.106474619150798,0.0139642318026522,-0.132525880766276,0.184857124484739,-0.00378467259555154,-0.351566106775083,-0.114414526930008,-0.25723722414921,0.00716986620377459,-0.227022889589949,-0.113332023198208,-0.433444392999477,-0.302123392005591,-0.146547020859019,0.0685165730094574,0.0261003007009765,-0.0844550549249115,-0.0241200133607637,-0.028898266879491,0.0163845598437942,-0.208054725644159,0.14153954274489,-0.190569692053946,-0.141397636068964,0.0274287894204968,-0.0504505403403704,0.193633675882742,0.124193742944594,-0.151586230725078,0.239390827705649,-0.265323291625191,0.0425851895429243,0.0966125890370309,0.0237238027442011,-0.0760147234034784,-0.174965786424462,-0.0339120805837724,-0.244064689767002,0.0556204890847985,-0.0025506515378082,-0.0173297892838829,-0.245833504329378,0.019136184815717,-0.203368536435075,0.0545120605209883,-0.213866225116659,0.223899745328115,-0.191219951881053,-0.031105164007673,0.0620921976227556,-0.203028226772834,-0.188169291679646,0.25746986726201,-0.0202441300688241,-0.225877775215946,-0.0454620746268712,-0.230153859121151,0.0472736045355543,-0.16268387332599,-0.0820634919698755,-0.0434824770590391,-0.346671391577274,-0.0246393312781158,0.410390078864436,-0.0588533186033501,-0.017109518838394,0.251208604498003,0.136604633969231,0.516678735002628,-0.197298901112678,-0.158103532979745,-0.13387212841029,-0.227844298269267,0.0318636821632586,-0.421556737319816,0.0905035637226764,-0.225121210106073,-0.0519832825090666,-0.293879407212787,0.506730843166686,-0.0681909654452158,-0.0904103333821863,-0.00747057257869578,-0.100058933816773,0.0340273631270623,-0.454327956345171,0.0145934787332452,0.0596715933473185,-0.13191272874172,0.719925728518047,0.413276933794617,-0.177837047861804,0.0558423823761079,-0.225272017515544,0.0668085020379933,-0.00653645547035855,-0.139865219697364,-0.200670514986254,-0.27315656065305,-0.172651328442721,-0.0513875596767157,-0.0448447709738898,0.00363226210975584,-0.0489560627891494,-0.0918674305540963,-0.181864301392956,-0.249098625554477,-0.244754979727481,-0.115987097363703,-0.17522111487929,-0.0431677103655183,-0.134948754058161,-0.0894265024307276,-0.177366846243601,-0.15029488214291,-0.144673159943371,0.080123015490915,-0.204657741061618,-0.183589778844174,-0.204726376453093,-0.154802852204337,-0.154162779133582,-0.0839455857270044,-0.165757717228214,-0.0319279795218982,-0.202471263324236,-0.0940197439725685,-0.02225404319555,-0.336211609469874,-0.341393560278743,-0.0971082072390103,-0.0126827177633302,-0.0440111776829833,-0.0823723422299968,0.0200171692785917,-0.176889695167835,-0.0157436157086253,0.137357103802271,0.00466181905619199,0.339711906842467,0.52738944357828,1.18624577686961,1.11901090776219,-0.2122850215995,-0.21884503368626,-0.239232251031222,-0.191505582543019,-0.0985157284034011,-0.114432832349759,-0.0792188988149984,-0.0815657176714524,0.479977296546002,0.688806344105551,-0.0188726909082217,-0.30113048255152,-0.0139345679300149,-0.00464403433064448,-0.131721001361445,-0.13094048157548,-0.00663333308784836,-0.179116816291076,0.063325682403939,0.129422103389019,0.125400841629184,-0.0638368356982972,-0.0818606374272648,-0.0439049804880084,-0.0948426289373943,0.00456500395451659,0.169251376105253,-0.0135861376503049,-0.117634081568679,-0.257567001961537,0.0782290830882294,-0.0676968177052513,-0.0850027480071872,-0.0715006966139148,-0.12044651732878,0.0642859823254224,0.06218746125321,-0.0485298046361056,-0.0328080021714901,-0.133746078469819,0.219773201019976,-0.0594737548684962,0.0336017427737969,0.132146027060111,-0.201593971749788,0.121844598416302,-0.0490164348615117,-0.0634402582152849,0.0777252163341399,0.15293210023625,0.143744554744803,-0.00533168127749622,0.362275971352745,0.132088396989973,-0.168375116464337,-0.091500312428781,0.310816045938508,0.00913154213645458,0.0464762408341496,0.183070666896106,0.00367749861405806,0.08390755576027,-0.378313920229817,0.000858748569289819,-0.184808321944322,0.0226364371109052,-0.143664689669677,0.227770633989489,-0.105433328254702,0.0270963496760755,0.130091541501803,-0.334889452603634,-0.049233899097883,-0.141904562927242,-0.126260839918866,0.291750618224365,-0.146715678003761,-0.0827171202364596,0.0613283868319937,-0.0924141092160985,-0.0641782380711927,-0.01072201119968,0.121518880321599,0.0500572836753558,0.028173249943147,0.229870265497237,-0.0831410454910813,0.209210930321826,-0.0651038165432494,0.00879014500663787,-0.245885063473797,-0.239034163387563,0.0945048649713212,0.0258372267135711,-0.0233392120224885,-0.151802178900947,-0.184257621896484,0.140379078283132,-0.320487843172203,0.246269154830007,-0.136382364611726,-0.271394886290741,0.0554026938734885,-0.184207767647256,-0.0291528202728193,-0.017427991859869,0.202619268154168,-0.396657089068348,0.0464834771230793,0.120596278863134,-0.0449413774272902,0.134999047346339,0.134024551951573,-0.0452912198921948,0.127329550011343,0.215003763306517,0.119474360641427,0.271367087079328,0.0982062472389532,-0.234507781375542,-0.264030557220832,-0.0987183048787134,-0.275914300222885,-0.172743790411826,0.135525706623402,-0.371824104667261,-0.00468260874803267,0.0460287391751112,-0.491273617830254,-0.040542851946493,-0.0159220946475429,0.0213484338752596,-0.0771231589761717,0.350199321972145,-0.135392273597544,-0.0325335566380105,0.461886643471603,-0.0066188146116085,0.0678539952055582,-0.374009455648089,-0.129704525427109,0.317955871534327,-0.00290543795959012,-0.0843093420274302,0.0614977939906554,-0.157569779098529,-2.74293332250527,-1.92873194353346,-0.800544991715602,-2.90958738296186,-1.04459679018545,0.99735226061121,0.6863582521727,-1.73689214882294,-3.85842408987614,-1.30666018624837,3.45030103898096,-1.31486857432005,3.30593969234599,2.67406751369021,-2.96579724819031,-2.03232824510261,-1.3512627580818,0.558939168134213,3.324817414023,-1.67494074944087,0.766234029811924,4.89972170802116,-6.07592581765981,2.40814401493959,-3.4763041162825,-0.793731951957231,-3.91495711161556,-1.01828901473295,2.91855987460128,-2.91261168023401,-1.57246233438159,2.288968746036,8.12698841281969,-0.945912381282102,-3.44790020010359,-2.80327863714733,-2.32744621769489,0.43489015860657,3.19341351760616,-1.4053530049369,0.422917379695548,0.308291964972341,0.675466918334364,1.14086115805871,7.20081026031691,1.81849646359102,3.38672561106917,3.69538443535199,-3.05020204727122,-1.87620715896102,1.59949783177007,-1.71026259673687,2.12526380481892,-1.64127076915906,-0.250908168863654,4.07844325129553,-0.949089019245711,-2.09839878238212,0.418720346307217,2.00823540260809,-1.22328523155464,4.38931116018493,-0.201438424990476,0.136724282520154,0.0394905542008436,0.015102157858422,0.350484780819612,-0.107312450280386,-0.0310550518779269,-0.130568285131799,-0.265996405168592,0.10528651688871,0.106242381893997,0.162742519271566,-0.0500425872918047,-0.426927867355594,0.0857653090383812,-0.0856479718186748,0.0962932665248065,-0.192721305820306,-0.121430237989952,-0.157911302010967,-0.107935018128518,-0.239841734023629,0.105358184372962,0.0425682350982589,-0.261971621954034,-0.0294687456783364,0.0722590188276106,-0.0928499575856478,-0.116042032944702,-0.237831645922168,-0.571061710406116,0.0654230527364331,0.684935984515021,0.538926540176693,0.179092985763683,0.254038444315513,-0.129239074428147,0.581828623545374,-0.056507725367439,0.38785140637175,-0.215393446954141,-0.103026340197059,0.519530449428681,0.0898898587840812,-0.0667856649430421,0.0359862148625441,-0.161127397404241,-0.058879607940781,-0.394523249273347,-0.234367708494052,-0.1872392706108,-0.0883331641501207,0.0703810913849978,-0.176002292607341,0.0262777353334225,-0.109425203191632,-0.310321143431307,0.00417797997089636,-0.0385360998141968,-0.2409616677973,-0.097219024849497,-0.0827187872115807,-0.0347119027452346,-0.184851148900306,-0.0215723313857434,-0.019597873030522,-0.0051373692996008,0.0589760592977547,-0.0319482851690873,0.0105217014367536,0.000768520224035424,-0.0237793382212155,-0.0131208076147872,0.0551464314167263,0.0480362385578837,0.0227043507236088,0.0353980884771011,0.00702954418192188,0.0124741104418466,0.023078241949047,0.023989332362597,0.0675803513582253,0.0345277933232874,0.00570066019730434,0.0330816716748615,0.00371422398730132,0.00767876706401857,0.0347326143833592,0.024937476779908,0.000178033686480319,-0.0327838620632543,-0.04061025210393,-0.0207930001742015,0.0444888770040958,-0.018959861937541,0.0140751337257699,0.00821916796600321,-0.0309926049092362,-0.0217590344710045,-0.0286697858583683,-0.0236363426131811,-0.00587129351899902,-0.0108779983933484,-0.0305414017727709,-0.00371869760996811,0.0360207306361773,0.0257594137096218,-0.0421183137583064,-0.000478610991628985,-0.0316338990073704,-0.0697773303098596,-0.00969113702695632,-0.0222352345880569,-0.0246979494559657,-0.0194712389279843,0.0563224135315445,-0.0298232148100448,-0.00874193323774306,0.0276237047288434,-0.0084161421266654,-0.0308697816162314,-0.0245981457679878,-0.0112732271869174,0.0499453335057582,0.00227519459811316,-0.0094985949142868,0.0389962926990856,-0.0208254733271865,-0.0522268095590216,-0.0276413348520275,-0.363713559628651,0.0118433270119903,0.0571577730842657,-0.280267898379028,0.201064699340466,0.0789658980658931,-0.31449183136513,0.140857223043892,0.0695582001945337,0.051222456315954,0.0203163134736088,0.0837640363805091,-0.119006383059497,0.028638371529482,0.118042473788207,-0.0511318552599126,0.326154359534428,-0.0384999798439518,-0.0930193348869287,-0.445025333840746,-0.12691720826078,-0.00527639928754094,-0.0804357884488103,0.0455694317524332,-0.1675456453073,0.161754599832483,0.458885110506914,0.473065031425453,0.722290394736795,0.435798190803954,-0.322048304051552,-0.0111734140231303,-0.186184263453644,-0.294322540638535,-0.334686127080293,-0.131326718264659,0.0190490335527892,0.107523436697329,0.23535648457078,0.0539106767017799,0.138834610217246,-0.00321571736208879,-0.213953655991601,-0.0393718403372297,-0.216041295345851,-0.206042572542626,-0.266811853621007,-0.254755993899851,-0.282995144472494,-0.146632221143548,-0.129981959480825,-0.180519592642482,0.0663689957533925,0.114311683010518,-0.286582129788065,-0.153667511052776,-0.19092008262045,-0.246273081252315,0.0538685405983197,0.159917920151067,0.0529302141406467,0.0294201388760007,0.0880359977774568,-0.134409507382829,-0.35290392565093,-0.0174817520003705,-0.181765078089148,-0.248799784853076,0.137204439457399,-0.164331079927823,0.0410390872180267,-0.259571892394105,-0.258727755094903,0.0908941037905027,-0.209905763839827,-0.23552618471568,-0.279495864356545,-0.240725101220542,-0.324804552969327,-0.186175031927081,-0.113290088168088,-0.0692296491589062,-0.0316430197333789,0.0135492227579256,0.246880553131016,0.273392076344191,-0.10065223705335,-0.294432737496221,-0.0314984797196015,0.0415135586424932,0.60156837844239,0.602460786074998,0.902310266117959,0.954683978562012,-0.15846568176941,-0.127369288702746,-0.0027941867989883,0.290241469973296,-0.0347249966471853,0.0799154852161313,-0.244080402477203,-0.237826450397723,-0.492772386515323,-0.155470073604205,-0.462365690218224,-0.186721754681441,0.0549286580870909,0.0703219434782182,0.072108257224054,0.00374955982449331,0.0107602351410761,-0.135894524029741,-0.129701121633378,-0.0954565367241498,0.0686044233406932,-0.279637511330584,0.0101331960474038,-0.2895135993797,0.118953973671381,0.107267490631461,-0.0708418133737578,-0.0447125067287498,-0.121143849073505,-0.00362525374967244,-0.335029655312936,-0.0535453079519034,0.169171411949917,0.0173147549368687,1.072955445209,0.213273879954354,-0.443159089092698,-0.0085302149875475,-0.269234787221971,0.0470989056324831,-0.0583929049667557,-0.128605731252261,-0.124329647066536,-0.100819786485961,0.271086730634918,0.558307727493096,-0.129252100657703,-0.210342286838265,-0.124123704987498,-0.230463725075105,-0.371325211712621,0.0595725894275153,0.363862363755129,-0.194829936222393,-0.09603386178964,-0.258720661644882,-0.14313107891206,0.965953545205389,-0.237970770288345,0.125909593595528,-0.0113538902150811,0.00903609103108581,0.145119428465435,0.0454909361923962,-0.296272506223835,-0.259671132763073,-0.029791110764756,-0.384796224142542,-0.284000226619836,0.253333653745065,-0.127805567154601,-0.160687127463563,-0.107655133506727,-0.32090175286251,-0.256687520403691,-0.252862194088842,-0.0255653256490857,-0.00469176547746735,0.154857751901152,-0.177322881343746,-0.122821409643807,0.0788370520855505,-0.0928834973235668,-0.252746407591477,-0.010957532842188,-0.305018349967471,-0.166126802063281,0.0793274380976779,-0.220692048665852,-0.135650974271981,0.525133905984811,-0.0638425686552295,-0.319263637494901,0.0559966278570379,-0.241544255980922,0.125791542663826,-0.0311422066815603,-0.0286267005264742,-0.080884287392755,-0.175805414664458,-0.0669311212175049,-0.0625463420015375,-0.107225325313337,0.0283812064894459,-0.11902213135642,-0.0343118050078119,0.0515105778699971,0.0708183860120811,0.070633201339205,-0.104211515011231,0.152474999509322,-0.101377817449723,-0.139792266645602,-0.00987419156427107,-0.118694516986544,0.057041901463176,0.229661758692264,-0.0278262510371688,-0.160578739349864,0.00328875155534647,-0.0976335679050906,0.11311965504749,0.0694443878617735,0.0902555132212166,-0.0536211021009741,0.00644012161227342,-0.0407038679989074,0.0286160787884149,-0.0990633943439248,0.0916485335783611,0.0412030044923953,-0.0797529322010687,0.0621588293595535,-0.0428557204209578,0.0169145974688908,-0.09393735332123,0.191814908485357,0.028551545866958,0.154247681280385,0.0115961427683107,-0.049116510414946,-0.104108935943985,-0.0507355601051223,-0.00292144567906874,-0.0860071171643686,0.0765119490340051,0.0901424110209331,0.130992889351829,-0.038001645496122,-0.0651520091627334,0.170932081891996,-0.0161648618261419,-0.00785260375034251,-0.10546918753574,0.0058275466526656,0.128440737723876,0.130098718172764,0.119538062927501,0.00101547800356331,-0.0918886994168514,-0.182684141098819,-0.100659008391934,0.0301753107785801,-0.185867559579154,-0.0751326292135343,-0.015920949931032,0.11901802309135,-0.00572219531235939,-0.129580863338115,-0.000895035000213983,0.143496329993898,-0.0315224730590212,-0.269437858786828,-0.127548229423228,0.00263076830262863,-0.0469386235643661,-0.140942101785348,0.0240918350180975,-0.0579226165905898,0.0256393904792947,0.224540525888267,-0.12944524907773,-0.138464760785346,0.0167018699112135,0.0990855579839228,0.0731406140387766,0.0494954275023681,0.0128200555419219,0.075051234212389,0.0760441674835827,0.0313464081508821,-0.181103310037861,-0.175770485334019,0.195002551059215,-0.0326071312414842,-0.0321294560370921,-0.00184197712440006,-0.134498932646632,0.177474224054018,-0.0712647927056211,0.151577363520728,0.0161728727958619,0.135844688146462,0.129432220197084,-0.133088533645111,0.025979187503693,-0.118553944706882,-0.0183381904693028,0.169276104225124,0.206892336127202,-0.0295721403384988,0.173984729108793,-0.0224427811535171,-0.0482622260190948,0.0984090937413606,0.0115927462137719,0.102939138889,0.0956623182476771,0.0353958496137388,0.0444675372290425,0.0434828114234815,0.10064472046384,0.00691382924755174,-0.162794861737344,0.0390280248014892,-0.274435216158046,-0.255990098411767,0.471026472214238,-0.0941893721623614,0.160751799633314,-0.267565254327779,0.133084378993372,0.372965397226884,0.244889493896079,0.0825800334943409,0.098149146934895,0.0824729995751157,-0.152506692906955,0.176978740772388,-0.038253250392815,-0.201480498350064,0.030454534829674,-0.257496249905247,-0.216283664241199,-0.321622095458578,-0.318259980719539,-0.312281706515405,0.338990776589496,-0.174475094207524,-0.172652279370202,-0.011431228130799,0.0387367940031504,-0.492524518430011,-0.0548431346637621,0.0876730063133734,-0.0375046070798588,-0.405336554614743,-0.182123285290511,0.134002484366676,-0.567749374658318,-0.0633638838728156,-0.0874938636623693,-0.119160156481869,-0.396332625077904,-0.164802893788548,-0.407992800977821,-0.24358227049672,0.0824477214481222,0.794376389914385,0.0571626601036095,0.181343776253905,0.423590945411109,0.163383233518102,0.150283564978362,-0.0166349444630326,0.241234308307268,-0.0908183929397285,0.238744067446584,0.0914724075995779,-0.145733831596952,0.330269999911613,-0.580317019183708,-0.00119639174641305,0.226504975321206,-0.398993550879367,0.154048466400813,0.0999464518479964,0.140119972520382,-0.0430248954932491,0.177319634748609,-0.334461024724304,-0.37156074641797,0.646034375972706,0.323469953228868,-0.384198930210413,-0.16190180727557,-0.35712738317372,-0.281118330028656,0.237243629680242,0.242214557851343,-0.344410793497744,-0.24635551097032,0.106612513546794,0.461638477254215,-0.31139295965814,-0.254042894926107,-0.149462102227962,-0.417981492181267,-0.0284393940874859,-0.0306354624048895,-0.34683281115393,-0.745622869691702,-0.0920352156584251,0.153171823892569,-0.146578176263978,0.584825062363197,-0.280038979808718,-0.108816965948189,0.298283139938923,0.133290900401532,-0.111740423289082,0.248043141082164,0.248669802090607,-0.314955608271045,0.128825050833489,-0.205314175671668,-0.000145502076168695,0.277229680794523,0.048371496230677,0.108043932796023,0.0212692083887899,0.0715616620678288,-0.22103209426594,-0.10254844034468,0.0649124607197106,-0.4296550232156,-0.053281106378162,-0.1806384520006,0.147842643368788,0.459388663422123,-0.389814850538209,-0.292199334889589,-0.111237977007626,-0.212694034976363,-0.319322591126401,0.0587402917778675,-0.0244843565723014,-0.124370826756354,0.720453956809969,0.432283902715318,-0.0304592599518366,-0.0982880889724673,0.225339226815944,-0.211622991377548,-0.128180347846548,-0.0446086473667165,0.14490998693481,0.397203565232546,-0.0105639015365668,-0.239252387528328,0.459421514566446,-0.179450975285604,-0.408623358827521,-0.105357654679361,-0.164840910448076,0.515471126817307,0.0360301574395926,0.258212912946514,-0.399979021518716,-0.0892326306979853,0.0654268764289271,-0.289639520456588,0.152589996670936,-0.0862089103430315,0.024847615858911,0.0644426137009848,-0.0946525482117513,0.0269923388511019,0.146279270700858,-0.143790647285502,0.0981763057842739,-0.0769771871051904,0.138325949949737,-0.236535580462398,-0.00917725898191308,0.328207755854557,0.44727728187552,-0.209092219289687,-0.219374356497493,-0.19718945647987,-0.345532606034726,-0.287429644326843,0.148452448041218,0.0490220432394476,-0.275928211873104,-0.0650834252340423,-0.249930622954155,0.1571544718807,-0.135244332231514,-0.125365368475382,-0.112973583641406,-0.188595534693437,0.166890908480079,0.0515515120171801,-0.0872144305267475,0.0218385355828615,-0.216764266742881,0.0297391369145767,-0.271397595951999,0.265159403020175,-0.250685662746008,-0.202770746074984,-0.120515998383212,0.0170500484697733,-0.144053022713047,-0.039320560114486,-0.151941456011615,0.15830074241147,-0.0712395458335785,-0.37598550492894,-0.234443400668996,0.678462094770192,0.372636881816895,-0.298756923007104,-0.0427232713173194,0.0507075513151418,0.134727534827056,-0.179613023214878,-0.538405704582713,-0.091836065735376,0.107885648187731,0.34473809650382,-0.380482718603155,-0.0413184174702713,0.101873287656034,-0.321899609191286,-0.0791447111510889,0.0732436105088253,0.0175325558485884,-0.317535509674612,0.258393013762064,-0.0720615717214138,0.291033599692419,-0.10129032938005,-0.0155825208304584,0.326230343215635,0.188260952626175,0.509905741876727,-0.165056237837339,-0.285667794861307,-0.0996109739727111,-0.267392194852599,-0.119147263087097,-0.19231154527261,-0.0841764335129962,0.148053388790492,-0.398299918526294,0.143290997767827,0.0407876505933918,-0.117661252790744,-0.0944378022103075,-0.241159262481255,-0.150983372282514,-0.11095352633676,0.0365544904626669,-0.0253203502058653,0.141164673995591,0.00231657983734077,0.00225361202295715,0.190977104886804,0.133638548029615,-0.219399846889333,-0.398012212750423,-0.322957033418629,-0.0871424902058776,0.12143452222345,-0.160846817940953,0.250373841046856,0.431309930594912,-0.0832270622471386,0.372662247989252,-0.252031464199925,0.165228956414205,-0.0101826536557431,-0.163726517222724,0.0679399190166939,-0.248583690959052,0.303913552678986,0.221422501495403,-0.197246675249902,-0.102419927097684,0.0350053043436404,0.16794772017629,0.273324142784141,0.0597455692986038,0.00580727422204545,0.112031116441357,-0.0419126167630448,-0.31710328468804,0.0581191701860791,-0.00436502400312456,0.176779246667039,-0.216839237771768,0.282729517172539,-0.0285649374838336,-0.175017369118787,-0.0892670951721412,-0.118636685161265,0.0995661495748809,-0.359909179740724,-0.116545265721461,0.0517990812146781,0.151675059946897,0.290140819341153,-0.288920005851302,0.141151931142899,-0.0634907574073188,-0.181790046477215,0.0183634843551094,-0.116954125065402,0.0529321455768821,-0.103291475366005,-0.178333286984084,-0.167479676374446,-0.219428815771406,-0.11363350704323,-0.430553041411296,0.128997767367738,-0.0121842879148846,0.0693858178020767,0.104075712237932,-0.0304185075042069,0.0840949298217449,-0.0222202532680832,-0.154487667842114,0.140386708957984,0.296628704478041,-0.220306290208615,0.281370418762936,-0.167651721229911,-0.237267868422893,-0.0209615571699044,0.0166373252953347,-0.1718349050056,0.101314513580264,-0.700066320847077,-0.338399568297823,1.20781854366968,-0.792677350793878,-0.666016163807669,0.401835325543886,0.173627778696154,-0.316270073798998,0.268665377405596,-0.122118527027609,-0.57920580542213,-1.05302713267767,0.643084729584667,3.90236632403952,0.447264013256434,2.1861026820282,-0.0214144766474896,-0.266917438981203,-0.354466623821182,0.567769656282568,-0.323573833593704,-1.09385233263525,0.308232962967964,3.23403470535358,-0.448034052178359,0.0895052175481594,0.346513424950248,-0.151829254192264,-0.718048704481107,0.62000869224533,1.11124875599428,-0.455149188358615,-0.942161996870226,0.251141104294628,1.03623239535474,-0.491954814565919,2.02656088752529,-1.21139335077153,0.223653125991672,-1.10425846322557,-1.24349155036658,0.642125715588253,-0.720226032805708,-0.510904968487694,0.10993566269982,-0.664179196778876,-0.716827374883396,0.170177605494358,0.0361194332731678,-1.0888683931542,-0.638608536188552,0.187522657233279,0.480656219480877,1.69851284318579,0.686624971815702,-1.05386220113976,-0.463248932760553,0.327699550992973,-1.32685095745991,-0.39544550322487,2.29970345353985,0.908899868841021,0.590045843159929,0.000799266557803457,-0.0212572823842288,0.124629297860909,0.00473844357229894,-0.00837091493947287,0.0656993048097276,0.0324778958096373,0.0270038280906407,-0.0655022046741221,0.0529931251290691,0.052397112364038,-0.0241805031778928,-0.00502948640477818,0.0441397507711347,-0.100408021100352,-0.0643865003492538,0.201115156480294,0.0215750392645275,0.0636837240106391,-0.0199571292352213,-0.0551288502387121,-0.00387817939125842,-0.0595411242660194,-0.00769210972149168,0.0673647976357371,0.00388489390343883,0.0400045341206121,0.0177700454585513,-0.0106236534958617,-0.0870430861434425,-0.041834920011253,0.00403172160627915,0.0467428507682544,-0.020080249704391,-0.082548622694367,0.0482825633827676,-0.0537460934747422,0.0691050196136951,0.0261952042281215,0.0281646777674148,-0.0353317505061103,-0.0367619037124544,-0.0501274279066848,0.0619890891244606,-0.0103768835196699,0.065269093181801,-0.0298729534491944,-0.0449344876748904,0.0451328867890252,0.00803506519273702,-0.057206550573833,0.0525665526903068,0.00905146819408527,0.05910121073781,-0.0202311805647437,-0.0832662558731961,0.0213583370638907,-0.0170031811446183,0.066333150954153,-0.0543571677264826,-0.0506441414812995,0.00200293380059541,-0.0813765123915652,0.0514206874975114,0.314056621905789,-0.232625808720671,0.642821256358968,0.473101056095371,0.149477565452137,-0.131746172908343,-0.239179481535308,0.0647091794772346,0.416626771891608,-0.468230303739067,-0.0883599875003091,-0.0168158532728035,0.483217445932412,-0.0499963316641961,0.42911860436998,0.68379739324879,-0.493248036938412,-0.270454311719203,-0.0613391543347228,-0.144726269341788,0.593607061873813,-0.0390838835281669,0.0793547246465171,0.0487545589295842,0.541717762151148,0.0697274599293712,-0.450450030189836,-0.779455613233648,0.0414634775920806,0.362867445922166,-0.416050671959235,0.00764140556397017,-0.311804824129912,-0.177665454403278,-0.267589363533793,-0.133311920663524,-0.343383210281133,-0.0999572199714245,0.143603441518517,0.222920107801576,0.0297249417338181,0.0528771526997561,0.431783762550403,0.987436885236024,-0.637016064203849,0.000421387774512033,-0.0898254093179691,-0.0301694381900607,-0.0655762504752349,-0.214898452673869,-0.398220576417803,-0.218451235043755,-0.356332571235367,0.0341868401777549,-0.187936170087722,-0.339476792877391,-0.45484164955577,-0.127611801877944,-0.112602770664348,-0.0623890488049826,-0.149240002613384,-0.116610675456695,-0.220460007019909,0.144741214257721,-0.373233813113911,0.229902916632087,-0.291011405703587,-0.156394277701445,-0.0978622074648257,0.267157502023658,-0.141663452880703,0.173092060792573,-0.0838155887961027,0.151785967763403,-0.0567758544954723,0.0317743323262295,-0.0625047077397641,0.175534440627264,-0.158157703275982,-0.0158474084664229,0.104994173678198,0.177759897063692,0.0105717199313651,0.369310172766989,-0.0460642643345397,0.372009439616967,0.069025273445972,0.227991942990601,0.0689617187451588,0.033080275234097,-0.0767529367955988,-0.000872200814618532,-0.0462684176084296,-0.178960909452323,0.273526665010183,0.0342127415813551,0.0337387082470984,-0.166801738898062,0.229216302883149,-0.0301482820430039,-0.142248586598824,-0.390683831405131,-0.140016662424703,-0.363623173564478,0.140891128106811,-0.108631167854088,-0.231719340185816,-0.060065878730919,0.389422597885592,-0.15677601753638,0.120987865680193,0.195159184442947,-0.276808101876579,-0.0232068921785148,-0.377144182829934,0.070877343394454,-0.355760456742477,-0.114170202660978,0.500531435239566,-0.373056118650557,0.222993261250532,-0.32029972177013,-0.0523021362804717,-0.337424587154126,-0.228906891956568,-0.0126860392026186,-0.0452519473348559,-0.1853674528299,0.289361790314663,-0.0451460268716409,-0.148808834359113,0.287983436393553,-0.155898516971611,-0.0292501445473285,-0.0915959575857192,-0.172641135842931,0.0914524950687073,0.136595650977351,0.0719364667710409,-0.0994252613896409,0.177324912646525,-0.0557218344101565,-0.106779960399855,-0.088257461963616,-0.0211529476150708,-0.164507487590751,-0.341844170216077,0.128469875945661,-0.364049195952232,-0.128818419832633,0.0730667498979368,-0.0167311937153116,-0.112942041868824,-0.207975853493328,-0.0244959867203626,-0.110100699238781,0.024825769513841,-0.129250984875097,-0.316730809079723,-0.115764532624865,0.338508432680405,-0.164136313493956,0.0336337762706895,0.361050231658203,-0.132762870982747,0.00476549584238884,-0.379819683448156,0.381153069219024,0.233647070683923,0.343727845536071,0.633856153659161,-0.0340869404478866,0.162212704881043,-0.158259185246977,-0.0492007862082241,0.0159898415215399,0.0575813458041025,-0.106656689642684,-0.569758208044198,-0.320211180586771,-0.0305617910877878,-0.153393530882403,-0.137161622289855,-0.089637055897956,0.257350373738212,-0.177664356259778,-0.0606518695789334,0.506560853106334,-0.236502761933479,-0.121328851249585,-0.136581955928167,0.0142402117888631,0.0718036356369084,-0.198263648562497,-0.0814060103008413,0.126026195858486,0.0324909775807007,-0.312782621703581,-0.202364317918285,-0.0789788588149073,0.0589318257599419,-0.0217334618676629,-0.435155694178544,-0.173637936259978,-0.189448837178779,-0.24693733881651,-0.172640350291855,-0.0229196477631575,-0.336180897297233,-0.149196277292575,-0.16140785100677,-0.285983570895147,0.0618865358272315,-0.0621392377420036,-0.0561388687756677,0.0683200203001242,-0.0306712654850584,-0.0811247543924957,-0.508285810016808,-0.455632380100015,0.11501089803621,-0.0156809084165894,-0.227918189421774,-0.297863556715868,0.517644164219238,0.752331995632869,0.571130090853531,0.259349873908293,0.134334709331343,-0.133468671282954,-0.0738015419019348,0.566798293435705,0.482560774932512,0.0277193769910619,-0.0814569916868154,0.0137952338283162,0.577100158543824,-0.103878022423219,-0.0136103834320675,-0.0986775076980599,-0.249234805633512,-0.231097101742422,-0.0326764309245704,0.343451372264052,0.0522842159429198,0.0918287366389488,-0.126267851685754,0.588528221528609,0.0309759445165033,-0.321420896164979,-0.473251492794119,-0.127705096430368,0.225196073578343,-0.108382060258308,-0.411606590928378,0.149729362278461,0.0765181534308834,0.0160540796780783,-0.0966378349794393,-0.184406703699996,-0.0192370658610998,0.127028737584146,-0.0838790943784836,-0.114746592918631,-0.137489660244073,-0.213229485204262,-0.121545994446444,0.0827094190834176,0.221729057629763,-0.0851411227717691,0.126956231562439,0.00180661476179742,-0.0451250716993221,0.0975687383509624,-0.107957546627047,-0.0697575687890952,0.0729709898228662,0.0357942091170694,-0.165447019819917,-0.13618247966111,0.0363031598144069,-0.0804104258460721,0.0554929957113634,0.298944887465643,-0.119802532389988,-0.0679369034644455,0.0877199404903574,0.170101539607991,0.162629706607545,0.0227969694711187,0.0316061039695255,-0.0186212155657729,0.020312357488094,0.00136097087036573,-0.146841319999376,-0.159099298922669,-0.122614685122653,0.0560655298663991,-0.0602345612756649,-0.147406395432109,-0.156883333569086,-0.013638848752944,-0.102981174942159,0.0242415959463022,-0.0494034357899818,0.0439943357169269,0.1975386051172,0.0071920113946284,-0.0794195869551915,-0.0256736365796057,0.0666792033594041,0.149966364993189,-0.0294316700893273,-0.0326908464654893,-0.0720084488362168,0.198802951979728,0.0175789051885439,0.0812816516081619,0.124025004914833,-0.112854861708151,-0.0381410912251879,0.079369937740436,-0.181205123335934,0.175691828088512,-0.0952879759654424,0.156204757805015,0.16787400240405,0.0335351450838083,-0.113374077735259,0.0743698931635939,0.307486744349778,0.0299706952892798,-0.425237027515756,0.071277793415431,0.193131250744434,0.00969638118809145,-0.0370811925137717,-0.0227251236636284,0.0796864832574601,-0.0566206878576331,-0.0557407077376132,0.00762110634724778,-0.241196670871048,0.0761667605149641,-0.164791005494277,0.225301001085354,-0.37366492389603,-0.190044348062381,0.168264607555758,0.00949977986273874,0.0755304954872704,-0.112231871830847,0.397286795733615,0.122015049836996,0.388528693315088,0.0276556130351055,-0.0894366771179704,0.0979983658715261,0.12723601846872,-0.0314937955988426,-0.187173047836356,0.084510435134722,0.046150283085296,-0.0924083381413629,0.0015410549129523,-0.0609500314564079,-0.189986231440548,-0.211097697947613,0.0445944035415926,-0.156709211623689,0.134241203156705,-0.105158246515886,-0.035404329562168,-0.13155547106949,-0.301607075068161,-0.227659864215541,-0.287413039823277,0.0838726324048449,0.0154128732587901,0.0778573927783411,-0.123386290569368,-0.305921807409336,0.193590084489715,-0.0508871108489752,0.667982472123485,0.634737643616319,-0.0547533900226797,-0.35325744762928,-0.100030628419429,-0.154774425241103,-0.23409939206355,-0.17605305878306,0.728782295566423,0.684353964148936,1.14076380003873,1.30557012105419,-0.33406752345987,-0.0960311382864497,-0.30947422304595,-0.057014501762884,-0.200304216293867,-0.0480845904941729,0.0920995028363657,-0.0618003982935629,-0.0426051193789002,-0.130559290707806,-0.236721869416596,-0.123801392348835,-0.0380169111935956,-0.0573334887891874,-0.119809570362155,-0.182108460032859,-0.176119113212871,-0.190077802842343,-0.26103140718711,-0.186533087740922,-0.256126581376066,-0.0558520552628369,-0.276788895914902,-0.0411087680115715,-0.167618238773449,-0.166323989957481,-0.133136816634704,-0.218554139695589,-0.101275862295611,-0.173406266487783,-0.297995996971498,-0.0433936640743685,-0.0589337804589007,-0.021796724202059,0.0235910828131932,0.0512025592752321,-0.164659692575809,-0.138545624859513,-0.164278577270199,-0.247875902617941,-0.243259539910616,-0.105701177498634,-0.247661139464495,-0.105754493839031,0.111419314439816,-0.0739732476390605,-0.0494678100019196,-0.257948651087956,-0.2152430928653,-0.0152099077833809,-0.131843541357796,-0.075907867308949,-0.215701166538042,-0.128794515015436,-0.0612708953485597,0.662093921088308,0.0711728428702152,-0.371010336893426,0.312269125397688,-0.056648039181038,0.448159807332554,-0.194417263842503,-0.412008146414153,0.123677452831224,-0.114562464694731,0.260144805850898,-0.576412357765131,0.212907490183253,0.374740401935307,0.381483811700166,0.647108564000975,-0.229498243223582,-0.415550206594033,-0.178506167880781,-0.253290211610109,-0.133295734956725,0.248922529977689,0.0584519947600608,-0.00551402747273644,-0.151832363182024,-0.00405150662479868,-0.184260875883982,-0.00847573288022964,0.157723348853877,-0.368354848971474,0.057690780502462,-0.127293042716732,-0.317680175480468,0.174999460319647,0.00906200814017357,0.0746089601204309,-0.218481491556725,0.0293044294605313,-0.235064782850181,-0.294387377280058,-0.0752391606871087,-0.0535996492594906,-0.217929665023651,-0.218452455574626,0.0567150057619661,0.0803956227165669,-0.0671763162100026,-0.184056609230583,-0.0541957336871465,0.137459580105872,-0.12273709665545,-0.128187359509808,0.0351109941779402,-0.0338795767205687,-0.335777354645336,-0.183980120159686,0.597496166537481,-0.0253222483603831,-0.192348209717982,-0.0861961955381505,0.141979630285024,0.00659781821991901,-0.00323451702806118,-0.0142012097952868,-0.00989127486841914,-0.0151342577991547,0.00220121135324844,0.0558244615172519,-0.0231013730498091,0.0148971295327094,0.0104462897174755,0.0452007308164707,0.0101786289777805,0.0373688595101714,-0.00976910949511074,-0.0302428584330777,0.0418521672720404,-0.0175686464877848,-0.00402860459136044,0.0572228268996068,-0.000873824552194245,0.0177616883523344,-0.0169793296144286,-0.0347092400892279,0.00011216958527391,-0.0263937484683513,0.00501087283308095,0.00674917367596478,-0.0289140460222769,0.0352029731044685,-0.0174504799823101,0.0222249059276774,0.0136911506379011,-0.0344900070634981,-0.0310255162609619,0.0312712117532066,0.00638966682452004,-0.0252275799215616,0.0262357148058378,-0.0331843097733775,0.0715878357171093,0.0572615085308727,-0.0186356065777044,-0.00229900173978212,0.0141270037255177,0.0523689024936715,-0.0387195064200832,-0.0252373133894548,0.0232386785740673,-0.00511964116902199,-0.00615847006600129,0.041704944967019,-0.00925151214343082,0.0211298810849178,-0.0075321705694461,-0.0366680958780801,0.0794292724326904,0.0414294274470176,0.00727079081714974,-0.0238421553748876,0.0101130734614072,-0.0163716347718015,-0.0246824261548931,0.028979216146818,-0.036922897622547,-0.0228365078848474,-0.0694849612126679,0.0335843212574557,0.0549321812050803,0.00652426691906068,-0.0375364217623565,-0.0744117673823712,-0.0635986491532985,0.0681099142725367,0.00666595175963914,-0.0809733048708322,0.0437616046687582,-0.0500441602438806,0.00419525960897579,-0.0309617075031822,-0.00766255126045487,-0.0624133938173478,-0.0827349796790302,-0.0241618791937619,-0.049772718928516,0.053754620918819,-0.0276946604042247,0.134154753272672,0.0264041847027865,-0.0275328236640643,0.0380388596231158,-0.0882323283950004,0.0218468390273304,-0.02806410375885,-0.0114926225698827,0.0373133961322127,-0.0426468936797447,-0.0493054942754064,-0.0334222208822883,-0.0379876454213443,-0.00184402117706272,0.0490925253980053,0.0870117173155359,0.0325230302741355,0.0666528171951378,0.086233583594339,0.0394901558558851,0.00312496150646675,0.149515026131717,-0.0409689368875323,-0.0673126958849444,-0.00271770522625513,-0.0364510951767108,0.125906471781695,0.022177364307162,0.0298808039965799,-0.05630649242855,0.050800934262206,-0.0210454800292595,-0.0418381893252306,0.00700886577303173,0.148483044903281,0.0486014408712545,-0.00671633229545599,-0.0498982529540385,-0.0643480540716433,0.0287609866135021,-0.0246135277511598,0.101105854044633,-0.228520605628653,-0.173172778628001,0.12122473233074,-0.0713614336064969,0.043909519307605,0.128813691667681,-0.175371436885373,-0.183107840373341,-0.015747331255955,0.0459086646572865,-0.349954998267213,-0.0757062703861458,-0.174527718793846,0.0513449532845171,-0.0783204357550966,0.0402059757532852,-0.252501799560147,-0.0367802494004729,-0.176640441820742,-0.32809003115626,0.0648770123994826,0.0855922298395859,-0.0367256784714179,0.0906282847548209,-0.154486074261828,0.181792453066575,-0.160827201212867,0.00481276196103081,0.0100774775268294,-0.0680577612203617,0.0618909373296772,-0.0997703873634141,0.210796265962675,0.207425838315327,-0.200948917879551,-0.181311241491872,0.10774693291804,0.109950818353531,0.201233152824915,-0.149319192158085,0.0684956144476447,0.0969656291335948,-0.115443121021311,-0.0190771409383058,-0.0311157252551118,-0.118436990862731,-0.397349496166764,-0.134486544004995,0.085282345263632,0.0370645935491853,0.608761938953518,-0.0733835029977296,-0.00490932612253551,-0.253296940846998,-0.0578548435380741,0.366453205139688,-0.0266754128097833,-0.0633603621171384,-0.10429544693464,-0.406986593037665,0.153362447783473,0.19080567664302,0.0261496894336586,0.275525935379459,-4.50291184630247,-8.00608534384334,-2.33212708765142,0.0448923252449031,-13.0539367965431,-9.91470994016196,-7.1971818463828,-7.69425754693189,-10.5012747844391,-12.7729313923465,-5.77843770653026,-7.2327537960246,-7.83056695037259,-0.1435089284834,-15.84195249356,-12.9149115594007,-12.1689782781528,-11.9789863533911,-9.90246222577937,-11.0550767434285,-14.3359135437761,-3.16383055286136,-8.35084841033901,0.0957715299311345,-7.71763096265128,-1.01568956234801,-9.39701049859988,-11.1019577499153,-10.9740171218636,-1.54400690500184,-2.01112082437256,-7.42433945209235,-7.56006940663053,-6.75743109176696,-8.84119303185177,-6.76201626528391,-0.019971365576203,-2.21305693348546,-4.51481701748333,-9.64617260656629,-8.33447709770527,-5.39711602581068,-4.31170590294063,-6.58095034213605,-15.1679430654763,-9.90474603456576,1.10170528822696,-1.07176217203651,-3.32123990554871,
